Dataset,AE_1,AE_2,AE_3,AE_4,AE_5,AE_6,AE_7,AE_8,AE_9,AE_10,AE_11,AE_12,AE_13,AE_14,AE_15,AE_16,target
TravelTime_387,-0.52946097,0.28079244,-0.47791728,0.083953455,-0.4764431,0.56284344,-0.2709659,-0.2509242,0.4267599,-0.3330928,-0.45547476,-0.32474458,-0.6871951,-0.12180342,-1.0135659,-0.2919958,0
TravelTime_451,-0.121571526,-0.06504572,-0.26927286,-0.74396,-0.13712756,-0.19397458,-0.46721718,-0.041162938,-0.14765215,0.011417326,0.2042546,-0.14339533,-0.4630557,0.15571935,-0.17731835,-0.55141807,1
Twitter_volume_AAPL,-0.4848828,-0.32079536,-0.037888315,-0.45923775,-0.07540257,-0.47415033,0.10743586,0.15156762,-0.63572836,-0.19473208,-0.14530562,-0.45158502,0.9378352,-0.2086655,0.64369583,-0.46786457,1
Twitter_volume_AMZN,-0.4550968,0.23736592,-0.46409968,-0.24145119,-0.3799157,0.618605,-0.42750502,0.07537365,0.38138318,-0.22451028,-0.27092987,-0.29911277,-0.76011,-0.046712242,-0.89935803,-0.54864305,0
Twitter_volume_CRM,-0.24648234,0.03845613,-0.35270017,-0.7034802,-0.21338853,0.22256276,-0.5610327,0.14714652,0.11961249,-0.06623815,0.13111405,-0.18541232,-0.7660718,0.122564375,-0.5071181,-0.6285171,1
Twitter_volume_CVS,0.12827177,-0.51652783,-0.5987338,-0.72310346,-0.00217755,-0.54788965,-0.32182735,-0.5800854,-0.632645,0.347274,0.42288634,-0.10841063,0.062464602,0.074172646,0.8643803,-0.42604703,1
Twitter_volume_FB,-0.4208901,0.6668091,0.449931,-0.7586445,-0.50506914,0.2862413,-0.48618793,-0.3691537,-0.028643545,-0.34964293,0.2940442,-0.5368255,-0.5354051,-0.3467871,-0.54429394,-0.35552657,1
Twitter_volume_GOOG,-0.5148641,0.2361321,-0.4994371,0.05405693,-0.5105926,0.6745158,-0.26607522,-0.17421521,0.44803074,-0.30844462,-0.41226852,-0.30255613,-0.6957269,-0.1100771,-0.98487014,-0.3593927,0
Twitter_volume_IBM,-0.49204203,0.15987563,-0.4903237,-0.10881971,-0.43917426,0.57568866,-0.3194228,-0.05509695,0.41211045,-0.25403395,-0.34504062,-0.22345066,-0.74942636,0.005078427,-0.9456497,-0.4324018,1
Twitter_volume_KO,-0.37997842,0.1803227,0.22069438,-0.7967876,-0.26602927,-0.034156322,-0.51175374,0.09276766,-0.42625704,-0.22325122,0.23601106,-0.49156293,-0.13173261,-0.2094766,0.039251212,-0.595152,1
Twitter_volume_PFE,-0.34607154,-0.13388939,-0.4980631,-0.4426013,-0.27902168,0.17920607,-0.35033247,0.062450066,0.29454008,-0.090536736,-0.13069245,0.08395191,-0.8107889,0.30417633,-0.7410178,-0.46447426,0
Twitter_volume_UPS,-0.37514696,-0.43203494,-0.21483228,-0.5278551,-0.10957007,-0.506154,0.16251346,-0.13522123,-0.49659905,-0.062329456,-0.06260126,-0.20760162,0.67785037,-0.022570021,0.54715526,-0.3444324,1
ambient_temperature_system_failure,-0.28964525,-0.067299105,-0.39160386,-0.7238614,-0.17730546,0.09116818,-0.5607948,0.07045472,0.056677353,0.016591597,0.080046,-0.08401678,-0.70012885,0.1732927,-0.434483,-0.5688509,0
art_daily_flatmiddle,-0.1024912,-0.3875635,-0.40664303,-0.9020133,-0.107964315,-0.43250704,-0.34841722,-0.370845,-0.26699778,0.2187537,0.28226656,0.12683037,-0.3997205,0.35790265,0.12647237,-0.36896497,1
art_daily_jumpsdown,-0.30130467,-0.16531397,-0.33100897,-0.7797329,-0.2190358,-0.13473456,-0.35142082,-0.053532857,0.13443582,-0.07076074,0.059972357,0.06715829,-0.6914988,0.3576907,-0.52934444,-0.43222174,0
art_daily_jumpsup,0.06289264,-0.52337205,-0.5594797,-0.7660729,-0.109214395,-0.6186971,-0.17998536,-0.6725661,-0.4183174,0.24321981,0.38649336,0.12616442,-0.15017672,0.30252895,0.5045871,-0.26704815,1
art_daily_nojump,-0.42329916,-0.061563466,-0.32494274,-0.619285,-0.2990188,0.035663135,-0.3108404,-0.076452576,0.2785353,-0.15688968,-0.11205458,0.021138454,-0.73447007,0.31372598,-0.76261854,-0.3992215,0
art_increase_spike_density,-0.37982288,-0.018916741,-0.7720307,1.0256681,-0.62393284,0.4391106,-0.048705254,-0.70522755,0.3283568,-0.4853147,-0.5556472,-0.45949647,-0.40751335,-0.3603433,-0.6539743,-0.015518409,4
art_load_balancer_spikes,-0.39873996,0.18735895,-0.16543685,-0.6417014,-0.324367,0.22784638,-0.39509186,-0.09079653,0.20217004,-0.20224068,-0.0068491567,-0.19429429,-0.7329416,0.060362015,-0.7059505,-0.43846235,1
cpu_utilization_asg_misconfiguration,-0.33994034,-0.028967217,-0.77968484,0.99036616,-0.67574424,0.43613404,0.03487872,-0.79988784,0.33717436,-0.5261928,-0.5524023,-0.46414408,-0.34264928,-0.38962162,-0.66083163,0.063943274,4
ec2_cpu_utilization_24ae8d,-0.51451844,0.23960593,-0.5676792,0.41901347,-0.59407955,0.6550614,-0.15606102,-0.5122018,0.42659807,-0.42829943,-0.5315286,-0.43149397,-0.57969725,-0.25044876,-0.9365225,-0.15789917,0
ec2_cpu_utilization_53ea38,-0.3402938,-0.018564092,-0.7540225,0.98421824,-0.6582923,0.4002941,-0.02524685,-0.8146583,0.33641404,-0.52252626,-0.53005046,-0.50123364,-0.37681687,-0.41227502,-0.6132254,0.055865236,2
ec2_cpu_utilization_5f5533,-0.3710539,-0.009997942,-0.7599333,1.0078429,-0.63457876,0.43571913,-0.043370873,-0.7263223,0.3399283,-0.4888587,-0.5468993,-0.46622777,-0.40669242,-0.36897916,-0.6540891,-0.00065094564,4
ec2_cpu_utilization_77c1ca,0.02587766,-0.56012547,-0.5553458,-0.6253536,-0.14766102,-0.62124705,0.022562834,-0.7115431,-0.33284578,0.23651728,0.25729367,0.22591789,0.039344303,0.2963337,0.45593867,-0.18250932,1
ec2_cpu_utilization_825cc2,-0.38944075,-0.0018350086,-0.7465942,0.96665615,-0.62437814,0.4596534,-0.050972894,-0.68715405,0.35081723,-0.46405664,-0.5502838,-0.43727297,-0.43434832,-0.34126422,-0.6830309,-0.017998535,4
ec2_cpu_utilization_ac20cd,0.37338188,-0.5286219,-0.70395464,-0.7616781,-0.008087695,-0.6946113,-0.37715247,-0.8791107,-0.58886844,0.55132675,0.5868111,0.11475286,-0.23999608,0.24722198,0.85919243,-0.35720104,1
ec2_cpu_utilization_fe7f93,-0.42295307,0.11483201,-0.116404854,-0.6763009,-0.3742306,0.10216552,-0.32972035,-0.2556076,0.21649902,-0.2583945,-0.01144536,-0.12413659,-0.7047262,0.13578106,-0.7267334,-0.33854118,2
ec2_disk_write_bytes_1ef3de,-0.47325864,0.22150074,-0.088802144,-0.59814894,-0.4399878,0.24534525,-0.28524217,-0.30845553,0.31223774,-0.3216337,-0.107263856,-0.20482083,-0.7315507,0.029420933,-0.85425097,-0.29021803,1
ec2_disk_write_bytes_c0d644,-0.0982506,-0.56000894,-0.5460567,-0.5613182,-0.08857044,-0.58316255,0.10057489,-0.6151591,-0.5073911,0.23045605,0.17611314,-0.019886136,0.42248002,0.15379475,0.710242,-0.2650663,0
ec2_network_in_257a54,-0.55923,0.1719211,0.52645195,-0.50410587,-0.31205526,-0.26402438,-0.1869381,0.12141117,-0.62645453,-0.40607932,0.019696029,-0.56984097,0.53562975,-0.3871067,0.26838064,-0.44205913,1
ec2_network_in_5abac7,-0.5504344,0.15867776,-0.42035615,0.0016017042,-0.54317665,0.47926313,-0.17028804,-0.38438076,0.4279533,-0.37969348,-0.4509359,-0.26467487,-0.664338,-0.04241958,-0.98160946,-0.20408592,0
ec2_request_latency_system_failure,-0.12378822,-0.13246651,-0.5815404,-0.67461574,-0.01468086,0.10177223,-0.6743788,0.24991462,0.037573345,0.113991395,0.16334215,-0.093455784,-0.81982404,0.20700641,-0.3500111,-0.67494375,0
elb_request_count_8c0756,-0.53811425,-0.0777016,-0.7677811,0.81665415,-0.4520944,0.4915867,-0.1873236,-0.1433836,0.32438675,-0.31380314,-0.62155163,-0.18415411,-0.5923019,-0.013013509,-0.88697886,-0.32074,0
exchange-2_cpc_results,-0.5107583,-0.034215033,-0.75339377,0.89178866,-0.45655116,0.45502484,-0.2211293,-0.29535314,0.28984776,-0.3478776,-0.59493405,-0.3068708,-0.5817135,-0.13283516,-0.79572564,-0.2839773,4
exchange-2_cpm_results,-0.4979363,-0.031392064,-0.7572729,0.96958435,-0.466175,0.46395442,-0.20711905,-0.32927555,0.28477237,-0.35588795,-0.5845515,-0.32640776,-0.57550097,-0.16880804,-0.76442647,-0.24878736,0
exchange-3_cpc_results,0.105787545,-0.5316495,-0.6859774,-0.656408,0.005374496,-0.5399391,-0.26539567,-0.71239066,-0.5657907,0.39899352,0.35928357,-0.08268902,0.21411957,0.09232516,0.8392911,-0.3809295,4
exchange-3_cpm_results,-0.486395,0.10358722,-0.68598413,0.72583896,-0.48088032,0.5113468,-0.21709977,-0.40065998,0.34068796,-0.3511195,-0.5572184,-0.36369643,-0.61570024,-0.17974977,-0.828569,-0.21294165,0
exchange-4_cpc_results,-0.53407276,0.32748976,-0.3592499,-0.034389134,-0.47344372,0.57456535,-0.29617375,-0.39969018,0.4364482,-0.3421073,-0.40289202,-0.40413204,-0.74047494,-0.20264521,-0.97186166,-0.18576111,4
exchange-4_cpm_results,-0.5286115,0.26109323,-0.488734,0.26557252,-0.511062,0.5907459,-0.24237613,-0.4697517,0.4285563,-0.3799854,-0.49181405,-0.4253449,-0.68004817,-0.24369629,-0.9318058,-0.13090076,4
grok_asg_anomaly,-0.47350115,0.11904447,-0.5290411,-0.0489385,-0.34363106,0.53083575,-0.3942942,0.015046681,0.37272853,-0.21269299,-0.34157395,-0.20659348,-0.7851529,0.028599294,-0.91876674,-0.45384368,0
iio_us-east-1_i-a2eb1cd9_NetworkIn,-0.50075483,0.49129677,-0.31818837,0.01748229,-0.4495443,0.4963485,-0.331859,-0.28664815,0.36230868,-0.26131585,-0.35665426,-0.42957255,-0.7342676,-0.12968646,-0.98168653,-0.33787373,4
machine_temperature_system_failure,0.39601466,-0.5094419,-0.6955739,-0.83440596,0.040693972,-0.58560175,-0.52728814,-0.71685296,-0.47833648,0.56719255,0.638254,0.21271954,-0.54916257,0.31805846,0.6858908,-0.40490153,1
nyc_taxi,-0.42485276,-0.0128110945,-0.7883437,1.0301003,-0.59894544,0.5327835,-0.05571022,-0.53030103,0.3386699,-0.43112925,-0.58131135,-0.38544175,-0.44424003,-0.28417516,-0.7458132,-0.108676955,4
occupancy_6005,0.1690528,-0.500478,-0.6531072,-0.71668226,-0.043599155,-0.520927,-0.36600676,-0.4459901,0.0051925015,0.35649058,0.3104326,0.57305527,-0.8020134,0.64531195,-0.14151098,-0.254344,0
occupancy_t4013,0.11389644,-0.46925834,-0.64781314,-0.6782975,-0.04924112,-0.462508,-0.38209647,-0.33833373,0.065186106,0.29174596,0.25974268,0.54541904,-0.8036079,0.6195407,-0.23758154,-0.2803831,1
rds_cpu_utilization_cc0c53,-0.46807498,0.08560449,-0.69847715,0.79800814,-0.5698467,0.58886486,-0.11411251,-0.47669822,0.37580207,-0.4015704,-0.5467738,-0.3665584,-0.53734183,-0.26777944,-0.8205181,-0.11902698,0
rds_cpu_utilization_e47b3b,-0.3466798,-0.004250506,-0.7446564,0.96448106,-0.6578804,0.41449693,-0.026263215,-0.80401886,0.3413551,-0.52209187,-0.5312248,-0.49948815,-0.38272643,-0.40683985,-0.63011056,0.050858077,2
rogue_agent_key_hold,-0.1937314,-0.12751514,-0.31146047,-0.79976106,-0.13254151,-0.18208624,-0.49700168,-0.13773231,-0.06662571,0.04654464,0.18117984,-0.02549263,-0.60840845,0.21825925,-0.26133147,-0.4460164,4
rogue_agent_key_updown,-0.4367169,0.5021954,0.37864244,-0.81645036,-0.45169514,0.16828002,-0.46286532,-0.34900683,-0.03673507,-0.38955247,0.23817877,-0.51316124,-0.55295134,-0.2487149,-0.53175324,-0.3619178,0
speed_6005,-0.49576637,-0.2846576,-0.7324923,0.24523772,-0.19943044,0.15943468,-0.31845433,0.20370601,0.2853968,-0.04849484,-0.42884013,0.2421498,-0.7628844,0.44195184,-0.9248794,-0.43146977,0
speed_7578,-0.3093527,-0.6354709,-0.6521761,-0.16144776,-0.026247673,-0.42228636,0.4551599,-0.46386167,-0.67292684,-0.0044152257,-0.11999447,-0.41814786,1.4303377,-0.32985234,1.1319526,-0.25026122,0
speed_t4013,-0.26390696,-0.36097303,-0.30490613,-0.51917917,0.057639536,-0.35546464,-0.2283833,0.08201295,-0.74282146,0.15943208,0.035309594,-0.476834,0.7385183,-0.2568263,0.8996196,-0.5544752,1
