Dataset,AE_1,AE_2,AE_3,AE_4,AE_5,AE_6,AE_7,AE_8,AE_9,AE_10,AE_11,AE_12,AE_13,AE_14,AE_15,AE_16
IOPS_102,0.29257035,-0.5153734,-0.66001016,-0.824629,-0.013557323,-0.5468134,-0.44755927,-0.61196566,-0.25395244,0.44346672,0.5025708,0.37121528,-0.67322725,0.4609524,0.31570655,-0.33022788
IOPS_103,-0.49212644,-0.026015326,-0.7574404,0.8736755,-0.5454843,0.5605018,-0.122277305,-0.3413895,0.3565181,-0.36855665,-0.5996741,-0.2848874,-0.52999204,-0.15147062,-0.83584094,-0.2118332
IOPS_104,-0.54611075,-0.13572243,-0.7557947,0.64379853,-0.41357625,0.4848702,-0.22018841,0.00066802854,0.33788046,-0.25233805,-0.5961556,-0.08195086,-0.6458235,0.09767563,-0.91463244,-0.37403977
IOPS_11,0.25860107,-0.52580494,-0.6369458,-0.8643968,-0.06339764,-0.61803293,-0.36443016,-0.6722396,-0.22816585,0.35538435,0.49651837,0.3664936,-0.6170462,0.4679681,0.29157534,-0.29857734
IOPS_116,-0.3176045,-0.07143817,-0.5545423,-0.38410452,-0.19973283,0.27848577,-0.48213956,0.172676,0.25569558,-0.040734872,-0.099230856,-0.017392343,-0.8237044,0.23465922,-0.70443684,-0.5611016
IOPS_118,-0.50795627,-0.19952412,-0.7024962,0.30057707,-0.32226273,0.36785758,-0.2789142,0.13186397,0.34658024,-0.14806217,-0.48088363,0.08603183,-0.742911,0.26646978,-0.9142998,-0.40807214
IOPS_121,-0.5054523,-0.03340756,-0.7542376,0.84100544,-0.5404963,0.5560568,-0.12211316,-0.32164434,0.35152748,-0.36839798,-0.60401374,-0.2689867,-0.5374953,-0.13246222,-0.85179156,-0.22111817
IOPS_127,-0.47094455,0.18952475,-0.46772283,-0.11072046,-0.42592916,0.54610485,-0.32061747,-0.06323586,0.42033434,-0.17663026,-0.30345815,-0.16180423,-0.7739714,0.010283529,-0.92910355,-0.41789404
IOPS_128,0.038179327,-0.4365159,-0.5288501,-0.7421375,-0.09588959,-0.3530977,-0.36763203,-0.29609835,-0.32296208,0.32460725,0.3166764,0.14380655,-0.53915936,0.23448384,0.29456493,-0.3607144
IOPS_186,-0.3998697,-0.04367625,-0.7997381,1.0791996,-0.6100483,0.4817682,-0.039892897,-0.60695016,0.33146203,-0.4459636,-0.57865256,-0.39229798,-0.42185488,-0.3058499,-0.6987259,-0.06258472
IOPS_19,-0.4547161,-0.25576106,-0.6874529,0.09801683,-0.25385958,0.25130954,-0.32274806,0.18026643,0.31091657,-0.087969124,-0.40416715,0.17902926,-0.77627164,0.3464257,-0.85818565,-0.43133935
IOPS_192,-0.3398816,-0.025932495,-0.774,1.0041935,-0.6660026,0.42819718,0.009821748,-0.7950166,0.3377937,-0.51713586,-0.5439088,-0.47185358,-0.3595257,-0.39645663,-0.6422432,0.056119606
IOPS_194,-0.21594742,0.10381885,-0.27139246,-0.83554655,-0.11115335,0.20360897,-0.7342784,0.30217034,-0.15852346,-0.016985573,0.22809389,-0.4438413,-0.5701361,-0.07980523,-0.1652029,-0.7790046
IOPS_199,-0.562316,-0.22582965,-0.78853726,0.6719455,-0.36429814,0.42031762,-0.23791534,0.10596424,0.30077264,-0.22323428,-0.6262182,-0.008089516,-0.6498845,0.18562168,-0.9135313,-0.41101506
IOPS_218,-0.21070826,-0.25610942,-0.6066156,-0.48917496,-0.13600472,0.06122328,-0.44804406,0.13166578,0.18238743,0.075910166,0.009633207,0.17756869,-0.84410095,0.38678807,-0.55359834,-0.4973819
IOPS_225,0.32293263,-0.56418335,-0.6573382,-0.78860587,-0.06598345,-0.60886216,-0.33959693,-0.73199505,-0.22723381,0.43899146,0.4911597,0.4936487,-0.68954957,0.48982167,0.32080558,-0.22770452
IOPS_236,0.32012215,-0.5234459,-0.6604409,-0.8021862,-0.045143403,-0.60096645,-0.39252344,-0.7102703,-0.32534838,0.44990098,0.5321855,0.33265013,-0.58346564,0.3971267,0.44513088,-0.31148726
IOPS_24,0.115509264,-0.5059643,-0.6362897,-0.70404446,-0.069448404,-0.4127581,-0.37979528,-0.35263768,0.04897209,0.31512338,0.27579185,0.53884006,-0.83939004,0.60481834,-0.16547787,-0.29511622
IOPS_241,-0.69208264,-0.20242296,0.23218438,-0.32923627,-0.14079323,-0.5035304,0.3480017,0.27266932,-0.60675514,-0.39825743,-0.33826137,-0.5136113,1.2591903,-0.31831694,0.52454156,-0.4144349
IOPS_242,-0.42051274,0.7648924,0.4363662,-0.67982835,-0.5916734,0.38148904,-0.349188,-0.71956974,0.25396746,-0.48292515,0.21756622,-0.5752303,-0.6366239,-0.3905704,-0.866529,-0.120200396
IOPS_243,-0.6740665,-0.62728995,-0.38481808,-0.14360903,-0.010254447,-0.6295431,0.833321,-0.09408588,-0.511843,-0.25398496,-0.5017334,-0.46888524,1.8259578,-0.24597956,0.8864924,-0.31633306
IOPS_246,-0.65667397,-0.67926115,-0.50965345,-0.10838024,-0.03233477,-0.60747385,0.9117694,-0.28903675,-0.49149927,-0.1810105,-0.47183326,-0.44238055,1.851382,-0.2223212,0.9492722,-0.26906607
IOPS_255,-0.26578745,0.101081654,-0.08507969,-0.8286235,-0.18426053,0.07365036,-0.6245078,0.17174998,-0.2760117,-0.07234648,0.23452117,-0.431082,-0.38519126,-0.1308668,-0.04608578,-0.67094666
IOPS_256,-0.16121235,-0.12066845,-0.23546237,-0.82346517,-0.08722879,-0.10778554,-0.56010854,0.13789025,-0.38915473,0.04900244,0.263213,-0.32800415,-0.3059294,-0.037392274,0.1895188,-0.63344353
IOPS_261,-0.52531236,-0.07927734,-0.76950616,0.8217401,-0.49681225,0.54411715,-0.16514744,-0.1933701,0.3437966,-0.32631174,-0.61815,-0.20912646,-0.5851596,-0.053676028,-0.86790323,-0.2878562
IOPS_264,-0.47878975,-0.16589737,-0.70116985,0.13373716,-0.27594033,0.37639964,-0.3423308,0.19368024,0.3364846,-0.13375738,-0.41979605,0.047683567,-0.7651482,0.2631926,-0.8977262,-0.4793083
IOPS_267,0.2624594,-0.5238589,-0.6524357,-0.80047816,-0.042568795,-0.53000474,-0.39778316,-0.57004595,-0.16645007,0.40792143,0.45824414,0.4448139,-0.7358251,0.50735784,0.18946187,-0.29777113
IOPS_269,-0.5245622,-0.1079938,-0.6939001,0.22624782,-0.32767054,0.4206695,-0.3122658,0.10770607,0.3405909,-0.18153012,-0.47956622,-0.023365233,-0.7382976,0.19628587,-0.92942065,-0.44109753
IOPS_275,-0.49677995,-0.065686665,-0.77426577,0.91513,-0.5329715,0.53349453,-0.12066538,-0.3142848,0.34472096,-0.3567301,-0.61201185,-0.25502646,-0.52966154,-0.11655056,-0.83340293,-0.22450274
IOPS_285,0.19078651,-0.46480787,-0.64474756,-0.8252332,-0.006632187,-0.43309504,-0.49574065,-0.39373982,-0.12940249,0.36665148,0.42666,0.3228202,-0.744762,0.47825506,0.09326834,-0.40292403
IOPS_3,0.2553757,-0.5589121,-0.6212161,-0.8216417,-0.1242219,-0.6727948,-0.23842603,-0.7663342,-0.2182819,0.34046504,0.4819616,0.43704233,-0.5597265,0.49651632,0.28758892,-0.20689753
IOPS_319,-0.18248805,-0.45756584,-0.6776051,-0.31489393,-0.11525291,-0.11125157,-0.34059742,0.07413505,0.2666021,0.10724015,-0.08592083,0.4848659,-0.8690068,0.61680996,-0.6436828,-0.3602081
IOPS_327,-0.18933152,0.012069298,-0.1623748,-0.8520467,-0.12008122,0.0037160546,-0.6268454,0.21663447,-0.31043953,-0.052763045,0.26581278,-0.42027733,-0.394572,-0.09912323,0.040763706,-0.6959291
IOPS_328,-0.3994867,-0.67559105,-0.648556,0.02527008,-0.052181296,-0.5912261,0.6067805,-0.4056011,-0.59645176,-0.24693762,-0.23302008,-0.5241238,1.5556897,-0.31412885,1.0841371,-0.28411528
IOPS_329,-0.4028303,0.32675448,0.48010904,-0.7065693,-0.3212627,-0.08630898,-0.46658692,0.12426636,-0.47717708,-0.40093982,0.21679094,-0.5862092,0.019173361,-0.35904288,0.0532426,-0.54436886
IOPS_330,-0.47137207,0.6366251,-0.17050593,-0.08758114,-0.68353903,0.7781794,-0.16943385,-0.67676187,0.5177294,-0.4464156,-0.29803377,-0.5638572,-0.6089835,-0.43657836,-1.0644131,-0.08379998
IOPS_331,-0.4290937,0.19702156,-0.3041436,-0.520841,-0.3591114,0.4148847,-0.40516722,-0.00040808725,0.31121376,-0.24198146,-0.14350168,-0.242546,-0.7510947,0.031055022,-0.83592814,-0.5087502
IOPS_333,0.19801372,-0.49723113,-0.62118685,-0.75608045,0.029410021,-0.5493154,-0.36011866,-0.56909835,-0.6124246,0.37184668,0.4516557,-0.08129673,-0.045085877,0.12698244,0.84762585,-0.43477848
IOPS_334,-0.2639218,0.017965809,-0.37755668,-0.70789284,-0.19164081,0.19884472,-0.51288295,0.15773292,0.15269475,-0.11599651,0.058640007,-0.16959411,-0.74267507,0.14231814,-0.5623279,-0.6206293
IOPS_337,-0.2902706,0.15331218,0.1496335,-0.7973491,-0.2005875,-0.042129777,-0.55671394,0.2593125,-0.42298487,-0.25041717,0.24073301,-0.548414,-0.12021814,-0.24609411,0.09565531,-0.6619872
IOPS_338,-0.47663504,0.65670437,-0.089072555,-0.23249868,-0.65192896,0.7229844,-0.21177131,-0.6267086,0.5032271,-0.42626154,-0.22885576,-0.544822,-0.63961226,-0.39715043,-1.0612016,-0.13498923
IOPS_342,-0.4453252,-0.32827908,-0.07349812,-0.35220456,-0.033229407,-0.48004517,0.113057256,0.28781986,-0.6677268,-0.28981867,-0.18683648,-0.548004,1.1044927,-0.32055873,0.753958,-0.50031936
IOPS_344,-0.056062214,-0.39825675,-0.6209903,-0.5828472,-0.09090296,-0.16372475,-0.41616845,-0.039830577,0.13195626,0.17458841,0.13292353,0.37758696,-0.8813622,0.519961,-0.4002265,-0.39703545
IOPS_353,-0.53974336,-0.123506494,-0.7658494,0.734731,-0.4283252,0.49113896,-0.21207976,-0.04237476,0.3171526,-0.27235612,-0.6175516,-0.106218725,-0.60753125,0.046276405,-0.8898951,-0.36181232
IOPS_365,-0.2700241,-0.13874827,-0.5524589,-0.43656778,-0.18238673,0.16419728,-0.44092804,0.13641694,0.22576815,0.006967661,-0.05707672,0.09067455,-0.8258657,0.295909,-0.644403,-0.51559603
IOPS_381,-0.32514727,-0.3092779,-0.6562175,-0.21464454,-0.18004113,0.10709046,-0.36030653,0.16331695,0.27949783,0.016417475,-0.19995062,0.27182052,-0.8496066,0.4305879,-0.7343637,-0.43407056
IOPS_393,-0.538384,-0.02598002,-0.71230495,0.5198334,-0.43118548,0.56763786,-0.24748373,-0.020694006,0.37797156,-0.25967562,-0.5502083,-0.15517645,-0.66436267,0.037654772,-0.93441087,-0.3844949
IOPS_394,-0.4756612,-0.028607158,-0.77020806,0.93157804,-0.5589891,0.5469928,-0.10296241,-0.39532736,0.35209963,-0.38017365,-0.60165584,-0.30481628,-0.51270455,-0.17958383,-0.809994,-0.1832121
IOPS_396,-0.5202299,-0.06845932,-0.7667007,0.8345278,-0.4982308,0.5334077,-0.15263489,-0.21916299,0.33931205,-0.32783258,-0.611036,-0.20129071,-0.55784154,-0.06532825,-0.86543924,-0.2662255
IOPS_401,0.04055828,-0.4333776,-0.6227689,-0.68567854,-0.056658532,-0.29261947,-0.42567748,-0.19271626,0.05753739,0.25905395,0.24542035,0.40621778,-0.83819526,0.5392279,-0.23795824,-0.37681636
IOPS_418,-0.32390982,-0.14950699,-0.5082639,-0.43219966,-0.2330779,0.1759302,-0.37721312,0.12407156,0.2377076,-0.0037920785,-0.089262284,0.12774909,-0.8374093,0.28394777,-0.6649901,-0.45169416
IOPS_427,-0.5249656,0.119228475,-0.54202193,0.16895635,-0.47550693,0.52182204,-0.2269371,-0.19305234,0.40872806,-0.23746814,-0.44791424,-0.14125825,-0.6739959,-0.016507918,-0.9427968,-0.30617553
IOPS_450,-0.52855545,-0.031238362,-0.6554099,0.3222412,-0.42231914,0.5265993,-0.2572449,-0.03571459,0.39165118,-0.21402664,-0.48383892,-0.08212607,-0.7165182,0.07564646,-0.9265778,-0.35780945
IOPS_459,0.22325438,-0.5134176,-0.6305206,-0.7761025,-0.031014964,-0.5320088,-0.41229555,-0.6382486,-0.47748634,0.45245314,0.48806548,0.14705865,-0.3884694,0.2335131,0.6404198,-0.34212217
IOPS_46,-0.5459784,-0.12434087,-0.7684407,0.71108663,-0.42215976,0.5167577,-0.22871794,-0.013052776,0.3313356,-0.26606658,-0.6115927,-0.11835407,-0.6354897,0.059346974,-0.89866745,-0.37240985
IOPS_461,-0.50928146,0.017514788,-0.7120759,0.71311516,-0.5435654,0.5876353,-0.13695097,-0.3092719,0.39243683,-0.34631532,-0.5664673,-0.25811183,-0.5682526,-0.12699428,-0.8834416,-0.22196673
IOPS_475,-0.53483856,-0.122089826,-0.77280676,0.80698943,-0.46011063,0.5007428,-0.18136434,-0.12537943,0.3276579,-0.29655543,-0.6190358,-0.15011641,-0.5895886,0.009575853,-0.87520397,-0.31761402
IOPS_478,-0.5410651,-0.113279894,-0.7665209,0.7387573,-0.44303402,0.49198252,-0.1965194,-0.08225997,0.3250392,-0.28168762,-0.6166044,-0.12594172,-0.6042071,0.03989546,-0.8939136,-0.3473676
IOPS_52,-0.51158506,-0.056635227,-0.7590135,0.83601516,-0.5125109,0.54666865,-0.14780371,-0.2412265,0.3516897,-0.33875453,-0.607592,-0.22574158,-0.5646453,-0.087780334,-0.8528739,-0.26100147
IOPS_59,-0.4915254,-0.21140778,-0.7041825,0.1908196,-0.27663094,0.3216834,-0.3333668,0.17949536,0.30701852,-0.13464096,-0.46658385,0.10783914,-0.7328384,0.28225484,-0.88950723,-0.4516988
IOPS_68,0.045227736,-0.40440118,-0.62712246,-0.6710118,-0.052624308,-0.24313293,-0.45355442,-0.124043114,0.04983957,0.2531638,0.25046194,0.34939304,-0.85053706,0.50890964,-0.23870544,-0.4297512
IOPS_71,0.007919584,-0.36555597,-0.58694136,-0.6761299,-0.06911157,-0.19240692,-0.46076638,-0.06563847,0.03474548,0.22077927,0.24367116,0.26363832,-0.823464,0.44307458,-0.2286706,-0.4471489
IOPS_81,-0.16702674,-0.21664178,-0.5820138,-0.52393776,-0.12095855,0.060484678,-0.4872241,0.12041266,0.1807713,0.09479583,0.06649537,0.13698174,-0.85847837,0.37161046,-0.52215576,-0.5248751
IOPS_87,-0.21700701,-0.05336281,-0.50159067,-0.6479635,-0.130476,0.19879706,-0.6000251,0.21155776,0.10530177,0.01445952,0.10540399,-0.14037982,-0.79964745,0.17537992,-0.4767361,-0.66296947
IOPS_89,-0.39428025,-0.1267296,-0.6379475,-0.15158133,-0.22725411,0.32843992,-0.4194387,0.2077765,0.3162915,-0.06804319,-0.24767913,0.03845359,-0.8177103,0.2535035,-0.80550015,-0.51960194
IOPS_94,-0.14216767,-0.46776396,-0.6416303,-0.39788178,-0.1346894,-0.17601413,-0.30960795,-0.02611203,0.24027556,0.14629415,-0.021774385,0.5362329,-0.8920246,0.6371276,-0.5801226,-0.30448142
IOPS_96,-0.5447977,-0.14970797,-0.75652283,0.6217862,-0.39549142,0.4593599,-0.22719634,0.022945799,0.3281596,-0.2337938,-0.58806777,-0.046303008,-0.6500615,0.12987654,-0.91634804,-0.38389763
TravelTime_387,-0.52946097,0.28079244,-0.47791728,0.083953455,-0.4764431,0.56284344,-0.2709659,-0.2509242,0.4267599,-0.3330928,-0.45547476,-0.32474458,-0.6871951,-0.12180342,-1.0135659,-0.2919958
TravelTime_451,-0.121571526,-0.06504572,-0.26927286,-0.74396,-0.13712756,-0.19397458,-0.46721718,-0.041162938,-0.14765215,0.011417326,0.2042546,-0.14339533,-0.4630557,0.15571935,-0.17731835,-0.55141807
Twitter_volume_AAPL,-0.4848828,-0.32079536,-0.037888315,-0.45923775,-0.07540257,-0.47415033,0.10743586,0.15156762,-0.63572836,-0.19473208,-0.14530562,-0.45158502,0.9378352,-0.2086655,0.64369583,-0.46786457
Twitter_volume_AMZN,-0.4550968,0.23736592,-0.46409968,-0.24145119,-0.3799157,0.618605,-0.42750502,0.07537365,0.38138318,-0.22451028,-0.27092987,-0.29911277,-0.76011,-0.046712242,-0.89935803,-0.54864305
Twitter_volume_CRM,-0.24648234,0.03845613,-0.35270017,-0.7034802,-0.21338853,0.22256276,-0.5610327,0.14714652,0.11961249,-0.06623815,0.13111405,-0.18541232,-0.7660718,0.122564375,-0.5071181,-0.6285171
Twitter_volume_CVS,0.12827177,-0.51652783,-0.5987338,-0.72310346,-0.00217755,-0.54788965,-0.32182735,-0.5800854,-0.632645,0.347274,0.42288634,-0.10841063,0.062464602,0.074172646,0.8643803,-0.42604703
Twitter_volume_FB,-0.4208901,0.6668091,0.449931,-0.7586445,-0.50506914,0.2862413,-0.48618793,-0.3691537,-0.028643545,-0.34964293,0.2940442,-0.5368255,-0.5354051,-0.3467871,-0.54429394,-0.35552657
Twitter_volume_GOOG,-0.5148641,0.2361321,-0.4994371,0.05405693,-0.5105926,0.6745158,-0.26607522,-0.17421521,0.44803074,-0.30844462,-0.41226852,-0.30255613,-0.6957269,-0.1100771,-0.98487014,-0.3593927
Twitter_volume_IBM,-0.49204203,0.15987563,-0.4903237,-0.10881971,-0.43917426,0.57568866,-0.3194228,-0.05509695,0.41211045,-0.25403395,-0.34504062,-0.22345066,-0.74942636,0.005078427,-0.9456497,-0.4324018
Twitter_volume_KO,-0.37997842,0.1803227,0.22069438,-0.7967876,-0.26602927,-0.034156322,-0.51175374,0.09276766,-0.42625704,-0.22325122,0.23601106,-0.49156293,-0.13173261,-0.2094766,0.039251212,-0.595152
Twitter_volume_PFE,-0.34607154,-0.13388939,-0.4980631,-0.4426013,-0.27902168,0.17920607,-0.35033247,0.062450066,0.29454008,-0.090536736,-0.13069245,0.08395191,-0.8107889,0.30417633,-0.7410178,-0.46447426
Twitter_volume_UPS,-0.37514696,-0.43203494,-0.21483228,-0.5278551,-0.10957007,-0.506154,0.16251346,-0.13522123,-0.49659905,-0.062329456,-0.06260126,-0.20760162,0.67785037,-0.022570021,0.54715526,-0.3444324
Yahoo_A1real_10_data,-0.57005805,-0.12721162,-0.77510643,0.58671653,-0.23480068,0.31120458,-0.30831438,0.1318892,0.26807967,-0.16860013,-0.56759304,-0.0116650285,-0.70727926,0.18617338,-0.95212644,-0.4454964
Yahoo_A1real_11_data,-0.49211565,-0.05824522,0.041579653,-0.41530177,-0.1599147,-0.15445986,-0.05312484,0.100511245,-0.48186,-0.24400592,-0.09818056,-0.5202872,0.559978,-0.35308293,0.33795303,-0.33090943
Yahoo_A1real_12_data,-0.107994266,0.018223014,-0.3981975,-0.73865914,0.014110539,0.041148998,-0.7273147,0.31036654,-0.23699014,0.13139325,0.21458529,-0.47874644,-0.47663313,-0.118341096,0.046532694,-0.72030646
Yahoo_A1real_13_data,-0.59139204,-0.31978187,-0.039346583,-0.29003537,-0.05710593,-0.41051802,0.45713094,0.14687428,-0.5969276,-0.23564821,-0.3667843,-0.46690682,1.4843528,-0.3602333,0.7054041,-0.3234884
Yahoo_A1real_14_data,-0.3016024,0.1633826,0.024054265,-0.73509115,-0.19817933,0.0688713,-0.6379379,0.004607662,-0.21098983,-0.03861477,0.19465679,-0.41741735,-0.44632673,-0.12398234,-0.12587678,-0.54232967
Yahoo_A1real_15_data,-0.5890096,-0.3503289,-0.07829345,-0.2828004,-0.048205674,-0.42193764,0.49574518,0.12705174,-0.59213763,-0.23240468,-0.38058406,-0.46105954,1.5273504,-0.35576928,0.72898185,-0.31620547
Yahoo_A1real_16_data,-0.57831323,0.35938343,0.6348136,-0.58340305,-0.38831833,-0.053168368,-0.39544946,-0.22669077,-0.46646008,-0.3168081,0.12653251,-0.567333,0.007654159,-0.40477172,0.01940507,-0.2818216
Yahoo_A1real_17_data,-0.15218939,-0.32569468,-0.40416646,-0.6962364,-0.07485297,-0.33489725,-0.34407207,-0.16544797,-0.36629534,0.124341235,0.10640363,-0.06295399,-0.15293851,0.059383217,0.31581447,-0.33130485
Yahoo_A1real_18_data,-0.38669538,-0.5419013,-0.47547835,-0.19238304,-0.025375037,-0.43932158,0.47506556,-0.1622289,-0.63302505,-0.16097689,-0.23712528,-0.4655769,1.5059905,-0.3408112,0.96385735,-0.31592503
Yahoo_A1real_19_data,-0.37617993,0.1357137,-0.1325203,-0.650394,-0.24983479,0.14257762,-0.51578325,-0.079302505,0.06617784,-0.09231606,0.0019064369,-0.18819144,-0.68796366,0.004694591,-0.53328997,-0.40786391
Yahoo_A1real_1_data,-0.39331013,-0.2189488,-0.65942234,-0.099969484,-0.1329312,0.14027427,-0.3980041,0.22727324,0.2521477,-0.0003435269,-0.31078303,0.2126975,-0.82896316,0.33658394,-0.8385718,-0.43395656
Yahoo_A1real_20_data,-0.38397753,0.2643187,-0.11072781,-0.66481936,-0.22276823,0.13638158,-0.55930686,-0.152899,0.12920864,-0.16432643,0.007761787,-0.3675999,-0.6673331,-0.031745646,-0.57428086,-0.4098064
Yahoo_A1real_21_data,-0.11228532,-0.62564796,-0.72979075,-0.3305888,-0.016495874,-0.45373252,-0.0042782133,-0.699482,-0.7753541,0.3329297,0.15163797,-0.3458215,0.76387155,-0.25140303,1.2798524,-0.26630223
Yahoo_A1real_22_data,-0.42346045,0.54540515,0.14754473,-0.6133803,-0.36585203,0.26444927,-0.5110707,-0.34495518,0.11571627,-0.23223999,0.07892203,-0.52370584,-0.75983113,-0.27317536,-0.6046582,-0.2523216
Yahoo_A1real_23_data,-0.13540201,-0.24514546,-0.6147787,-0.62635255,0.006680947,-0.16786392,-0.5677852,-0.002332719,0.0129657695,0.28082258,0.120146975,0.13198951,-0.7551132,0.39353058,-0.3277083,-0.4849373
Yahoo_A1real_24_data,-0.40519917,-0.5738904,-0.5324467,-0.18252723,-0.030458566,-0.44855464,0.49578118,-0.25720805,-0.63543123,-0.11452943,-0.2290862,-0.44323593,1.4530089,-0.3421041,1.0056626,-0.25389037
Yahoo_A1real_25_data,-0.5074684,-0.67614186,-0.6244731,-0.052701812,-0.094557166,-0.50198364,1.0072433,-0.46129233,-0.48067752,-0.27267033,-0.3683157,-0.3783682,1.889139,-0.29717693,0.9521524,-0.13836995
Yahoo_A1real_26_data,-0.21822722,0.16259147,-0.13461609,-0.7166356,-0.06343421,0.08492096,-0.72116566,0.23447905,-0.2969375,0.070684664,0.20845576,-0.528996,-0.4111069,-0.18758279,0.04117135,-0.6646572
Yahoo_A1real_27_data,-0.41027862,-0.5760779,-0.49838212,-0.25624016,0.005684864,-0.4257777,0.45820636,-0.25379673,-0.64068806,-0.0035378516,-0.24133128,-0.42079857,1.4992229,-0.30554613,1.0118889,-0.30559647
Yahoo_A1real_28_data,-0.3542246,0.213375,-0.15123694,-0.6708102,-0.19540009,0.2467137,-0.6422758,0.06547663,-0.009979572,-0.0009042947,0.080623515,-0.37289202,-0.6434159,-0.0877493,-0.4048166,-0.5668029
Yahoo_A1real_29_data,-0.31515136,0.0332559,-0.04115855,-0.7622624,-0.09036592,-0.025072353,-0.6276284,0.17350319,-0.42965248,0.05122367,0.1600537,-0.49124834,-0.1279618,-0.18962727,0.17965187,-0.6242844
Yahoo_A1real_2_data,-0.4802085,-0.6035363,-0.48132858,-0.14565888,-0.054255947,-0.4996715,0.79682314,-0.24227053,-0.52263796,-0.30137613,-0.32680872,-0.39767468,1.7069607,-0.3103204,0.88769037,-0.1980949
Yahoo_A1real_30_data,-0.6379211,-0.096141495,0.2718189,-0.33211935,-0.15911831,-0.3408025,0.25356692,0.17006536,-0.59513503,-0.29542375,-0.24862665,-0.4795598,1.1760921,-0.38648054,0.490993,-0.31564203
Yahoo_A1real_31_data,-0.4460919,-0.6896354,-0.6219567,-0.1442287,-0.061882768,-0.48442367,0.8073978,-0.49351534,-0.5191929,-0.1793003,-0.24427696,-0.34738222,1.6708752,-0.27342844,0.9677991,-0.1685124
Yahoo_A1real_32_data,-0.40547374,0.5998316,0.26865226,-0.6356366,-0.4095411,0.3740711,-0.5400739,-0.38186383,0.22129236,-0.28063098,0.10065509,-0.53407234,-0.73948365,-0.32618037,-0.68509316,-0.23874816
Yahoo_A1real_33_data,-0.107994266,0.018223014,-0.3981975,-0.73865914,0.014110539,0.041148998,-0.7273147,0.31036654,-0.23699014,0.13139325,0.21458529,-0.47874644,-0.47663313,-0.118341096,0.046532694,-0.72030646
Yahoo_A1real_34_data,-0.39070067,0.64508367,0.31006658,-0.66177404,-0.3929999,0.36231822,-0.5949063,-0.2967799,0.11686886,-0.24830428,0.16411667,-0.59527606,-0.68052804,-0.35629928,-0.57918483,-0.3382612
Yahoo_A1real_35_data,-0.33377182,-0.53991604,-0.5206301,-0.26975498,0.03712766,-0.39846432,0.2548718,-0.21256875,-0.7194734,0.085459456,-0.16027331,-0.48301706,1.3558893,-0.34021887,1.1060929,-0.37644124
Yahoo_A1real_36_data,-0.41891038,0.6935693,0.1777829,-0.5405375,-0.43441582,0.4787302,-0.5129796,-0.39407986,0.31335172,-0.27575806,0.030347535,-0.5732441,-0.7855988,-0.3408538,-0.80956805,-0.23409627
Yahoo_A1real_37_data,0.008040882,-0.3809598,-0.601366,-0.747429,0.029344482,-0.35294038,-0.5011642,-0.19450276,-0.10763452,0.31503415,0.21791145,0.26037005,-0.6518241,0.41946295,-0.032206565,-0.33488765
Yahoo_A1real_38_data,-0.2809285,-0.13348307,-0.47124407,-0.6788685,-0.10077013,-0.016010428,-0.58642554,0.0038754304,0.060078286,0.08281797,-0.026252883,-0.013332287,-0.673402,0.25018412,-0.46853718,-0.55395925
Yahoo_A1real_39_data,-0.5381137,0.19125602,-0.5684861,0.20914787,-0.3779183,0.5202523,-0.35920805,-0.14739166,0.33671796,-0.26340818,-0.5068784,-0.2889575,-0.7073493,-0.08797817,-0.9335064,-0.36298338
Yahoo_A1real_3_data,-0.60090643,-0.6264126,-0.4480513,-0.18788606,-0.035150852,-0.5033752,0.95872045,-0.26133743,-0.49902257,-0.19211066,-0.46714061,-0.37209052,1.9352041,-0.2973187,0.9132182,-0.1925626
Yahoo_A1real_40_data,-0.43407345,0.6979391,0.3580775,-0.62942743,-0.40225735,0.39042315,-0.6136039,-0.32849777,0.044122428,-0.1933239,0.1690357,-0.63534987,-0.6588891,-0.40845668,-0.5075223,-0.3113247
Yahoo_A1real_41_data,-0.23951708,-0.03869091,-0.15805799,-0.7415762,-0.048315015,-0.13834526,-0.56827015,0.09583281,-0.41034237,0.058350023,0.16494226,-0.4393135,-0.0942968,-0.14675339,0.23664808,-0.60204774
Yahoo_A1real_42_data,-0.34983242,-0.4937439,-0.34645563,-0.37501517,-0.06089541,-0.4036303,0.12357785,-0.1762145,-0.6594929,-0.024813686,-0.07002993,-0.35471958,0.78665054,-0.2998818,0.8283567,-0.24666172
Yahoo_A1real_43_data,-0.54302055,0.17187609,-0.5860225,0.37639812,-0.44576234,0.4753144,-0.28710055,-0.29414928,0.3448001,-0.3424843,-0.550569,-0.34282878,-0.66652274,-0.107957736,-0.93786263,-0.28061327
Yahoo_A1real_44_data,-0.40805665,0.5926445,0.12731071,-0.6267824,-0.3562128,0.42220214,-0.5893686,-0.20607924,0.18297808,-0.22322756,0.043136787,-0.57062495,-0.70274967,-0.31546444,-0.67188203,-0.3842007
Yahoo_A1real_45_data,-0.017810415,-0.3447299,-0.6855523,-0.638175,0.053009283,-0.22306675,-0.6025864,-0.0089633865,0.051672935,0.2959267,0.15018769,0.22675419,-0.80184275,0.46413553,-0.29709142,-0.49080074
Yahoo_A1real_46_data,-0.13575332,-0.6224799,-0.74194944,-0.24521416,-0.006971387,-0.44894004,0.16425793,-0.6580953,-0.74723864,0.23251031,0.0842389,-0.3899166,1.1258434,-0.25710994,1.260022,-0.3200461
Yahoo_A1real_47_data,-0.38847876,-0.31153786,-0.12414138,-0.3945172,-0.046673838,-0.3516571,0.07181362,0.15403333,-0.64454436,-0.18803221,-0.11966815,-0.4930989,1.0387471,-0.32564297,0.7099695,-0.4355157
Yahoo_A1real_48_data,-0.5016698,0.19560671,0.32007855,-0.53878576,-0.43269533,-0.20123301,-0.19114558,-0.30658042,-0.24787866,-0.19259988,0.06020617,-0.23850445,-0.14688054,-0.065949894,-0.28926638,-0.27583814
Yahoo_A1real_49_data,-0.38669538,-0.5419013,-0.47547835,-0.19238304,-0.025375037,-0.43932158,0.47506556,-0.1622289,-0.63302505,-0.16097689,-0.23712528,-0.4655769,1.5059905,-0.3408112,0.96385735,-0.31592503
Yahoo_A1real_4_data,-0.48187283,-0.3187236,-0.0911998,-0.4225539,-0.09261256,-0.38680908,0.16016898,0.06399803,-0.63751185,-0.1854756,-0.18745402,-0.46711025,1.0045843,-0.32305378,0.6661404,-0.33304542
Yahoo_A1real_50_data,-0.4994117,-0.16406323,0.10609929,-0.30303535,-0.112625346,-0.3459101,0.17770128,0.23889296,-0.614867,-0.35743502,-0.19143458,-0.5263974,1.1418872,-0.40722564,0.5812785,-0.36634466
Yahoo_A1real_51_data,-0.23014806,-0.37132984,-0.35750908,-0.5190875,0.06233927,-0.27963609,-0.2787048,0.028256286,-0.72737134,0.18838246,0.06288699,-0.5003925,0.69989514,-0.28959966,0.9015702,-0.5493935
Yahoo_A1real_52_data,-0.21435903,-0.15339638,-0.52766967,-0.6850518,-0.041556716,0.00049099966,-0.60934573,0.10536793,-0.012171847,0.166533,0.08586956,-0.06748573,-0.73363936,0.2463696,-0.3560434,-0.5897296
Yahoo_A1real_53_data,-0.40519917,-0.5738904,-0.5324467,-0.18252723,-0.030458566,-0.44855464,0.49578118,-0.25720805,-0.63543123,-0.11452943,-0.2290862,-0.44323593,1.4530089,-0.3421041,1.0056626,-0.25389037
Yahoo_A1real_54_data,-0.34614828,-0.15799052,-0.074739486,-0.32235405,-0.09610594,-0.29739755,0.036416035,0.16081303,-0.603223,-0.23172572,-0.14722458,-0.5424667,0.9503672,-0.3699078,0.6710181,-0.42306176
Yahoo_A1real_55_data,-0.52905697,0.15227936,-0.63801146,0.49927673,-0.44428298,0.54358214,-0.28164342,-0.24960066,0.33419034,-0.29357997,-0.5426192,-0.31854635,-0.68145454,-0.101504534,-0.90547055,-0.30968916
Yahoo_A1real_56_data,-0.43295547,0.47170556,-0.26562345,-0.34431753,-0.33845633,0.5851894,-0.54040635,-0.06409433,0.3300272,-0.117982276,-0.15927637,-0.44164845,-0.85450107,-0.14124124,-0.86232793,-0.49352583
Yahoo_A1real_57_data,-0.40784034,0.46964037,0.11520642,-0.6216435,-0.34393606,0.32076094,-0.5299843,-0.29608217,0.20698445,-0.24850419,0.05894989,-0.4266964,-0.73019564,-0.21876791,-0.676608,-0.28980792
Yahoo_A1real_58_data,-0.49077052,-0.65743273,-0.59905857,-0.095591985,-0.08265563,-0.49708572,0.90704995,-0.42303506,-0.49486157,-0.24992746,-0.3289011,-0.3635464,1.7668117,-0.29230583,0.9354147,-0.14566855
Yahoo_A1real_59_data,0.3260052,-0.479114,-0.7521573,-0.77823687,0.093782954,-0.6310524,-0.6185112,-0.80410814,-0.63632584,0.6810624,0.5573783,-0.0055822455,-0.18412323,0.16022801,0.9737996,-0.43953216
Yahoo_A1real_5_data,-0.43852907,0.31278342,-0.5391044,0.579842,-0.5855292,0.62351286,-0.20932609,-0.6443509,0.41734496,-0.4278704,-0.49993142,-0.5541256,-0.6235283,-0.39475727,-0.8115645,-0.01352499
Yahoo_A1real_60_data,-0.47879687,0.07397811,0.29742453,-0.5448005,-0.17124651,-0.1530582,-0.31392685,0.1405915,-0.5788659,-0.16234317,0.03419766,-0.5464164,0.4356418,-0.36014736,0.3374226,-0.46867174
Yahoo_A1real_61_data,-0.51021624,0.37348998,0.65280956,-0.49463764,-0.34168315,-0.12471592,-0.3635018,-0.07254038,-0.5204848,-0.37377277,0.13788953,-0.5928663,0.22809857,-0.4629947,0.12665485,-0.34108242
Yahoo_A1real_62_data,-0.5220691,-0.62254256,-0.49837342,-0.19326517,-0.04657004,-0.42347732,0.9539538,-0.3423335,-0.5104016,-0.14921401,-0.43154544,-0.33484483,1.8587464,-0.2969663,0.99410033,-0.14463991
Yahoo_A1real_63_data,0.19011898,-0.3303076,-0.70258427,-0.80290335,0.1644703,-0.27943054,-0.7915017,-0.087265186,-0.3462026,0.44175133,0.42549902,-0.16260426,-0.5171663,0.121355854,0.44727495,-0.64324504
Yahoo_A1real_64_data,-0.44415465,0.61028606,0.4325442,-0.6394345,-0.3540644,0.26675582,-0.63181376,-0.11915017,-0.21197073,-0.14515556,0.1915605,-0.66204417,-0.42555875,-0.43519884,-0.22704862,-0.4367696
Yahoo_A1real_65_data,-0.46000135,0.43740982,-0.11445865,-0.34269196,-0.38557455,0.516035,-0.4533668,-0.18919833,0.279697,-0.19787623,-0.15780562,-0.40192062,-0.8171395,-0.24031033,-0.7962813,-0.2924865
Yahoo_A1real_66_data,-0.5174909,-0.46737683,-0.22571135,-0.26539415,-0.11982833,-0.42494825,0.47098923,-0.004956818,-0.5741436,-0.35191256,-0.28984553,-0.40372312,1.1716484,-0.34211606,0.68164974,-0.1680618
Yahoo_A1real_67_data,-0.59266764,-0.6559983,-0.50965345,-0.1800313,-0.038904034,-0.4968981,0.98669624,-0.34869662,-0.49069074,-0.16079515,-0.447744,-0.35311,1.9363075,-0.28855556,0.9410611,-0.16740738
Yahoo_A1real_6_data,-0.5445257,-0.26365098,0.0039795907,-0.3248873,-0.06415733,-0.34428617,0.24887738,0.20175202,-0.64014775,-0.18269636,-0.27598527,-0.49763018,1.2816489,-0.38251013,0.6904007,-0.38027218
Yahoo_A1real_7_data,-0.34794357,-0.5749642,-0.60380965,-0.28966546,-0.09994861,-0.5083764,0.5828093,-0.4860803,-0.5008733,-0.10285159,-0.16874662,-0.31647366,1.3813726,-0.18620424,0.851668,-0.22399336
Yahoo_A1real_8_data,-0.43360054,-0.24904792,-0.026253032,-0.5826201,-0.14642613,-0.33369187,-0.03948342,-0.015353634,-0.51292455,-0.16216284,-0.04933073,-0.33054376,0.5535515,-0.19553643,0.3967126,-0.34522808
Yahoo_A1real_9_data,-0.42193007,0.26997572,-0.5629892,0.6495745,-0.5928053,0.5867704,-0.1895096,-0.6632197,0.4007758,-0.4526883,-0.50883704,-0.5502811,-0.58580106,-0.4073506,-0.7846633,-0.013333131
ambient_temperature_system_failure,-0.28964525,-0.067299105,-0.39160386,-0.7238614,-0.17730546,0.09116818,-0.5607948,0.07045472,0.056677353,0.016591597,0.080046,-0.08401678,-0.70012885,0.1732927,-0.434483,-0.5688509
art_daily_flatmiddle,-0.1024912,-0.3875635,-0.40664303,-0.9020133,-0.107964315,-0.43250704,-0.34841722,-0.370845,-0.26699778,0.2187537,0.28226656,0.12683037,-0.3997205,0.35790265,0.12647237,-0.36896497
art_daily_jumpsdown,-0.30130467,-0.16531397,-0.33100897,-0.7797329,-0.2190358,-0.13473456,-0.35142082,-0.053532857,0.13443582,-0.07076074,0.059972357,0.06715829,-0.6914988,0.3576907,-0.52934444,-0.43222174
art_daily_jumpsup,0.06289264,-0.52337205,-0.5594797,-0.7660729,-0.109214395,-0.6186971,-0.17998536,-0.6725661,-0.4183174,0.24321981,0.38649336,0.12616442,-0.15017672,0.30252895,0.5045871,-0.26704815
art_daily_nojump,-0.42329916,-0.061563466,-0.32494274,-0.619285,-0.2990188,0.035663135,-0.3108404,-0.076452576,0.2785353,-0.15688968,-0.11205458,0.021138454,-0.73447007,0.31372598,-0.76261854,-0.3992215
art_increase_spike_density,-0.37982288,-0.018916741,-0.7720307,1.0256681,-0.62393284,0.4391106,-0.048705254,-0.70522755,0.3283568,-0.4853147,-0.5556472,-0.45949647,-0.40751335,-0.3603433,-0.6539743,-0.015518409
art_load_balancer_spikes,-0.39873996,0.18735895,-0.16543685,-0.6417014,-0.324367,0.22784638,-0.39509186,-0.09079653,0.20217004,-0.20224068,-0.0068491567,-0.19429429,-0.7329416,0.060362015,-0.7059505,-0.43846235
cpu_utilization_asg_misconfiguration,-0.33994034,-0.028967217,-0.77968484,0.99036616,-0.67574424,0.43613404,0.03487872,-0.79988784,0.33717436,-0.5261928,-0.5524023,-0.46414408,-0.34264928,-0.38962162,-0.66083163,0.063943274
ec2_cpu_utilization_24ae8d,-0.51451844,0.23960593,-0.5676792,0.41901347,-0.59407955,0.6550614,-0.15606102,-0.5122018,0.42659807,-0.42829943,-0.5315286,-0.43149397,-0.57969725,-0.25044876,-0.9365225,-0.15789917
ec2_cpu_utilization_53ea38,-0.3402938,-0.018564092,-0.7540225,0.98421824,-0.6582923,0.4002941,-0.02524685,-0.8146583,0.33641404,-0.52252626,-0.53005046,-0.50123364,-0.37681687,-0.41227502,-0.6132254,0.055865236
ec2_cpu_utilization_5f5533,-0.3710539,-0.009997942,-0.7599333,1.0078429,-0.63457876,0.43571913,-0.043370873,-0.7263223,0.3399283,-0.4888587,-0.5468993,-0.46622777,-0.40669242,-0.36897916,-0.6540891,-0.00065094564
ec2_cpu_utilization_77c1ca,0.02587766,-0.56012547,-0.5553458,-0.6253536,-0.14766102,-0.62124705,0.022562834,-0.7115431,-0.33284578,0.23651728,0.25729367,0.22591789,0.039344303,0.2963337,0.45593867,-0.18250932
ec2_cpu_utilization_825cc2,-0.38944075,-0.0018350086,-0.7465942,0.96665615,-0.62437814,0.4596534,-0.050972894,-0.68715405,0.35081723,-0.46405664,-0.5502838,-0.43727297,-0.43434832,-0.34126422,-0.6830309,-0.017998535
ec2_cpu_utilization_ac20cd,0.37338188,-0.5286219,-0.70395464,-0.7616781,-0.008087695,-0.6946113,-0.37715247,-0.8791107,-0.58886844,0.55132675,0.5868111,0.11475286,-0.23999608,0.24722198,0.85919243,-0.35720104
ec2_cpu_utilization_fe7f93,-0.42295307,0.11483201,-0.116404854,-0.6763009,-0.3742306,0.10216552,-0.32972035,-0.2556076,0.21649902,-0.2583945,-0.01144536,-0.12413659,-0.7047262,0.13578106,-0.7267334,-0.33854118
ec2_disk_write_bytes_1ef3de,-0.47325864,0.22150074,-0.088802144,-0.59814894,-0.4399878,0.24534525,-0.28524217,-0.30845553,0.31223774,-0.3216337,-0.107263856,-0.20482083,-0.7315507,0.029420933,-0.85425097,-0.29021803
ec2_disk_write_bytes_c0d644,-0.0982506,-0.56000894,-0.5460567,-0.5613182,-0.08857044,-0.58316255,0.10057489,-0.6151591,-0.5073911,0.23045605,0.17611314,-0.019886136,0.42248002,0.15379475,0.710242,-0.2650663
ec2_network_in_257a54,-0.55923,0.1719211,0.52645195,-0.50410587,-0.31205526,-0.26402438,-0.1869381,0.12141117,-0.62645453,-0.40607932,0.019696029,-0.56984097,0.53562975,-0.3871067,0.26838064,-0.44205913
ec2_network_in_5abac7,-0.5504344,0.15867776,-0.42035615,0.0016017042,-0.54317665,0.47926313,-0.17028804,-0.38438076,0.4279533,-0.37969348,-0.4509359,-0.26467487,-0.664338,-0.04241958,-0.98160946,-0.20408592
ec2_request_latency_system_failure,-0.12378822,-0.13246651,-0.5815404,-0.67461574,-0.01468086,0.10177223,-0.6743788,0.24991462,0.037573345,0.113991395,0.16334215,-0.093455784,-0.81982404,0.20700641,-0.3500111,-0.67494375
elb_request_count_8c0756,-0.53811425,-0.0777016,-0.7677811,0.81665415,-0.4520944,0.4915867,-0.1873236,-0.1433836,0.32438675,-0.31380314,-0.62155163,-0.18415411,-0.5923019,-0.013013509,-0.88697886,-0.32074
exchange-2_cpc_results,-0.5107583,-0.034215033,-0.75339377,0.89178866,-0.45655116,0.45502484,-0.2211293,-0.29535314,0.28984776,-0.3478776,-0.59493405,-0.3068708,-0.5817135,-0.13283516,-0.79572564,-0.2839773
exchange-2_cpm_results,-0.4979363,-0.031392064,-0.7572729,0.96958435,-0.466175,0.46395442,-0.20711905,-0.32927555,0.28477237,-0.35588795,-0.5845515,-0.32640776,-0.57550097,-0.16880804,-0.76442647,-0.24878736
exchange-3_cpc_results,0.105787545,-0.5316495,-0.6859774,-0.656408,0.005374496,-0.5399391,-0.26539567,-0.71239066,-0.5657907,0.39899352,0.35928357,-0.08268902,0.21411957,0.09232516,0.8392911,-0.3809295
exchange-3_cpm_results,-0.486395,0.10358722,-0.68598413,0.72583896,-0.48088032,0.5113468,-0.21709977,-0.40065998,0.34068796,-0.3511195,-0.5572184,-0.36369643,-0.61570024,-0.17974977,-0.828569,-0.21294165
exchange-4_cpc_results,-0.53407276,0.32748976,-0.3592499,-0.034389134,-0.47344372,0.57456535,-0.29617375,-0.39969018,0.4364482,-0.3421073,-0.40289202,-0.40413204,-0.74047494,-0.20264521,-0.97186166,-0.18576111
exchange-4_cpm_results,-0.5286115,0.26109323,-0.488734,0.26557252,-0.511062,0.5907459,-0.24237613,-0.4697517,0.4285563,-0.3799854,-0.49181405,-0.4253449,-0.68004817,-0.24369629,-0.9318058,-0.13090076
grok_asg_anomaly,-0.47350115,0.11904447,-0.5290411,-0.0489385,-0.34363106,0.53083575,-0.3942942,0.015046681,0.37272853,-0.21269299,-0.34157395,-0.20659348,-0.7851529,0.028599294,-0.91876674,-0.45384368
iio_us-east-1_i-a2eb1cd9_NetworkIn,-0.50075483,0.49129677,-0.31818837,0.01748229,-0.4495443,0.4963485,-0.331859,-0.28664815,0.36230868,-0.26131585,-0.35665426,-0.42957255,-0.7342676,-0.12968646,-0.98168653,-0.33787373
machine_temperature_system_failure,0.39601466,-0.5094419,-0.6955739,-0.83440596,0.040693972,-0.58560175,-0.52728814,-0.71685296,-0.47833648,0.56719255,0.638254,0.21271954,-0.54916257,0.31805846,0.6858908,-0.40490153
nyc_taxi,-0.42485276,-0.0128110945,-0.7883437,1.0301003,-0.59894544,0.5327835,-0.05571022,-0.53030103,0.3386699,-0.43112925,-0.58131135,-0.38544175,-0.44424003,-0.28417516,-0.7458132,-0.108676955
occupancy_6005,0.1690528,-0.500478,-0.6531072,-0.71668226,-0.043599155,-0.520927,-0.36600676,-0.4459901,0.0051925015,0.35649058,0.3104326,0.57305527,-0.8020134,0.64531195,-0.14151098,-0.254344
occupancy_t4013,0.11389644,-0.46925834,-0.64781314,-0.6782975,-0.04924112,-0.462508,-0.38209647,-0.33833373,0.065186106,0.29174596,0.25974268,0.54541904,-0.8036079,0.6195407,-0.23758154,-0.2803831
rds_cpu_utilization_cc0c53,-0.46807498,0.08560449,-0.69847715,0.79800814,-0.5698467,0.58886486,-0.11411251,-0.47669822,0.37580207,-0.4015704,-0.5467738,-0.3665584,-0.53734183,-0.26777944,-0.8205181,-0.11902698
rds_cpu_utilization_e47b3b,-0.3466798,-0.004250506,-0.7446564,0.96448106,-0.6578804,0.41449693,-0.026263215,-0.80401886,0.3413551,-0.52209187,-0.5312248,-0.49948815,-0.38272643,-0.40683985,-0.63011056,0.050858077
rogue_agent_key_hold,-0.1937314,-0.12751514,-0.31146047,-0.79976106,-0.13254151,-0.18208624,-0.49700168,-0.13773231,-0.06662571,0.04654464,0.18117984,-0.02549263,-0.60840845,0.21825925,-0.26133147,-0.4460164
rogue_agent_key_updown,-0.4367169,0.5021954,0.37864244,-0.81645036,-0.45169514,0.16828002,-0.46286532,-0.34900683,-0.03673507,-0.38955247,0.23817877,-0.51316124,-0.55295134,-0.2487149,-0.53175324,-0.3619178
speed_6005,-0.49576637,-0.2846576,-0.7324923,0.24523772,-0.19943044,0.15943468,-0.31845433,0.20370601,0.2853968,-0.04849484,-0.42884013,0.2421498,-0.7628844,0.44195184,-0.9248794,-0.43146977
speed_7578,-0.3093527,-0.6354709,-0.6521761,-0.16144776,-0.026247673,-0.42228636,0.4551599,-0.46386167,-0.67292684,-0.0044152257,-0.11999447,-0.41814786,1.4303377,-0.32985234,1.1319526,-0.25026122
speed_t4013,-0.26390696,-0.36097303,-0.30490613,-0.51917917,0.057639536,-0.35546464,-0.2283833,0.08201295,-0.74282146,0.15943208,0.035309594,-0.476834,0.7385183,-0.2568263,0.8996196,-0.5544752
