Dataset,AE_1,AE_2,AE_3,AE_4,AE_5,AE_6,AE_7,AE_8,AE_9,AE_10,AE_11,AE_12,AE_13,AE_14,AE_15,AE_16,AE_17,AE_18,AE_19,AE_20,AE_21,AE_22,AE_23,AE_24,AE_25,AE_26,AE_27,AE_28,AE_29,AE_30,AE_31,AE_32,target
IOPS_102,-0.1909903,-0.3258589,0.046519972,-0.5401959,-0.21740468,-0.24234614,0.00077861996,0.17566755,0.21363853,-0.3339065,-0.6375068,-0.7474116,0.15889911,0.62793773,0.09033102,-0.49415985,-0.37732303,-0.5042977,-0.38577852,-0.5609648,-0.11409711,-0.28997126,0.0025824711,0.28479335,0.37593964,-0.5824542,-0.6774794,-0.0036268258,0.30657724,0.32620215,-0.2580666,-0.17352751,4
IOPS_103,-0.28362608,-0.62496465,-0.535474,-0.5857713,-0.62499094,-0.029256407,0.38972035,-0.37566936,-0.3091622,-0.2679316,0.6237655,-0.20964769,0.004797974,-0.07534246,-0.25249866,0.0072228634,-0.38207123,-0.34271616,0.3911633,0.113064244,-0.4230193,-0.28456956,-0.21173781,-0.82427424,-0.15310715,0.35720113,-0.29884744,-0.28234777,-0.5665879,0.14583863,-0.24316691,-0.30041793,4
IOPS_104,-0.21072716,-0.5556636,-0.65058947,-0.63569975,-0.6605069,-0.115444265,0.43134844,-0.14825058,-0.22599289,0.030904137,0.49414417,-0.09463353,-0.029639943,-0.003099958,-0.10112851,0.10539267,-0.39746395,-0.38611734,0.11011261,0.16776262,-0.42961147,-0.17138119,-0.39636958,-0.90131456,-0.095199786,0.15748784,-0.37460473,-0.28455168,-0.30140248,0.25257897,-0.058871515,-0.38378048,2
IOPS_11,-0.1529018,-0.32232442,0.02446395,-0.50438386,-0.16235036,-0.25235686,-0.015003022,0.08490921,0.15854058,-0.38623902,-0.7118477,-0.7275033,0.17636545,0.645274,0.1177501,-0.5232166,-0.35193995,-0.52221185,-0.43968916,-0.6746913,-0.07845882,-0.31406578,-0.0033497885,0.30974936,0.4023395,-0.6029768,-0.6260679,0.016160216,0.25558588,0.30116168,-0.21117063,-0.13487612,4
IOPS_116,-0.31885612,-0.44333673,-0.6167837,-0.5712559,-0.57870233,-0.205012,0.26643682,0.09884552,-0.11565734,0.1415547,-0.09472653,-0.06383633,-0.043316312,0.23517823,0.11949223,0.062725425,-0.42893857,-0.18256107,-0.27105483,-0.03259268,-0.3803303,-0.09313399,-0.47915512,-0.6037019,-0.15884311,-0.37868243,-0.41150165,-0.19923982,0.08769037,0.25117925,0.06619722,-0.45108017,4
IOPS_118,-0.16815779,-0.51457393,-0.64269763,-0.6473602,-0.6362347,-0.17243238,0.4212813,-0.016006628,-0.16250503,0.11456177,0.27395317,-0.10979882,-0.02011167,0.08477759,0.03265981,0.08613965,-0.39743334,-0.39493927,-0.09903003,0.08147029,-0.37353653,-0.15013151,-0.4543396,-0.85902894,-0.039646633,-0.0005590846,-0.42827398,-0.24386217,-0.09428305,0.305265,0.019823765,-0.39343792,0
IOPS_121,-0.27507252,-0.6250663,-0.54575145,-0.58142346,-0.6224246,-0.031519953,0.38801104,-0.36665332,-0.30805197,-0.25323057,0.6022915,-0.20228195,-0.0056233616,-0.069432564,-0.2437193,0.016490405,-0.38625297,-0.33749697,0.36828926,0.10232105,-0.42234954,-0.2748276,-0.23063298,-0.8314314,-0.15120617,0.3407398,-0.3014343,-0.28624508,-0.5478335,0.14549285,-0.22710438,-0.3064552,4
IOPS_127,-0.3666378,-0.5567951,-0.7087396,-0.45591754,-0.653988,-0.043443058,0.3291042,-0.1775053,-0.2298911,-0.062215783,0.14257772,0.0323954,-0.047188163,0.16199078,0.056654487,0.13465036,-0.43873096,-0.01936019,0.027324222,0.014707633,-0.4079343,-0.18235761,-0.4522656,-0.70759517,-0.22527458,-0.19016486,-0.1787057,-0.22838417,-0.21399005,0.15451586,0.041296024,-0.43015534,4
IOPS_128,-0.19245094,-0.21371476,-0.057753064,-0.5622365,-0.17644937,-0.24046905,-0.1025959,0.25087267,0.12733547,-0.11330931,-0.5597296,-0.5227337,0.0016701401,0.38700777,-0.008795229,-0.32294786,-0.35342208,-0.3937036,-0.38920408,-0.4177129,-0.21910368,-0.1017733,-0.08711265,0.11638066,0.14571948,-0.5352578,-0.61101353,-0.10127054,0.22138871,0.17561747,-0.14427665,-0.26160482,0
IOPS_186,-0.29002428,-0.65823364,-0.38219103,-0.60190696,-0.56142974,-0.042977612,0.353091,-0.51701975,-0.3436588,-0.50078607,0.710466,-0.34509274,0.03572762,-0.13994741,-0.39011618,-0.12238707,-0.36191028,-0.40077284,0.5426349,0.03467418,-0.3619191,-0.3733941,-0.037183303,-0.7661163,-0.14230561,0.55620146,-0.320878,-0.26146328,-0.7455354,0.09345838,-0.40603673,-0.23966892,4
IOPS_19,-0.14154068,-0.49795353,-0.620351,-0.6482908,-0.6111604,-0.21358033,0.40751827,0.052963067,-0.123507716,0.14901932,0.1414592,-0.13825981,-0.0114444755,0.14065178,0.09886364,0.047399893,-0.39534247,-0.41878995,-0.21797043,0.026634324,-0.33460692,-0.12596045,-0.46725622,-0.8108874,0.00861581,-0.085521884,-0.48539948,-0.22712801,0.008516454,0.33742443,0.045525838,-0.38892615,0
IOPS_192,-0.3086125,-0.6644217,-0.2626491,-0.54196423,-0.48806164,-0.023516336,0.29718798,-0.6021449,-0.3728032,-0.67131585,0.64046854,-0.44038215,0.027310751,-0.19538923,-0.45231363,-0.2241101,-0.3590401,-0.36239278,0.561183,-0.13433686,-0.2617637,-0.4214818,0.046456795,-0.73444945,-0.1899051,0.6433269,-0.31325862,-0.24069728,-0.8081807,-0.005054103,-0.48677775,-0.19529998,4
IOPS_194,-0.55090344,-0.17788526,-0.55177397,-0.51192987,-0.41460007,-0.25191674,-0.15333827,0.20990206,-0.09931229,0.22345504,-0.45442763,0.12541643,-0.20215592,0.21723,-0.021192508,0.123094276,-0.45041156,0.09681471,-0.33439505,-0.017554453,-0.48890305,0.027212694,-0.468452,-0.15474027,-0.47757748,-0.8433385,-0.34812036,-0.22780114,0.12639384,0.05675693,0.12808967,-0.5327223,4
IOPS_199,-0.16810828,-0.5329484,-0.67162615,-0.6861255,-0.6728431,-0.16698883,0.45250848,-0.08162121,-0.2010001,0.122000724,0.49861366,-0.09231293,-0.035171777,-0.011324404,-0.078995876,0.11696573,-0.39004233,-0.4662827,0.026788894,0.19875357,-0.42729998,-0.1475023,-0.4371078,-0.938345,-0.058355305,0.14790833,-0.4368927,-0.28627738,-0.22987814,0.3005117,-0.02800551,-0.39671424,4
IOPS_218,-0.22379626,-0.42423224,-0.49930352,-0.62264276,-0.5113982,-0.26233226,0.25869066,0.17114869,-0.03230718,0.10088801,-0.21879156,-0.22468683,-0.00016544142,0.3083721,0.15935722,-0.058798946,-0.4011698,-0.33484197,-0.3853917,-0.14964992,-0.31313524,-0.1143414,-0.40994397,-0.48830435,0.009258252,-0.39454442,-0.5256226,-0.15644889,0.20026907,0.3058826,0.029667404,-0.3921661,0
IOPS_225,-0.11018608,-0.36640856,0.05077113,-0.5189344,-0.19153139,-0.22459486,0.044451807,0.116567075,0.21500754,-0.40238723,-0.65585804,-0.77995,0.19532107,0.668302,0.13686444,-0.5302516,-0.34968734,-0.5451556,-0.37748587,-0.6387864,-0.051159594,-0.32134968,0.030265944,0.28533444,0.4854331,-0.5191533,-0.6435755,0.026974758,0.24973993,0.350579,-0.23610626,-0.12989347,0
IOPS_236,-0.19134279,-0.26804096,0.11410775,-0.5200562,-0.1679403,-0.23528373,-0.09423763,0.17102136,0.2113814,-0.38722503,-0.6846805,-0.77686244,0.15334018,0.626416,0.029857887,-0.53542936,-0.3649641,-0.5143408,-0.36710897,-0.6078636,-0.10294447,-0.30346733,0.065458044,0.4156558,0.38262615,-0.5949346,-0.67087024,0.00872261,0.2774429,0.27419162,-0.30070615,-0.14975043,4
IOPS_24,-0.0917426,-0.4457273,-0.18818267,-0.5760973,-0.36430705,-0.2584894,0.22369687,0.12144731,0.11442162,-0.23538254,-0.4599636,-0.6100304,0.15577497,0.5396336,0.2116465,-0.3576037,-0.37185353,-0.5379502,-0.4257632,-0.4644163,-0.11416698,-0.27773082,-0.17113136,-0.12670322,0.3878993,-0.40025645,-0.627617,-0.042362608,0.27929425,0.40508646,-0.12994316,-0.2091345,0
IOPS_241,-0.3812179,0.91041774,0.3390551,-0.42546454,0.82431453,-0.47040236,-0.62714404,0.19697015,-0.21836817,0.2113267,-0.4947568,-0.016140725,-0.503412,-0.27524912,-0.49463278,-0.0048697754,-0.3081848,-0.09362452,-0.38791275,-0.23689839,-0.29450697,0.38571644,-0.054199234,0.014313888,-0.5755757,-0.42526886,-0.13058582,-0.43996444,-0.18509516,-0.28647417,0.234116,-0.3893755,2
IOPS_242,-0.69996494,-0.42223695,-0.5908366,0.13669018,-0.4645291,0.108893685,-0.03538856,-0.5328108,-0.46642116,-0.58222246,-0.23567776,0.06547548,-0.17497364,0.1540468,-0.07779206,0.13271765,-0.5303181,0.7565572,0.16920258,-0.39322802,-0.19041249,-0.36525893,-0.458379,-0.30260172,-0.68412846,-0.49633968,0.28662044,-0.15208262,-0.3572893,-0.13348709,-0.08190335,-0.37970904,4
IOPS_243,-0.41025367,1.2334832,1.1425302,-0.5782595,1.1399723,-0.3805596,-0.63371587,0.51431865,-0.07086389,0.25711432,-0.24093264,-0.75121176,-0.42923233,-0.4146847,-0.7021878,-0.46468896,-0.24862806,-0.47442475,-0.31573808,-0.21384746,-0.44130358,0.62812257,0.36406845,-0.034643643,-0.49351993,0.00978609,-0.5316959,-0.46411678,-0.015284962,-0.52554756,-0.20464478,-0.2403713,2
IOPS_246,-0.39189652,1.2449588,1.3557271,-0.58684766,1.1960706,-0.34091237,-0.66043615,0.56248385,-0.01838798,0.16940053,-0.23218387,-0.972085,-0.38169083,-0.42382753,-0.7574949,-0.63263,-0.20536788,-0.57949805,-0.2778644,-0.27187636,-0.44895342,0.6100265,0.50583214,-0.019986695,-0.4497997,0.11017108,-0.6348642,-0.44826874,-0.0035289123,-0.5653459,-0.31683597,-0.175696,2
IOPS_255,-0.4954437,-0.087010615,-0.5011108,-0.44115782,-0.2595666,-0.26732513,-0.24527831,0.11837691,-0.14249603,0.12513804,-0.5346998,0.1659108,-0.23863822,0.16978371,-0.065537766,0.114498034,-0.42750373,0.12383779,-0.35025156,-0.13769633,-0.41396347,0.009654774,-0.433872,-0.09251958,-0.47659323,-0.81954616,-0.25028446,-0.23700938,0.027987115,0.008206819,0.18843415,-0.49907726,4
IOPS_256,-0.4157992,-0.018027456,-0.30246988,-0.51221126,-0.15405034,-0.29640928,-0.2748528,0.22571322,-0.044814438,0.1373968,-0.57688344,-0.055051316,-0.1839179,0.22475144,-0.10099451,-0.033501912,-0.41900426,-0.042549014,-0.40851152,-0.2156162,-0.3810103,0.050807923,-0.31084257,0.05191144,-0.31302333,-0.7760264,-0.40587965,-0.20464768,0.13951375,0.037755106,0.06392217,-0.44062284,4
IOPS_261,-0.2521387,-0.60656047,-0.5967891,-0.6078474,-0.65216386,-0.058051333,0.41192633,-0.2933513,-0.2726183,-0.13754782,0.5951434,-0.15219192,-0.010420492,-0.049467113,-0.19510396,0.055766284,-0.38689405,-0.36908984,0.29580128,0.1607759,-0.44096798,-0.2340968,-0.2924502,-0.8622397,-0.12745494,0.28393936,-0.33067536,-0.29458335,-0.48194495,0.19259408,-0.16399877,-0.33614105,0
IOPS_264,-0.21752082,-0.49567807,-0.66974527,-0.63946044,-0.6375355,-0.19022007,0.3965864,0.036590602,-0.15345424,0.17060675,0.20020749,-0.067392126,-0.037765678,0.12061297,0.054363914,0.10679477,-0.4093579,-0.3400711,-0.15793741,0.08021487,-0.39486858,-0.11026775,-0.4911256,-0.83846366,-0.087976396,-0.11143892,-0.4300524,-0.24094453,-0.032060526,0.2948962,0.055158794,-0.4290167,0
IOPS_267,-0.13941237,-0.3747142,-0.02983541,-0.5484277,-0.24958166,-0.24713431,0.07363088,0.14234553,0.18153913,-0.32339925,-0.60412574,-0.7073919,0.16214415,0.62243944,0.13991465,-0.4589233,-0.36595738,-0.5195454,-0.4102296,-0.5632575,-0.1008841,-0.29230314,-0.040950935,0.16503288,0.4046987,-0.5262199,-0.6485305,-0.0072950493,0.2857878,0.35293594,-0.2046462,-0.18127596,0
IOPS_269,-0.23127453,-0.5335407,-0.6779642,-0.5984533,-0.6574232,-0.14549303,0.40279353,-0.0806088,-0.19859356,0.092073195,0.28542402,-0.068831615,-0.043257546,0.074330464,0.026083417,0.09450053,-0.41395706,-0.31633696,-0.06764771,0.08979142,-0.40504918,-0.1522315,-0.4652969,-0.83445686,-0.10762917,-0.03423047,-0.3838796,-0.27142468,-0.13547249,0.2399834,0.0031543483,-0.39823136,0
IOPS_275,-0.25966,-0.6179941,-0.5458724,-0.60915303,-0.63366395,-0.050046213,0.3956948,-0.35998026,-0.2954516,-0.23681284,0.64200735,-0.20471084,0.0031943258,-0.08030745,-0.25541663,0.015555563,-0.37609524,-0.38018516,0.37184748,0.13184428,-0.42745972,-0.27686197,-0.22334883,-0.8387541,-0.12993886,0.36432013,-0.32187483,-0.28735086,-0.55164623,0.1652917,-0.23628397,-0.3044856,4
IOPS_285,-0.21102178,-0.35767275,-0.091688246,-0.5705921,-0.3000538,-0.26090896,0.06880252,0.18976294,0.15725283,-0.21786593,-0.5655358,-0.6331848,0.12358007,0.5651857,0.1241993,-0.39337835,-0.38891345,-0.46369907,-0.4241454,-0.47239017,-0.16738956,-0.24747115,-0.101760134,0.10087063,0.28680184,-0.5805356,-0.6611562,-0.04528541,0.3324745,0.33958867,-0.19303945,-0.23453917,0
IOPS_3,-0.09093295,-0.32022664,0.038409643,-0.4871595,-0.1334628,-0.24519011,0.002418941,0.012185208,0.13262738,-0.4367503,-0.70652574,-0.73732466,0.19125727,0.6548514,0.13757281,-0.5510663,-0.33621374,-0.5698296,-0.44005138,-0.73101395,-0.031268727,-0.34073827,0.008279348,0.3117561,0.4672219,-0.53400105,-0.59458137,0.022133492,0.19160928,0.29800683,-0.18950081,-0.095254295,4
IOPS_319,-0.060541406,-0.45350134,-0.3949705,-0.65739125,-0.4797941,-0.2936965,0.36408594,0.16351523,-0.0016320714,0.008358643,-0.17657606,-0.4161388,0.08858395,0.35913983,0.18772697,-0.15454024,-0.38411295,-0.5359648,-0.43045735,-0.25979364,-0.19506843,-0.18973428,-0.34197205,-0.5552057,0.25101706,-0.2171854,-0.60010856,-0.09339416,0.264249,0.4339238,-0.035722055,-0.3016604,0
IOPS_327,-0.4720956,-0.060891904,-0.44236612,-0.47105357,-0.22802655,-0.2815848,-0.25267082,0.17653969,-0.114031255,0.1658854,-0.5459833,0.089115895,-0.2046179,0.20429598,-0.07902038,0.06262889,-0.42805517,0.06951959,-0.3884704,-0.17248833,-0.41394344,0.042288892,-0.3988422,-0.0487347,-0.4303618,-0.8135711,-0.31712672,-0.21448869,0.10034703,0.025977442,0.13785529,-0.4894041,2
IOPS_328,-0.449102,1.0669261,1.2655225,-0.53644097,1.022186,-0.2980573,-0.7394638,0.4925334,-0.077258475,0.102102146,-0.47120693,-1.0048634,-0.1824902,-0.24254668,-0.7386796,-0.707239,-0.22520702,-0.54327154,-0.27489746,-0.39573714,-0.42424145,0.41945723,0.4828512,0.5158089,-0.4311354,-0.23215614,-0.6601152,-0.27380103,-0.0330982,-0.47998756,-0.4800007,-0.1588539,2
IOPS_329,-0.50952995,0.17907602,-0.5116624,-0.20658222,0.036500435,-0.354589,-0.4624754,-0.1071453,-0.34717122,0.011298593,-0.63372964,0.4474473,-0.36926252,0.03848748,-0.19296817,0.26852667,-0.4036448,0.3649861,-0.35779566,-0.28538555,-0.29432976,-0.019467007,-0.45599103,-0.014825161,-0.6910403,-0.8692944,0.104049675,-0.26299644,-0.19065847,-0.091730416,0.3588811,-0.50345135,3
IOPS_330,-0.60004056,-0.6328648,-0.52682394,-0.12597537,-0.5859182,0.20105936,0.2482039,-0.5241888,-0.46190584,-0.54510736,0.23299004,-0.1466498,-0.029004073,0.05773929,-0.12486983,0.041059528,-0.5011322,0.369351,0.41228065,-0.19957201,-0.3044271,-0.34924418,-0.32626072,-0.64239705,-0.49288157,-0.0025681215,0.09104598,-0.17995682,-0.492999,-0.072931774,-0.23969656,-0.32042447,3
IOPS_331,-0.4204178,-0.4846267,-0.7499951,-0.38188595,-0.5657638,-0.08189466,0.21016763,-0.15438618,-0.26174274,-0.0046926704,-0.103709295,0.09410322,-0.098062485,0.1681004,0.085517704,0.1313859,-0.44661602,0.07372062,-0.1563402,-0.13195777,-0.41444463,-0.15132569,-0.55141956,-0.64555365,-0.38123307,-0.38365644,-0.1685982,-0.23602422,-0.11128338,0.089101166,0.12506233,-0.44957954,0
IOPS_333,-0.34336463,0.096452035,0.358114,-0.52395743,0.17532824,-0.26563007,-0.36305878,0.31180474,0.16128765,-0.19965437,-0.7186499,-0.74187374,0.019650847,0.41619566,-0.2152009,-0.54123765,-0.36595696,-0.4359504,-0.37830865,-0.5499532,-0.25004008,-0.087659426,0.15954334,0.58356994,0.0698378,-0.70352805,-0.67015505,-0.070455745,0.25456432,0.072423264,-0.3104883,-0.19384363,4
IOPS_334,-0.3934743,-0.36384293,-0.6584046,-0.48372185,-0.47974744,-0.20005889,0.13423872,0.045679566,-0.17567131,0.11870475,-0.28571212,0.03961151,-0.08469102,0.24643087,0.11303844,0.068795934,-0.4358195,-0.03506407,-0.36282697,-0.17328691,-0.4068362,-0.07279587,-0.5299468,-0.48244357,-0.3104414,-0.5474524,-0.30883744,-0.19457363,0.091470495,0.15124328,0.1423541,-0.464654,0
IOPS_337,-0.498026,0.099482216,-0.47373697,-0.360922,-0.053422496,-0.32613423,-0.3754425,0.04996652,-0.24397334,0.14167587,-0.60064656,0.29572383,-0.3005062,0.11583946,-0.13549677,0.1745349,-0.41916546,0.20964468,-0.40887555,-0.2257781,-0.38656375,0.04652639,-0.4422851,-0.018674765,-0.58838177,-0.8685255,-0.101459816,-0.24309704,-0.0336971,-0.046867296,0.27661172,-0.50659364,3
IOPS_338,-0.6167443,-0.6062206,-0.5868831,-0.10691585,-0.6019484,0.17371778,0.22084095,-0.5025875,-0.45349738,-0.5061946,0.16061762,-0.07246169,-0.04821918,0.098501734,-0.09168875,0.078281604,-0.5074261,0.4291697,0.34732828,-0.2012285,-0.3222904,-0.33549255,-0.3773646,-0.6062339,-0.5147895,-0.11273743,0.12109542,-0.175784,-0.44407573,-0.06427455,-0.19105808,-0.3495173,4
IOPS_342,-0.45041427,0.8336038,0.43732557,-0.5163187,0.6949368,-0.40632835,-0.6244121,0.356613,-0.16006127,0.33166242,-0.4908468,-0.22414783,-0.38127443,-0.16031331,-0.48833135,-0.14230978,-0.3548012,-0.17839988,-0.3911266,-0.20788273,-0.41470304,0.4184882,0.0015956688,0.22881009,-0.5307982,-0.5404644,-0.35211933,-0.34150916,-0.006645123,-0.28186467,0.0021615005,-0.3747653,3
IOPS_344,-0.13652998,-0.42615777,-0.35829592,-0.62071455,-0.43012628,-0.2746327,0.25584143,0.17259078,0.044183485,-0.035271388,-0.3300785,-0.40061715,0.07488505,0.42562434,0.18928292,-0.18142271,-0.38777784,-0.43167347,-0.43364918,-0.30451643,-0.21293312,-0.18178716,-0.3033066,-0.36207563,0.19801039,-0.38723558,-0.57001364,-0.08442228,0.27189457,0.37191507,-0.036122642,-0.31391242,2
IOPS_353,-0.21888122,-0.5812287,-0.64408505,-0.6389054,-0.6757429,-0.09743021,0.4375628,-0.20505156,-0.24437869,-0.020367827,0.561133,-0.11054946,-0.01495428,-0.020196173,-0.13181154,0.09553506,-0.3899241,-0.39855167,0.19254759,0.19730526,-0.4441974,-0.1957602,-0.35202095,-0.88625026,-0.08936701,0.21133494,-0.36235267,-0.28739133,-0.37128237,0.25177622,-0.09663302,-0.36116907,0
IOPS_365,-0.25896195,-0.4284893,-0.57840073,-0.58658576,-0.54786855,-0.22934656,0.25511166,0.10883621,-0.08340258,0.09678595,-0.15623048,-0.115932,-0.021036318,0.27985233,0.13045678,0.014800198,-0.41564524,-0.23595004,-0.31869918,-0.0983806,-0.3356387,-0.10572878,-0.4493405,-0.5555111,-0.061870035,-0.37447387,-0.42883933,-0.16873671,0.121438496,0.2722514,0.06118418,-0.4220368,2
IOPS_381,-0.13424441,-0.46821642,-0.5348132,-0.64699674,-0.5495154,-0.25046557,0.35510862,0.14026779,-0.058083493,0.11611159,-0.06536566,-0.22739135,0.011714756,0.24672441,0.15161519,-0.024804996,-0.38900545,-0.41822326,-0.34037387,-0.10283505,-0.29008037,-0.12748536,-0.4356117,-0.67043805,0.06861518,-0.22106607,-0.52641124,-0.17290443,0.14614688,0.3515752,0.034325574,-0.37256938,0
IOPS_393,-0.2787283,-0.56329304,-0.67053854,-0.5927816,-0.67842686,-0.07963586,0.41253155,-0.17989244,-0.24611801,0.004979769,0.4542139,-0.05898071,-0.025171235,0.018689219,-0.0712847,0.11573493,-0.40298417,-0.288551,0.13831574,0.15805939,-0.44680986,-0.18302523,-0.4014561,-0.8627232,-0.15621644,0.09253927,-0.3151002,-0.27761883,-0.31139907,0.21655723,-0.05268299,-0.391321,4
IOPS_394,-0.28214082,-0.6334112,-0.50655556,-0.5896456,-0.61428976,-0.031342376,0.38569844,-0.40541804,-0.3126528,-0.3127353,0.6508363,-0.23371708,0.012634493,-0.08691774,-0.27820483,-0.017187841,-0.3770412,-0.3546112,0.42759413,0.104270175,-0.41167414,-0.3005827,-0.17822133,-0.8135083,-0.14504956,0.39841366,-0.30071217,-0.2824219,-0.60875595,0.13777797,-0.2761605,-0.29180738,4
IOPS_396,-0.24926588,-0.6089202,-0.58504206,-0.6186515,-0.64522547,-0.0645574,0.41288644,-0.31171587,-0.28277418,-0.16873047,0.6071745,-0.16969086,-0.005031908,-0.05049018,-0.20815277,0.048261568,-0.38701442,-0.37300953,0.3106247,0.15089366,-0.43565753,-0.24968933,-0.27119094,-0.8514572,-0.1127614,0.30027542,-0.32772574,-0.2879001,-0.48659915,0.19164112,-0.18901402,-0.32211116,4
IOPS_401,-0.14631952,-0.41428983,-0.27200633,-0.59920365,-0.3852671,-0.27712858,0.21421538,0.15692349,0.086784914,-0.1203116,-0.4222747,-0.48586324,0.10118897,0.49081305,0.19500054,-0.2669503,-0.3852365,-0.4511965,-0.442127,-0.37970984,-0.17661598,-0.21633385,-0.22916164,-0.19904633,0.26750925,-0.4499847,-0.59463507,-0.07153843,0.29056033,0.37995377,-0.08093643,-0.27377558,2
IOPS_418,-0.20083508,-0.45852783,-0.60601044,-0.5746711,-0.5437447,-0.20669675,0.26138157,0.079515226,-0.085369274,0.086728774,-0.17123778,-0.0867378,-0.029678442,0.25710785,0.16847013,0.019318206,-0.39464626,-0.23952357,-0.3172309,-0.11616484,-0.3162288,-0.11913336,-0.46659848,-0.58669513,-0.045612484,-0.34022692,-0.4092671,-0.1828994,0.07906411,0.25707358,0.110904746,-0.41020826,4
IOPS_427,-0.30184025,-0.58559394,-0.64940786,-0.47251636,-0.6400069,-0.016116926,0.36917084,-0.27826273,-0.26775956,-0.1525059,0.29253787,-0.07822746,-0.02536074,0.07757026,-0.010867685,0.071306534,-0.41802984,-0.14186707,0.13913934,0.016702829,-0.3787201,-0.22822778,-0.37572858,-0.7620042,-0.16045232,0.024369644,-0.21193665,-0.25683367,-0.3290392,0.1509965,-0.055981766,-0.34952626,2
IOPS_450,-0.25993073,-0.5770828,-0.6580759,-0.5620536,-0.6466537,-0.0688453,0.404594,-0.1664944,-0.21886586,-0.02507009,0.33389634,-0.0781181,-0.032242727,0.067878656,-0.015479325,0.10197096,-0.4108473,-0.25902435,0.088238545,0.09567042,-0.41115597,-0.19080292,-0.4011129,-0.81949544,-0.123780124,0.028997831,-0.31369498,-0.26687473,-0.2653258,0.21239094,-0.019729096,-0.3759144,4
IOPS_459,-0.2491772,-0.14667936,0.24771325,-0.5360275,-0.042837895,-0.22431497,-0.24196477,0.27224627,0.2375639,-0.29617745,-0.71395785,-0.8017669,0.067229025,0.4911652,-0.09526285,-0.5454167,-0.34451443,-0.48104817,-0.32344085,-0.55292547,-0.16517933,-0.19645587,0.12877028,0.4859177,0.24016814,-0.641752,-0.7184466,-0.064471744,0.24472931,0.1658093,-0.32571664,-0.16448145,0
IOPS_46,-0.22966494,-0.5711171,-0.6505742,-0.63670874,-0.67229867,-0.101153165,0.43485683,-0.17667213,-0.23483841,0.012447427,0.53712225,-0.09497588,-0.023517126,-0.015313462,-0.11608064,0.10377178,-0.3945255,-0.38367966,0.163362,0.20223722,-0.44496757,-0.1834252,-0.376694,-0.895403,-0.10813258,0.17989823,-0.36963102,-0.2884246,-0.34677136,0.24784966,-0.077123754,-0.3786639,0
IOPS_461,-0.29658845,-0.6222099,-0.5630751,-0.55737984,-0.62295175,-0.014202008,0.39179567,-0.34944463,-0.3045737,-0.24749385,0.5491801,-0.1841959,-0.0053502014,-0.039070778,-0.19499397,0.032910783,-0.39424697,-0.28405902,0.34051132,0.08270686,-0.41586423,-0.27340376,-0.24507712,-0.8149214,-0.16170743,0.27797675,-0.26830706,-0.2747197,-0.50494206,0.14206427,-0.20118758,-0.3098495,4
IOPS_475,-0.22376564,-0.58590037,-0.6155351,-0.63599885,-0.66067594,-0.087718286,0.4251444,-0.24114835,-0.25523928,-0.0707712,0.58730125,-0.141228,-0.014762165,-0.0459356,-0.17168836,0.07196031,-0.3849273,-0.40452468,0.23387888,0.17895673,-0.43936747,-0.21728118,-0.32329383,-0.8841364,-0.102329105,0.2615039,-0.36096615,-0.2932555,-0.41774905,0.22501895,-0.13616751,-0.34581703,4
IOPS_478,-0.22419603,-0.57835937,-0.6302727,-0.6286325,-0.6622713,-0.09645602,0.42911276,-0.21996164,-0.2484505,-0.04406822,0.55494803,-0.12114901,-0.017070217,-0.025697814,-0.14284234,0.0806684,-0.39012033,-0.3892073,0.19302364,0.17074992,-0.43431777,-0.20281895,-0.34900895,-0.88595945,-0.09866648,0.2221489,-0.35705316,-0.2906019,-0.38450706,0.23284653,-0.11195375,-0.36319464,4
IOPS_52,-0.25919205,-0.61440444,-0.5712784,-0.60061663,-0.63906604,-0.042601768,0.41022232,-0.3236168,-0.2864502,-0.19272868,0.6107329,-0.17512408,0.0007380856,-0.05045713,-0.21115835,0.039848797,-0.3874332,-0.35631397,0.3437358,0.14743175,-0.42855123,-0.25449985,-0.24902295,-0.8403646,-0.1223993,0.31489334,-0.31004968,-0.2820238,-0.5137285,0.18455021,-0.19280313,-0.31765997,0
IOPS_59,-0.17556414,-0.50918025,-0.6496729,-0.6422606,-0.6365654,-0.19732364,0.4153179,0.017331664,-0.15928839,0.15192933,0.21857068,-0.1059846,-0.021202428,0.10004513,0.06472202,0.07605615,-0.39769465,-0.4004719,-0.15962361,0.07501345,-0.37080204,-0.13088706,-0.4730275,-0.8415379,-0.04262499,-0.058472544,-0.4591524,-0.24002065,-0.044809323,0.31553993,0.038365714,-0.39797804,0
IOPS_68,-0.17904206,-0.39630017,-0.27863476,-0.6102972,-0.40452754,-0.27419892,0.19579917,0.20500356,0.080384135,-0.07749422,-0.39990377,-0.4621201,0.09080519,0.47726616,0.16257589,-0.23414002,-0.3942861,-0.42649233,-0.429851,-0.33778554,-0.21244673,-0.1846436,-0.24862446,-0.217474,0.21329546,-0.45360106,-0.59587675,-0.062103104,0.30515814,0.36514604,-0.08605758,-0.30985478,2
IOPS_71,-0.2056951,-0.37315112,-0.31538212,-0.6052741,-0.39863864,-0.26203826,0.16360526,0.20451882,0.055830237,-0.031710036,-0.40010875,-0.39450368,0.059616614,0.4424672,0.15556589,-0.1904909,-0.39793995,-0.37448943,-0.4246933,-0.3079432,-0.23844875,-0.15672466,-0.27782798,-0.2227358,0.14459582,-0.4791284,-0.56972957,-0.08147145,0.27761915,0.33576193,-0.04750131,-0.334734,2
IOPS_81,-0.2611182,-0.39869648,-0.49463055,-0.6149988,-0.50869524,-0.25252375,0.2265216,0.18535,-0.027099071,0.08816138,-0.24343643,-0.20508023,0.0035814478,0.33233684,0.14249758,-0.049435556,-0.41324234,-0.28538305,-0.3764241,-0.1541444,-0.3213746,-0.11760597,-0.40522397,-0.44997162,-0.016225513,-0.434111,-0.49769738,-0.13555913,0.21217981,0.30615675,0.026500516,-0.41216135,2
IOPS_87,-0.39844528,-0.37228018,-0.5708982,-0.57774955,-0.5271112,-0.22701974,0.12709655,0.18258123,-0.08056818,0.16388991,-0.27695826,-0.06277583,-0.06962262,0.2852626,0.095095314,0.03867484,-0.43839124,-0.11115791,-0.34731323,-0.07935874,-0.41911337,-0.054580063,-0.46280035,-0.4047271,-0.23973952,-0.5784735,-0.43305376,-0.17791551,0.17397597,0.20461127,0.06550389,-0.47671703,2
IOPS_89,-0.26063368,-0.47738847,-0.6464771,-0.6147885,-0.61512995,-0.19975433,0.34094098,0.091788985,-0.12341742,0.16995014,0.037553087,-0.057956707,-0.039232206,0.18553258,0.11024942,0.085050955,-0.41738862,-0.26447895,-0.23177505,0.02852371,-0.386908,-0.09699673,-0.49198866,-0.7218022,-0.11451285,-0.25926578,-0.43099916,-0.21642077,0.045174684,0.28098866,0.07564109,-0.4412216,0
IOPS_94,-0.025804644,-0.4694789,-0.37946016,-0.6389232,-0.45571706,-0.28106707,0.35524255,0.12019217,0.021829505,-0.050272252,-0.22998434,-0.42928272,0.0911108,0.38947392,0.21597615,-0.17982298,-0.3717246,-0.5325249,-0.42590553,-0.30744332,-0.16254082,-0.21343923,-0.3241377,-0.5085277,0.299987,-0.22554183,-0.5818892,-0.096985094,0.23500204,0.4219335,-0.021393241,-0.27950537,0
IOPS_96,-0.20116667,-0.5494994,-0.6563311,-0.64983284,-0.665746,-0.13089576,0.43791935,-0.1327651,-0.219072,0.048778757,0.48414758,-0.09581319,-0.026730593,0.005203193,-0.0845637,0.10620703,-0.3971631,-0.4006039,0.08312544,0.16981393,-0.42491958,-0.16930905,-0.4050429,-0.9017269,-0.077556014,0.1452776,-0.38702384,-0.2809559,-0.27287567,0.26921254,-0.052152038,-0.3840301,4
Yahoo_A1real_10_data,-0.17154795,-0.49133942,-0.6442299,-0.5681508,-0.7288498,-0.24684964,0.45630747,-0.17343587,-0.24635832,0.10077916,0.50898063,-0.08764171,-0.057821866,-0.046347532,0.049952593,-0.01600101,-0.42366198,-0.4006429,-0.12311809,0.16944087,-0.38301572,-0.23249525,-0.4228742,-0.7879837,-0.07119234,0.11011611,-0.40371957,-0.3103253,-0.13275112,0.17895687,-0.17193434,-0.3485306,4
Yahoo_A1real_11_data,-0.42576802,0.4250886,0.006039513,-0.33103067,0.35092616,-0.3002083,-0.4559735,0.12267951,-0.1867709,0.15979774,-0.43383732,0.035864554,-0.3325366,-0.16364585,-0.22374956,-0.046704248,-0.33784488,0.050274853,-0.3708509,-0.24395405,-0.25150725,0.1708363,-0.18939005,0.10249738,-0.5215243,-0.55559415,-0.21982603,-0.38801202,-0.12510113,-0.19181947,0.08628049,-0.37947825,2
Yahoo_A1real_12_data,-0.5548601,-0.0841827,-0.42926744,-0.5083269,-0.3122242,-0.28697482,-0.14245819,0.24170475,-0.059541173,0.25138608,-0.37440756,0.03122949,-0.13931122,0.16777542,0.020218432,0.009474095,-0.44198474,0.02447655,-0.40726167,-0.055827733,-0.4336015,0.040629722,-0.4067453,0.014810494,-0.40017602,-0.7828084,-0.39413458,-0.23896262,0.16788995,0.05982395,-0.029713554,-0.5050476,4
Yahoo_A1real_13_data,-0.40552238,0.9583153,0.5997845,-0.40510646,0.9125943,-0.38985196,-0.5898966,0.39988673,-0.1020818,0.26656076,-0.3287115,-0.1626426,-0.4738454,-0.32726693,-0.46005657,-0.15276244,-0.27364615,-0.15885611,-0.37693778,-0.18425718,-0.3021421,0.50596726,0.09424733,0.03471982,-0.5250401,-0.31294787,-0.28443116,-0.49244797,-0.07753318,-0.30895287,0.09687314,-0.33981445,4
Yahoo_A1real_14_data,-0.5101788,-0.1869327,-0.51618594,-0.24809392,-0.28644824,-0.19983824,-0.1765338,-0.09799595,-0.19745319,-0.013412898,-0.47137564,0.115475826,-0.21585383,0.14190237,0.08652503,0.08511664,-0.44135663,0.21533269,-0.3313724,-0.19661558,-0.28940472,-0.17110562,-0.4666883,-0.022558296,-0.4394581,-0.7457348,-0.16620803,-0.2708218,-0.010216311,0.029070372,0.113917366,-0.4586,0
Yahoo_A1real_15_data,-0.40578628,0.982107,0.6495126,-0.41704628,0.9375924,-0.3849526,-0.58813673,0.42266503,-0.093375795,0.2736827,-0.3088883,-0.20595841,-0.47253376,-0.33525017,-0.47579747,-0.17769648,-0.26802513,-0.18488415,-0.37278277,-0.18371665,-0.31462282,0.5289065,0.12118785,0.022045068,-0.5204769,-0.28433928,-0.30562204,-0.49282053,-0.0679651,-0.32258335,0.07395532,-0.33142692,4
Yahoo_A1real_16_data,-0.47583967,0.07316186,-0.47351965,0.055481065,0.03865749,-0.23800212,-0.44986925,-0.3052435,-0.3524065,-0.18324853,-0.5989139,0.38426456,-0.41773093,-0.1044874,-0.05404857,0.18261294,-0.37575272,0.5371304,-0.27877873,-0.345045,-0.07089129,-0.21692234,-0.44267207,0.06100067,-0.66636705,-0.7302568,0.124670185,-0.36247092,-0.31184137,-0.15531854,0.3024942,-0.4507933,4
Yahoo_A1real_17_data,-0.27125713,-0.026906729,-0.14326479,-0.48331216,0.007377938,-0.30859873,-0.1668703,0.09455771,-0.03618872,-0.01859412,-0.50615287,-0.33211675,-0.12703696,0.18054521,-0.006909191,-0.28043702,-0.33938327,-0.285584,-0.49904856,-0.42060938,-0.23199686,-0.050098784,-0.16268496,0.116944365,-0.058283206,-0.6071134,-0.45053342,-0.21602939,0.08795588,0.023607278,-0.09627917,-0.28254032,4
Yahoo_A1real_18_data,-0.4677124,0.9790217,0.93819505,-0.4707531,0.9278132,-0.31160703,-0.61415684,0.5494907,-0.046539735,0.23368615,-0.32148024,-0.6110057,-0.33147785,-0.27027664,-0.57716954,-0.43840668,-0.24609478,-0.374234,-0.32576826,-0.2499694,-0.40658003,0.5212439,0.2904575,0.22822814,-0.47064427,-0.28574997,-0.5220827,-0.37367627,0.019854855,-0.35236427,-0.2355437,-0.2484131,4
Yahoo_A1real_19_data,-0.38374513,-0.40444908,-0.61600393,-0.28670114,-0.43494064,-0.15595953,0.075040154,-0.2049138,-0.21218145,-0.06821251,-0.26280522,0.022423433,-0.14568071,0.1155997,0.15940602,0.013943123,-0.42048958,0.06845802,-0.303772,-0.19326435,-0.286722,-0.23475812,-0.4683027,-0.33066267,-0.29822147,-0.49223584,-0.22942963,-0.2845384,-0.061288025,0.0118514905,0.06251261,-0.4007986,4
Yahoo_A1real_1_data,-0.15667222,-0.48212972,-0.59438336,-0.57734984,-0.58920854,-0.2975277,0.40099385,-0.0006812523,-0.14202544,0.11988264,0.08694601,-0.16477107,-0.026007209,0.1448687,0.20070519,-0.017438648,-0.41561645,-0.38150084,-0.38404903,-0.033894632,-0.31633073,-0.19382006,-0.44785938,-0.6278418,0.015625075,-0.18603005,-0.44878858,-0.20945837,0.13508777,0.2603014,-0.06074875,-0.3534994,4
Yahoo_A1real_20_data,-0.48259673,-0.3291174,-0.60904926,-0.22102822,-0.46774018,-0.111961655,0.064957425,-0.29445586,-0.27122787,-0.12234985,-0.22106889,0.022709116,-0.1363464,0.112860754,0.15271167,-0.010867825,-0.4477968,0.2071163,-0.2658559,-0.23092331,-0.2821813,-0.27759007,-0.49323502,-0.29325694,-0.412971,-0.49534076,-0.12499236,-0.27279168,-0.083001286,0.01238465,-0.025258876,-0.40889335,4
Yahoo_A1real_21_data,-0.4514545,0.5726148,0.9701538,-0.5139701,0.59498197,-0.20622505,-0.64869654,0.56547046,0.19863561,-0.10297143,-0.5458056,-1.0420815,-0.14587681,-0.0094850045,-0.53948355,-0.78257275,-0.19150707,-0.50659233,-0.20883232,-0.4367815,-0.3065287,0.14170623,0.4760137,0.6136436,-0.18418534,-0.5058857,-0.76440585,-0.21686618,0.07202644,-0.21277769,-0.53159595,-0.12681115,0
Yahoo_A1real_22_data,-0.54849267,-0.34855354,-0.6625292,-0.043738842,-0.49898925,-0.0013464001,-0.019469956,-0.40894005,-0.35509974,-0.24444467,-0.20338488,0.15428856,-0.17305006,0.022587188,0.12927069,0.07138715,-0.43496296,0.50440294,-0.093270876,-0.23626937,-0.19323958,-0.32327363,-0.50509685,-0.24073033,-0.55471134,-0.48456985,0.08269882,-0.2381639,-0.26504067,-0.12736864,-0.03528417,-0.4166879,2
Yahoo_A1real_23_data,-0.30198935,-0.3234361,-0.3887526,-0.58934724,-0.47608492,-0.33504942,0.1770506,0.11705129,0.031597007,0.019468969,-0.260178,-0.32797778,-0.008120851,0.32846984,0.1578291,-0.21670853,-0.42333063,-0.35105562,-0.4671833,-0.20541434,-0.27267575,-0.18095815,-0.34749046,-0.21352053,0.08308229,-0.52570987,-0.553932,-0.18938486,0.28383142,0.26337337,-0.1601644,-0.34170583,4
Yahoo_A1real_24_data,-0.44649076,0.96206385,0.9895177,-0.4928151,0.91616994,-0.29660028,-0.6231738,0.5680235,-0.02001876,0.20637098,-0.3278863,-0.701696,-0.32173464,-0.28856274,-0.58373874,-0.51880443,-0.21807118,-0.41718706,-0.30682725,-0.27534536,-0.38379043,0.49054036,0.33882943,0.24929596,-0.43451643,-0.27772424,-0.5757654,-0.37060097,0.016271956,-0.37652227,-0.29678544,-0.20430562,0
Yahoo_A1real_25_data,-0.41805845,1.2344581,1.4574826,-0.46574482,1.2706906,-0.29111403,-0.61511785,0.6122351,-0.057021197,0.12146656,-0.15334345,-0.9865281,-0.3228551,-0.39712307,-0.7398262,-0.714326,-0.12729685,-0.59871405,-0.27587086,-0.34756914,-0.40733948,0.6234091,0.5914153,0.06157902,-0.4307879,0.08570317,-0.5968448,-0.37525123,-0.031855185,-0.51032907,-0.38533843,-0.109164506,2
Yahoo_A1real_26_data,-0.5694353,-0.06329666,-0.4907786,-0.38426638,-0.29054987,-0.25752708,-0.21776496,0.119695574,-0.10918866,0.1817515,-0.42876232,0.16998589,-0.22064407,0.12323737,0.03155058,0.081475854,-0.4407732,0.2043121,-0.33986956,-0.06530592,-0.3847275,-0.020951424,-0.4564246,0.041454777,-0.4837029,-0.821673,-0.2631814,-0.27628955,0.06299412,0.014414045,0.07389571,-0.51329356,2
Yahoo_A1real_27_data,-0.45107067,0.96234185,1.017505,-0.5095954,0.9096982,-0.29532337,-0.6382396,0.61772114,0.047290646,0.19504319,-0.31718463,-0.70967156,-0.3660344,-0.28325367,-0.6066699,-0.49804297,-0.2191795,-0.40370873,-0.28049684,-0.23623534,-0.40521184,0.52547157,0.35277584,0.16202924,-0.4322226,-0.25009143,-0.59021527,-0.4091509,0.040297516,-0.36170405,-0.25039563,-0.22533746,4
Yahoo_A1real_28_data,-0.49948078,-0.34231013,-0.6271991,-0.32755443,-0.4614319,-0.16375467,-0.0059222765,-0.099182054,-0.18111056,0.03405895,-0.29030263,0.12618689,-0.1818299,0.13007233,0.15327598,0.09513749,-0.44402003,0.15040113,-0.27711344,-0.061064467,-0.3772179,-0.1770524,-0.49774233,-0.2286709,-0.4111277,-0.6609901,-0.21990997,-0.31175488,-0.026461724,0.055685245,0.08108726,-0.47733897,2
Yahoo_A1real_29_data,-0.5098108,0.010932385,-0.3588458,-0.36127114,-0.10786543,-0.2712202,-0.33088124,0.08333647,-0.104024746,0.12426458,-0.5632109,0.08960698,-0.28630477,0.0652167,-0.016106304,0.018750515,-0.4140838,0.12801668,-0.3952098,-0.18232264,-0.34121656,-0.03035684,-0.4112717,0.113733456,-0.47024122,-0.8477146,-0.28827208,-0.34788463,0.03635451,-0.013370035,0.10789758,-0.4489957,0
Yahoo_A1real_2_data,-0.4240893,1.1143874,1.1157131,-0.4564688,1.1209556,-0.31786615,-0.56661576,0.5301044,-0.09489399,0.22933389,-0.21072839,-0.6982576,-0.34410983,-0.33671921,-0.6069349,-0.50129694,-0.21169469,-0.4651009,-0.337539,-0.29313865,-0.39252573,0.58547,0.37419364,0.095428675,-0.4556985,-0.09240921,-0.5039028,-0.38694263,-0.009710857,-0.42294195,-0.25012782,-0.1904871,4
Yahoo_A1real_30_data,-0.38729876,0.7882553,0.27192563,-0.27512187,0.7619968,-0.4229883,-0.59423095,0.19376203,-0.18960989,0.15675847,-0.46431223,0.12514323,-0.48304948,-0.29025096,-0.35003772,0.005351436,-0.2941239,0.026918296,-0.39359266,-0.22099301,-0.17948215,0.3024574,-0.083730035,0.09201427,-0.5559479,-0.4702585,-0.111290075,-0.4864454,-0.17978077,-0.22851007,0.25999624,-0.37352234,2
Yahoo_A1real_31_data,-0.41694617,1.0996985,1.343735,-0.46421126,1.1516205,-0.27754885,-0.60676193,0.5725245,-0.027791392,0.08195033,-0.23291749,-0.97881377,-0.29123545,-0.30261204,-0.6869853,-0.7114132,-0.14989148,-0.59156656,-0.28075,-0.37782314,-0.39560017,0.51956767,0.55443615,0.1506044,-0.3819295,-0.041479222,-0.6124955,-0.34285837,-0.005485489,-0.43255633,-0.37747246,-0.104411155,2
Yahoo_A1real_32_data,-0.60479903,-0.41210577,-0.6165961,0.07360237,-0.47570518,0.076452814,0.011292321,-0.4464119,-0.41560772,-0.3187335,-0.22552226,0.13732648,-0.15605101,0.06850381,0.12716796,0.13667545,-0.49650863,0.56233835,0.0003927641,-0.20238556,-0.21225856,-0.36465243,-0.5145121,-0.28138134,-0.6030262,-0.474183,0.13164668,-0.22400679,-0.2927713,-0.084426604,0.023839442,-0.41741797,4
Yahoo_A1real_33_data,-0.5548601,-0.0841827,-0.42926744,-0.5083269,-0.3122242,-0.28697482,-0.14245819,0.24170475,-0.059541173,0.25138608,-0.37440756,0.03122949,-0.13931122,0.16777542,0.020218432,0.009474095,-0.44198474,0.02447655,-0.40726167,-0.055827733,-0.4336015,0.040629722,-0.4067453,0.014810494,-0.40017602,-0.7828084,-0.39413458,-0.23896262,0.16788995,0.05982395,-0.029713554,-0.5050476,4
Yahoo_A1real_34_data,-0.6408565,-0.34489086,-0.6680185,0.045039352,-0.46203896,0.014974543,-0.056001406,-0.40804958,-0.39938703,-0.24841678,-0.2605589,0.26446658,-0.18512863,0.07120884,0.11901781,0.18932545,-0.4859236,0.6116632,-0.038376573,-0.16592403,-0.2465241,-0.31708717,-0.53492,-0.21648462,-0.6495401,-0.57043976,0.1502402,-0.23158997,-0.2807711,-0.08358301,0.08331381,-0.4818702,4
Yahoo_A1real_35_data,-0.4947257,0.8910771,0.947841,-0.5222879,0.7806076,-0.27682984,-0.6822476,0.6609117,0.08884224,0.20482466,-0.38619417,-0.69957674,-0.33780238,-0.24137989,-0.6080705,-0.49652898,-0.23816772,-0.35742125,-0.24592018,-0.2036093,-0.41495964,0.47897148,0.3251166,0.29342502,-0.44034508,-0.38329166,-0.63051564,-0.39229417,0.06625841,-0.32759473,-0.29487628,-0.25103366,0
Yahoo_A1real_36_data,-0.64098024,-0.43862346,-0.64256746,0.029049972,-0.5678308,0.0941795,0.08247386,-0.47257298,-0.4131818,-0.33635968,-0.0833911,0.13735388,-0.13441114,0.05600183,0.13429882,0.09739848,-0.49094296,0.58057207,0.07180925,-0.15100001,-0.26112607,-0.3639963,-0.50265485,-0.34400424,-0.6030694,-0.40346867,0.1433811,-0.22538951,-0.32128584,-0.12065333,-0.06043401,-0.4042877,4
Yahoo_A1real_37_data,-0.22052309,-0.29371363,-0.2698357,-0.5533054,-0.2800477,-0.32730258,0.1595821,0.07022459,0.037012495,-0.10125603,-0.38542336,-0.44057393,0.045606077,0.40855402,0.19734102,-0.302493,-0.39663178,-0.41858608,-0.5289172,-0.37521052,-0.17681012,-0.24847294,-0.2438839,-0.05660612,0.18530641,-0.5369574,-0.5239629,-0.10668724,0.29683927,0.3077241,-0.14396772,-0.25616333,4
Yahoo_A1real_38_data,-0.34632817,-0.41040176,-0.5048993,-0.47888482,-0.46458516,-0.25613406,0.15576148,-0.08655778,-0.088506155,-0.020622285,-0.30256397,-0.21569972,-0.07021414,0.2557344,0.2013306,-0.15109304,-0.4210158,-0.21148524,-0.4609791,-0.24094541,-0.33835843,-0.23003909,-0.44619274,-0.27288485,-0.10924295,-0.5567384,-0.45106423,-0.2562249,0.13452278,0.17134097,-0.06790436,-0.36076593,4
Yahoo_A1real_39_data,-0.37237054,-0.5603981,-0.60557586,-0.34399846,-0.6834417,-0.067186385,0.34892184,-0.39788762,-0.33276492,-0.16845402,0.3362799,-0.10965679,-0.06507446,-0.029268522,0.056831017,-0.068997055,-0.43400007,-0.09154587,0.04091742,0.014747392,-0.37877324,-0.32778764,-0.3662995,-0.6648416,-0.27941665,0.030076291,-0.22323191,-0.3138507,-0.3179405,-0.0011613675,-0.20752735,-0.31809565,4
Yahoo_A1real_3_data,-0.39229953,1.2303711,1.2815899,-0.49899098,1.236766,-0.32449386,-0.58028895,0.63060707,-0.01595175,0.2287709,-0.08734497,-0.76752794,-0.4528781,-0.4469958,-0.6820849,-0.51778644,-0.16316783,-0.49447367,-0.2908486,-0.2273009,-0.41844597,0.71959245,0.47294185,-0.17609353,-0.46669748,0.11672592,-0.5343102,-0.48958558,-0.010674782,-0.5027743,-0.19382821,-0.19070548,4
Yahoo_A1real_40_data,-0.65993536,-0.31669056,-0.64909536,0.047481827,-0.47142717,0.033509094,-0.12104896,-0.38995343,-0.36232957,-0.25556234,-0.27439597,0.29871988,-0.2244278,0.045939118,0.10536061,0.19356203,-0.4774451,0.6737114,0.0353968,-0.09878019,-0.24265346,-0.3145995,-0.51182914,-0.13402084,-0.6563642,-0.6221609,0.15322287,-0.26627734,-0.32571256,-0.1184567,0.07937877,-0.47926298,2
Yahoo_A1real_41_data,-0.4893116,0.083095096,-0.28234503,-0.4018259,-0.078072645,-0.3092209,-0.32884237,0.13264193,-0.07606736,0.1197381,-0.5489798,0.008388464,-0.24378386,0.10709748,-0.057676554,-0.051351015,-0.39907676,0.035573255,-0.4180898,-0.21014664,-0.33123466,0.0033117242,-0.33780098,0.1570467,-0.39688134,-0.8069832,-0.32363012,-0.31414324,0.055831626,0.012786729,0.034513216,-0.42922398,0
Yahoo_A1real_42_data,-0.3579458,0.5489307,0.48787752,-0.46587977,0.5854502,-0.29106084,-0.5131879,0.39132944,-0.020652268,0.15733047,-0.43902725,-0.4644511,-0.2876885,-0.12315525,-0.35599598,-0.32209915,-0.27222812,-0.3184884,-0.3726391,-0.32571092,-0.28658307,0.2601887,0.1255899,0.25101626,-0.32864097,-0.46933448,-0.4962524,-0.31076658,0.025653746,-0.19851002,-0.14599468,-0.25953853,2
Yahoo_A1real_43_data,-0.33236575,-0.5663126,-0.52705157,-0.30991068,-0.6575553,-0.032131378,0.3374834,-0.47355655,-0.3764817,-0.28598458,0.40500528,-0.17645502,-0.058690682,-0.08560052,-0.0319307,-0.131513,-0.41856343,-0.12314359,0.110694066,-0.042031974,-0.33369127,-0.36031684,-0.30899504,-0.69066715,-0.26886988,0.19041644,-0.19691773,-0.32571888,-0.41804412,-0.04324977,-0.27860704,-0.28120455,4
Yahoo_A1real_44_data,-0.63380945,-0.36374852,-0.6908683,-0.075756714,-0.52541703,-0.0065494333,-0.00027321122,-0.36804792,-0.37034196,-0.18446708,-0.18495125,0.22265065,-0.17479932,0.059923995,0.12754317,0.13870852,-0.475151,0.49608067,-0.056972474,-0.11257214,-0.3270432,-0.28011194,-0.53685665,-0.27491564,-0.61507815,-0.5419603,0.058165073,-0.26728952,-0.25210133,-0.10250609,0.027647177,-0.44458726,2
Yahoo_A1real_45_data,-0.30373046,-0.35144943,-0.3040983,-0.6008059,-0.43156576,-0.3254387,0.20969799,0.17900226,0.066108115,-0.034495883,-0.29013938,-0.45873785,0.053244177,0.41943687,0.15976503,-0.2525878,-0.41658252,-0.42075104,-0.4782302,-0.24798615,-0.27932897,-0.21245438,-0.26745266,-0.16793814,0.12640412,-0.518733,-0.5800048,-0.09707349,0.3502727,0.3339579,-0.19911408,-0.33337978,1
Yahoo_A1real_46_data,-0.50130576,0.7862485,1.1644186,-0.49224544,0.76113904,-0.22338697,-0.694491,0.6225869,0.1491744,-0.076717794,-0.50236714,-1.0597594,-0.15658912,-0.07488514,-0.65456796,-0.79572487,-0.18859656,-0.52933025,-0.20532422,-0.40716133,-0.36016747,0.26390168,0.52740175,0.59378046,-0.27128097,-0.41630533,-0.72858876,-0.22946021,0.0696626,-0.27082494,-0.5307981,-0.123545945,2
Yahoo_A1real_47_data,-0.4539734,0.69098145,0.34914252,-0.40097865,0.65485764,-0.3602546,-0.5343188,0.32122687,-0.13044727,0.26019526,-0.4453112,-0.14616325,-0.36064753,-0.14720982,-0.34446174,-0.13840996,-0.33630148,-0.1355129,-0.43574354,-0.24923578,-0.33906347,0.35118523,-0.032803155,0.21762799,-0.49251664,-0.5506228,-0.32056886,-0.37534735,-0.00033015528,-0.1940579,0.037586406,-0.3610617,4
Yahoo_A1real_48_data,-0.29057798,0.027367854,-0.5281605,-0.14891511,-0.20167549,-0.30822754,-0.24894202,-0.35026464,-0.3162764,-0.22394948,-0.43097866,0.24795105,-0.25190413,0.057350747,-0.035600543,0.040892806,-0.38265526,0.23551187,-0.38039494,-0.4005554,-0.06941549,-0.19180533,-0.510045,-0.13322124,-0.28756857,-0.4299458,0.07258569,-0.2939919,-0.24366185,-0.051144212,0.17123915,-0.4204133,2
Yahoo_A1real_49_data,-0.4677124,0.9790217,0.93819505,-0.4707531,0.9278132,-0.31160703,-0.61415684,0.5494907,-0.046539735,0.23368615,-0.32148024,-0.6110057,-0.33147785,-0.27027664,-0.57716954,-0.43840668,-0.24609478,-0.374234,-0.32576826,-0.2499694,-0.40658003,0.5212439,0.2904575,0.22822814,-0.47064427,-0.28574997,-0.5220827,-0.37367627,0.019854855,-0.35236427,-0.2355437,-0.2484131,4
Yahoo_A1real_4_data,-0.3852006,0.67476773,0.32619986,-0.40009943,0.6737913,-0.3624606,-0.5530015,0.2796561,-0.1139627,0.20535156,-0.4638083,-0.14605217,-0.39145273,-0.20822974,-0.34633663,-0.16411152,-0.29249635,-0.14577895,-0.44829315,-0.31451178,-0.2654042,0.32194903,-0.006539865,0.164456,-0.4640658,-0.50406665,-0.30914474,-0.4139585,-0.05643467,-0.22235136,0.054951012,-0.3213345,4
Yahoo_A1real_50_data,-0.4433159,0.79133993,0.29685315,-0.33175918,0.73549306,-0.40220988,-0.56809837,0.24722952,-0.22255684,0.2629238,-0.4341895,0.043965448,-0.40306884,-0.23113632,-0.3545001,-0.040482838,-0.3278967,-0.046643052,-0.42936036,-0.21932417,-0.28678793,0.36267594,-0.08210856,0.17560041,-0.5711416,-0.5123564,-0.18833554,-0.41742823,-0.10986781,-0.23105066,0.14119765,-0.3862452,0
Yahoo_A1real_51_data,-0.523524,0.49965188,0.3809749,-0.4934829,0.37359068,-0.2907507,-0.5887253,0.492211,0.0782111,0.21739666,-0.5432202,-0.36634028,-0.300775,-0.037019428,-0.36323673,-0.26187897,-0.34033108,-0.16572013,-0.32207477,-0.17919463,-0.3985361,0.2700992,0.02060915,0.38425848,-0.42167342,-0.7151691,-0.54085314,-0.34553975,0.1238106,-0.13349043,-0.13976288,-0.35761786,0
Yahoo_A1real_52_data,-0.36581343,-0.3601706,-0.4727597,-0.543997,-0.4675193,-0.2851451,0.1187467,0.0729048,-0.030926283,0.07578303,-0.2870508,-0.19425319,-0.07325755,0.2692155,0.16307317,-0.09821569,-0.42919716,-0.21077286,-0.44664603,-0.14650561,-0.36352992,-0.14662324,-0.41954446,-0.24753541,-0.10808024,-0.5911817,-0.48682797,-0.23921213,0.20917532,0.19418465,-0.060410112,-0.412713,4
Yahoo_A1real_53_data,-0.44649076,0.96206385,0.9895177,-0.4928151,0.91616994,-0.29660028,-0.6231738,0.5680235,-0.02001876,0.20637098,-0.3278863,-0.701696,-0.32173464,-0.28856274,-0.58373874,-0.51880443,-0.21807118,-0.41718706,-0.30682725,-0.27534536,-0.38379043,0.49054036,0.33882943,0.24929596,-0.43451643,-0.27772424,-0.5757654,-0.37060097,0.016271956,-0.37652227,-0.29678544,-0.20430562,0
Yahoo_A1real_54_data,-0.49963123,0.62519825,0.2981637,-0.3085839,0.646422,-0.34549186,-0.50581545,0.30203304,-0.14725508,0.2488813,-0.41017845,-0.014291063,-0.31507564,-0.1642429,-0.29356578,-0.115439564,-0.32617205,-0.075038634,-0.46397266,-0.2796328,-0.3010932,0.3744909,-0.024554163,0.25815368,-0.5186009,-0.53817683,-0.2875979,-0.37306276,-0.03270946,-0.17909165,0.027285844,-0.41130263,2
Yahoo_A1real_55_data,-0.3328285,-0.5970679,-0.5244348,-0.33588052,-0.66966206,-0.03940902,0.3691928,-0.43927386,-0.35441515,-0.2513689,0.48177055,-0.15602909,-0.053413734,-0.051411346,-0.019721294,-0.084428534,-0.4328204,-0.15786462,0.16757682,0.047285672,-0.35933045,-0.34312558,-0.27036035,-0.69214773,-0.22807495,0.1968905,-0.20422515,-0.31104618,-0.42696175,0.01680046,-0.26157144,-0.31402436,4
Yahoo_A1real_56_data,-0.55502594,-0.52727205,-0.71043694,-0.2617574,-0.68031067,-0.0047651576,0.21792091,-0.29586363,-0.29509783,-0.07821154,0.068175316,0.11896906,-0.11370653,0.1053409,0.17833754,0.11726696,-0.48186243,0.24694265,-0.011959955,0.058039494,-0.4295557,-0.2619287,-0.519936,-0.4829698,-0.4420695,-0.37207988,-0.078730665,-0.27592024,-0.2155402,0.013821811,-0.03229095,-0.4665301,4
Yahoo_A1real_57_data,-0.55115044,-0.42030692,-0.62008834,-0.032573443,-0.46533284,0.016285948,0.06946109,-0.37578428,-0.36826423,-0.25406006,-0.205256,0.0708733,-0.14376101,0.07250275,0.14111944,0.08388016,-0.48433828,0.40773597,-0.09836831,-0.20862314,-0.24087147,-0.33370918,-0.5059259,-0.3206353,-0.51402247,-0.4616097,0.028991442,-0.2370348,-0.20672421,-0.053176515,0.004469146,-0.3924112,4
Yahoo_A1real_58_data,-0.41160914,1.1547625,1.330534,-0.46898386,1.1896981,-0.30021846,-0.5907857,0.58330154,-0.05516723,0.14112411,-0.1910633,-0.91211355,-0.31797448,-0.36208683,-0.6746994,-0.6629024,-0.15222557,-0.561333,-0.29838684,-0.34167817,-0.38893762,0.582768,0.5172262,0.0931981,-0.41324347,0.0026713707,-0.5842501,-0.36748388,-0.015870025,-0.46625334,-0.35627195,-0.12489571,4
Yahoo_A1real_59_data,-0.46935362,-0.0012926931,0.43406877,-0.49057284,-0.010046933,-0.21903637,-0.36511835,0.36327833,0.35963032,-0.41263965,-0.72940665,-0.944989,0.09225639,0.53367907,-0.21970108,-0.72317654,-0.31949928,-0.49337772,-0.24099287,-0.5104825,-0.16777751,-0.29280496,0.24457568,0.78420955,0.20955831,-0.8035207,-0.71941704,-0.029326757,0.2684868,0.17812544,-0.5356328,-0.16563101,0
Yahoo_A1real_5_data,-0.4339728,-0.5958597,-0.309085,-0.17366117,-0.5879394,0.06237396,0.3026485,-0.61523944,-0.4434489,-0.56841516,0.5183675,-0.3261302,-0.04432844,-0.16365862,-0.15122452,-0.24088676,-0.43084896,0.0016024117,0.37502444,-0.1050924,-0.21777314,-0.4461088,-0.097831294,-0.6173951,-0.3365774,0.3942484,-0.106037505,-0.27356556,-0.62268203,-0.17217295,-0.45466635,-0.21490407,4
Yahoo_A1real_60_data,-0.4626708,0.35701966,-0.1898572,-0.228498,0.2730112,-0.3447585,-0.52251095,0.03715574,-0.20794924,0.09050034,-0.6028339,0.2503719,-0.40418082,-0.10690846,-0.16341673,0.0914445,-0.36822024,0.21304622,-0.38926536,-0.23401971,-0.21276145,0.044986054,-0.32769898,0.17633113,-0.57906085,-0.76395804,-0.0963212,-0.40991703,-0.13934043,-0.11289239,0.26214516,-0.4308377,4
Yahoo_A1real_61_data,-0.500394,0.26228935,-0.41098076,0.014042739,0.1727248,-0.32814932,-0.4967943,-0.21635485,-0.3920077,-0.08449378,-0.593115,0.4812485,-0.397745,-0.11843043,-0.11297123,0.22017914,-0.37924263,0.49273148,-0.33615,-0.3122776,-0.08756567,-0.110874906,-0.4323603,0.12605576,-0.69258916,-0.7426663,0.16239998,-0.3456556,-0.29446205,-0.13041662,0.33429492,-0.47388458,2
Yahoo_A1real_62_data,-0.3975293,1.1205006,1.354046,-0.41529483,1.279661,-0.29998156,-0.5858854,0.6720396,0.017491717,0.17557414,-0.04473176,-0.7773548,-0.45728853,-0.42954072,-0.6688887,-0.54416275,-0.10121967,-0.5403357,-0.29390898,-0.2962711,-0.40846542,0.74945354,0.5772382,-0.21077575,-0.44152236,0.13670121,-0.5892941,-0.47071728,-0.01937711,-0.47930002,-0.18745501,-0.18183456,4
Yahoo_A1real_63_data,-0.5291681,-0.110454015,-0.0022315378,-0.5754335,-0.22686924,-0.2580486,-0.12090722,0.42526343,0.1596972,0.022288293,-0.4598857,-0.55924165,0.023438232,0.39026427,-0.0517136,-0.34174475,-0.41117007,-0.31485167,-0.3651653,-0.21863155,-0.379634,-0.071607985,-0.09371313,0.28988412,-0.09076348,-0.76683205,-0.6577479,-0.081096694,0.38038203,0.19738464,-0.33397797,-0.3476244,2
Yahoo_A1real_64_data,-0.6164546,-0.14428036,-0.6610229,-0.02851893,-0.33716738,-0.110686004,-0.27537635,-0.25222093,-0.31556454,-0.11945425,-0.40706226,0.45914516,-0.30572066,0.010893308,0.05181718,0.26292717,-0.44445527,0.64344585,-0.110261776,-0.08839026,-0.24476375,-0.2067507,-0.5242643,-0.026407842,-0.67510515,-0.75370854,0.12903544,-0.30165038,-0.27996725,-0.11423999,0.2198024,-0.53686917,0
Yahoo_A1real_65_data,-0.48008424,-0.5118091,-0.6565458,-0.13988312,-0.5740408,0.029851839,0.1572936,-0.3571718,-0.34016922,-0.18911518,0.0065040193,0.088707946,-0.12083961,0.03400339,0.13323945,0.112243846,-0.46471295,0.29229683,0.029308343,-0.046666056,-0.2957253,-0.3118576,-0.45321497,-0.4516959,-0.44010028,-0.30085668,-0.02972939,-0.2536718,-0.2992683,-0.045561362,-0.012558457,-0.40221807,4
Yahoo_A1real_66_data,-0.32692423,0.7526634,0.5162081,-0.42029873,0.807589,-0.330752,-0.5221246,0.3044585,-0.16512229,0.24010836,-0.33564365,-0.3295368,-0.3628579,-0.25850987,-0.38842952,-0.26786166,-0.24694331,-0.28798115,-0.42734548,-0.3355193,-0.3130515,0.40351126,0.11392724,0.10508398,-0.43053016,-0.32190996,-0.36475477,-0.37626353,-0.08956645,-0.31826556,-0.05733266,-0.27784032,2
Yahoo_A1real_67_data,-0.391392,1.2394581,1.3832525,-0.50672966,1.2541372,-0.31294134,-0.58917326,0.6644865,0.0076557496,0.19104525,-0.07358279,-0.8771395,-0.43848908,-0.4538827,-0.7159095,-0.59850883,-0.1367869,-0.5473602,-0.267549,-0.25058103,-0.42436463,0.71726465,0.5381841,-0.18132125,-0.44792452,0.16014095,-0.58553547,-0.47689992,-0.0056616515,-0.5225052,-0.25502056,-0.15768914,2
Yahoo_A1real_6_data,-0.4277532,0.834008,0.45276266,-0.39624664,0.76339,-0.3809439,-0.60665435,0.38479933,-0.093439184,0.27042297,-0.4044559,-0.07974885,-0.45497337,-0.27364093,-0.4150512,-0.09742751,-0.30009168,-0.09517788,-0.36540303,-0.1551574,-0.30210772,0.43182474,0.009664605,0.11717188,-0.53732216,-0.45072076,-0.2894546,-0.4723275,-0.07450861,-0.26124057,0.118951224,-0.3744667,4
Yahoo_A1real_7_data,-0.40006033,0.91064763,1.0525806,-0.4721328,0.9315418,-0.31666356,-0.5370443,0.46670017,-0.017493673,0.033296954,-0.30817446,-0.83315253,-0.26210058,-0.2105829,-0.5638172,-0.62304497,-0.1857101,-0.52625895,-0.34352922,-0.40081534,-0.34871393,0.42616835,0.38926604,0.17614889,-0.29940838,-0.16008794,-0.56800026,-0.3260581,0.012013427,-0.34575024,-0.33569667,-0.1287611,4
Yahoo_A1real_8_data,-0.309596,0.36778826,0.02512622,-0.36074084,0.42647865,-0.36835313,-0.42876616,0.054774523,-0.15176818,0.073073134,-0.5526375,-0.065031715,-0.33300662,-0.07585507,-0.18173529,-0.12578522,-0.3255013,-0.1380652,-0.5004001,-0.393952,-0.23233145,0.101854086,-0.15515663,0.08053146,-0.37479278,-0.5722803,-0.27471107,-0.4022754,-0.0790568,-0.10639475,0.15224867,-0.33561587,0
Yahoo_A1real_9_data,-0.4140211,-0.5922697,-0.28481632,-0.18070479,-0.5714831,0.051256586,0.29650715,-0.62149745,-0.44854182,-0.5841686,0.53584,-0.34681982,-0.040335044,-0.19159535,-0.18549421,-0.26185316,-0.4242673,-0.03783345,0.37077838,-0.12756519,-0.20456551,-0.45204833,-0.074426025,-0.62732565,-0.3304113,0.4489226,-0.12765296,-0.26969162,-0.63524956,-0.17714275,-0.47679594,-0.20166095,4
