Dataset,AE_1,AE_2,AE_3,AE_4,AE_5,AE_6,AE_7,AE_8,AE_9,AE_10,AE_11,AE_12,AE_13,AE_14,AE_15,AE_16,AE_17,AE_18,AE_19,AE_20,AE_21,AE_22,AE_23,AE_24,AE_25,AE_26,AE_27,AE_28,AE_29,AE_30,AE_31,AE_32,target
IOPS_102,-0.1909903,-0.3258589,0.046519972,-0.5401959,-0.21740468,-0.24234614,0.00077861996,0.17566755,0.21363853,-0.3339065,-0.6375068,-0.7474116,0.15889911,0.62793773,0.09033102,-0.49415985,-0.37732303,-0.5042977,-0.38577852,-0.5609648,-0.11409711,-0.28997126,0.0025824711,0.28479335,0.37593964,-0.5824542,-0.6774794,-0.0036268258,0.30657724,0.32620215,-0.2580666,-0.17352751,4
IOPS_103,-0.28362608,-0.62496465,-0.535474,-0.5857713,-0.62499094,-0.029256407,0.38972035,-0.37566936,-0.3091622,-0.2679316,0.6237655,-0.20964769,0.004797974,-0.07534246,-0.25249866,0.0072228634,-0.38207123,-0.34271616,0.3911633,0.113064244,-0.4230193,-0.28456956,-0.21173781,-0.82427424,-0.15310715,0.35720113,-0.29884744,-0.28234777,-0.5665879,0.14583863,-0.24316691,-0.30041793,4
IOPS_104,-0.21072716,-0.5556636,-0.65058947,-0.63569975,-0.6605069,-0.115444265,0.43134844,-0.14825058,-0.22599289,0.030904137,0.49414417,-0.09463353,-0.029639943,-0.003099958,-0.10112851,0.10539267,-0.39746395,-0.38611734,0.11011261,0.16776262,-0.42961147,-0.17138119,-0.39636958,-0.90131456,-0.095199786,0.15748784,-0.37460473,-0.28455168,-0.30140248,0.25257897,-0.058871515,-0.38378048,2
IOPS_11,-0.1529018,-0.32232442,0.02446395,-0.50438386,-0.16235036,-0.25235686,-0.015003022,0.08490921,0.15854058,-0.38623902,-0.7118477,-0.7275033,0.17636545,0.645274,0.1177501,-0.5232166,-0.35193995,-0.52221185,-0.43968916,-0.6746913,-0.07845882,-0.31406578,-0.0033497885,0.30974936,0.4023395,-0.6029768,-0.6260679,0.016160216,0.25558588,0.30116168,-0.21117063,-0.13487612,4
IOPS_116,-0.31885612,-0.44333673,-0.6167837,-0.5712559,-0.57870233,-0.205012,0.26643682,0.09884552,-0.11565734,0.1415547,-0.09472653,-0.06383633,-0.043316312,0.23517823,0.11949223,0.062725425,-0.42893857,-0.18256107,-0.27105483,-0.03259268,-0.3803303,-0.09313399,-0.47915512,-0.6037019,-0.15884311,-0.37868243,-0.41150165,-0.19923982,0.08769037,0.25117925,0.06619722,-0.45108017,4
IOPS_118,-0.16815779,-0.51457393,-0.64269763,-0.6473602,-0.6362347,-0.17243238,0.4212813,-0.016006628,-0.16250503,0.11456177,0.27395317,-0.10979882,-0.02011167,0.08477759,0.03265981,0.08613965,-0.39743334,-0.39493927,-0.09903003,0.08147029,-0.37353653,-0.15013151,-0.4543396,-0.85902894,-0.039646633,-0.0005590846,-0.42827398,-0.24386217,-0.09428305,0.305265,0.019823765,-0.39343792,0
IOPS_121,-0.27507252,-0.6250663,-0.54575145,-0.58142346,-0.6224246,-0.031519953,0.38801104,-0.36665332,-0.30805197,-0.25323057,0.6022915,-0.20228195,-0.0056233616,-0.069432564,-0.2437193,0.016490405,-0.38625297,-0.33749697,0.36828926,0.10232105,-0.42234954,-0.2748276,-0.23063298,-0.8314314,-0.15120617,0.3407398,-0.3014343,-0.28624508,-0.5478335,0.14549285,-0.22710438,-0.3064552,4
IOPS_127,-0.3666378,-0.5567951,-0.7087396,-0.45591754,-0.653988,-0.043443058,0.3291042,-0.1775053,-0.2298911,-0.062215783,0.14257772,0.0323954,-0.047188163,0.16199078,0.056654487,0.13465036,-0.43873096,-0.01936019,0.027324222,0.014707633,-0.4079343,-0.18235761,-0.4522656,-0.70759517,-0.22527458,-0.19016486,-0.1787057,-0.22838417,-0.21399005,0.15451586,0.041296024,-0.43015534,4
IOPS_128,-0.19245094,-0.21371476,-0.057753064,-0.5622365,-0.17644937,-0.24046905,-0.1025959,0.25087267,0.12733547,-0.11330931,-0.5597296,-0.5227337,0.0016701401,0.38700777,-0.008795229,-0.32294786,-0.35342208,-0.3937036,-0.38920408,-0.4177129,-0.21910368,-0.1017733,-0.08711265,0.11638066,0.14571948,-0.5352578,-0.61101353,-0.10127054,0.22138871,0.17561747,-0.14427665,-0.26160482,0
IOPS_186,-0.29002428,-0.65823364,-0.38219103,-0.60190696,-0.56142974,-0.042977612,0.353091,-0.51701975,-0.3436588,-0.50078607,0.710466,-0.34509274,0.03572762,-0.13994741,-0.39011618,-0.12238707,-0.36191028,-0.40077284,0.5426349,0.03467418,-0.3619191,-0.3733941,-0.037183303,-0.7661163,-0.14230561,0.55620146,-0.320878,-0.26146328,-0.7455354,0.09345838,-0.40603673,-0.23966892,4
IOPS_19,-0.14154068,-0.49795353,-0.620351,-0.6482908,-0.6111604,-0.21358033,0.40751827,0.052963067,-0.123507716,0.14901932,0.1414592,-0.13825981,-0.0114444755,0.14065178,0.09886364,0.047399893,-0.39534247,-0.41878995,-0.21797043,0.026634324,-0.33460692,-0.12596045,-0.46725622,-0.8108874,0.00861581,-0.085521884,-0.48539948,-0.22712801,0.008516454,0.33742443,0.045525838,-0.38892615,0
IOPS_192,-0.3086125,-0.6644217,-0.2626491,-0.54196423,-0.48806164,-0.023516336,0.29718798,-0.6021449,-0.3728032,-0.67131585,0.64046854,-0.44038215,0.027310751,-0.19538923,-0.45231363,-0.2241101,-0.3590401,-0.36239278,0.561183,-0.13433686,-0.2617637,-0.4214818,0.046456795,-0.73444945,-0.1899051,0.6433269,-0.31325862,-0.24069728,-0.8081807,-0.005054103,-0.48677775,-0.19529998,4
IOPS_194,-0.55090344,-0.17788526,-0.55177397,-0.51192987,-0.41460007,-0.25191674,-0.15333827,0.20990206,-0.09931229,0.22345504,-0.45442763,0.12541643,-0.20215592,0.21723,-0.021192508,0.123094276,-0.45041156,0.09681471,-0.33439505,-0.017554453,-0.48890305,0.027212694,-0.468452,-0.15474027,-0.47757748,-0.8433385,-0.34812036,-0.22780114,0.12639384,0.05675693,0.12808967,-0.5327223,4
IOPS_199,-0.16810828,-0.5329484,-0.67162615,-0.6861255,-0.6728431,-0.16698883,0.45250848,-0.08162121,-0.2010001,0.122000724,0.49861366,-0.09231293,-0.035171777,-0.011324404,-0.078995876,0.11696573,-0.39004233,-0.4662827,0.026788894,0.19875357,-0.42729998,-0.1475023,-0.4371078,-0.938345,-0.058355305,0.14790833,-0.4368927,-0.28627738,-0.22987814,0.3005117,-0.02800551,-0.39671424,4
IOPS_218,-0.22379626,-0.42423224,-0.49930352,-0.62264276,-0.5113982,-0.26233226,0.25869066,0.17114869,-0.03230718,0.10088801,-0.21879156,-0.22468683,-0.00016544142,0.3083721,0.15935722,-0.058798946,-0.4011698,-0.33484197,-0.3853917,-0.14964992,-0.31313524,-0.1143414,-0.40994397,-0.48830435,0.009258252,-0.39454442,-0.5256226,-0.15644889,0.20026907,0.3058826,0.029667404,-0.3921661,0
IOPS_225,-0.11018608,-0.36640856,0.05077113,-0.5189344,-0.19153139,-0.22459486,0.044451807,0.116567075,0.21500754,-0.40238723,-0.65585804,-0.77995,0.19532107,0.668302,0.13686444,-0.5302516,-0.34968734,-0.5451556,-0.37748587,-0.6387864,-0.051159594,-0.32134968,0.030265944,0.28533444,0.4854331,-0.5191533,-0.6435755,0.026974758,0.24973993,0.350579,-0.23610626,-0.12989347,0
IOPS_236,-0.19134279,-0.26804096,0.11410775,-0.5200562,-0.1679403,-0.23528373,-0.09423763,0.17102136,0.2113814,-0.38722503,-0.6846805,-0.77686244,0.15334018,0.626416,0.029857887,-0.53542936,-0.3649641,-0.5143408,-0.36710897,-0.6078636,-0.10294447,-0.30346733,0.065458044,0.4156558,0.38262615,-0.5949346,-0.67087024,0.00872261,0.2774429,0.27419162,-0.30070615,-0.14975043,4
IOPS_24,-0.0917426,-0.4457273,-0.18818267,-0.5760973,-0.36430705,-0.2584894,0.22369687,0.12144731,0.11442162,-0.23538254,-0.4599636,-0.6100304,0.15577497,0.5396336,0.2116465,-0.3576037,-0.37185353,-0.5379502,-0.4257632,-0.4644163,-0.11416698,-0.27773082,-0.17113136,-0.12670322,0.3878993,-0.40025645,-0.627617,-0.042362608,0.27929425,0.40508646,-0.12994316,-0.2091345,0
IOPS_241,-0.3812179,0.91041774,0.3390551,-0.42546454,0.82431453,-0.47040236,-0.62714404,0.19697015,-0.21836817,0.2113267,-0.4947568,-0.016140725,-0.503412,-0.27524912,-0.49463278,-0.0048697754,-0.3081848,-0.09362452,-0.38791275,-0.23689839,-0.29450697,0.38571644,-0.054199234,0.014313888,-0.5755757,-0.42526886,-0.13058582,-0.43996444,-0.18509516,-0.28647417,0.234116,-0.3893755,2
IOPS_242,-0.69996494,-0.42223695,-0.5908366,0.13669018,-0.4645291,0.108893685,-0.03538856,-0.5328108,-0.46642116,-0.58222246,-0.23567776,0.06547548,-0.17497364,0.1540468,-0.07779206,0.13271765,-0.5303181,0.7565572,0.16920258,-0.39322802,-0.19041249,-0.36525893,-0.458379,-0.30260172,-0.68412846,-0.49633968,0.28662044,-0.15208262,-0.3572893,-0.13348709,-0.08190335,-0.37970904,4
IOPS_243,-0.41025367,1.2334832,1.1425302,-0.5782595,1.1399723,-0.3805596,-0.63371587,0.51431865,-0.07086389,0.25711432,-0.24093264,-0.75121176,-0.42923233,-0.4146847,-0.7021878,-0.46468896,-0.24862806,-0.47442475,-0.31573808,-0.21384746,-0.44130358,0.62812257,0.36406845,-0.034643643,-0.49351993,0.00978609,-0.5316959,-0.46411678,-0.015284962,-0.52554756,-0.20464478,-0.2403713,2
IOPS_246,-0.39189652,1.2449588,1.3557271,-0.58684766,1.1960706,-0.34091237,-0.66043615,0.56248385,-0.01838798,0.16940053,-0.23218387,-0.972085,-0.38169083,-0.42382753,-0.7574949,-0.63263,-0.20536788,-0.57949805,-0.2778644,-0.27187636,-0.44895342,0.6100265,0.50583214,-0.019986695,-0.4497997,0.11017108,-0.6348642,-0.44826874,-0.0035289123,-0.5653459,-0.31683597,-0.175696,2
IOPS_255,-0.4954437,-0.087010615,-0.5011108,-0.44115782,-0.2595666,-0.26732513,-0.24527831,0.11837691,-0.14249603,0.12513804,-0.5346998,0.1659108,-0.23863822,0.16978371,-0.065537766,0.114498034,-0.42750373,0.12383779,-0.35025156,-0.13769633,-0.41396347,0.009654774,-0.433872,-0.09251958,-0.47659323,-0.81954616,-0.25028446,-0.23700938,0.027987115,0.008206819,0.18843415,-0.49907726,4
IOPS_256,-0.4157992,-0.018027456,-0.30246988,-0.51221126,-0.15405034,-0.29640928,-0.2748528,0.22571322,-0.044814438,0.1373968,-0.57688344,-0.055051316,-0.1839179,0.22475144,-0.10099451,-0.033501912,-0.41900426,-0.042549014,-0.40851152,-0.2156162,-0.3810103,0.050807923,-0.31084257,0.05191144,-0.31302333,-0.7760264,-0.40587965,-0.20464768,0.13951375,0.037755106,0.06392217,-0.44062284,4
IOPS_261,-0.2521387,-0.60656047,-0.5967891,-0.6078474,-0.65216386,-0.058051333,0.41192633,-0.2933513,-0.2726183,-0.13754782,0.5951434,-0.15219192,-0.010420492,-0.049467113,-0.19510396,0.055766284,-0.38689405,-0.36908984,0.29580128,0.1607759,-0.44096798,-0.2340968,-0.2924502,-0.8622397,-0.12745494,0.28393936,-0.33067536,-0.29458335,-0.48194495,0.19259408,-0.16399877,-0.33614105,0
IOPS_264,-0.21752082,-0.49567807,-0.66974527,-0.63946044,-0.6375355,-0.19022007,0.3965864,0.036590602,-0.15345424,0.17060675,0.20020749,-0.067392126,-0.037765678,0.12061297,0.054363914,0.10679477,-0.4093579,-0.3400711,-0.15793741,0.08021487,-0.39486858,-0.11026775,-0.4911256,-0.83846366,-0.087976396,-0.11143892,-0.4300524,-0.24094453,-0.032060526,0.2948962,0.055158794,-0.4290167,0
IOPS_267,-0.13941237,-0.3747142,-0.02983541,-0.5484277,-0.24958166,-0.24713431,0.07363088,0.14234553,0.18153913,-0.32339925,-0.60412574,-0.7073919,0.16214415,0.62243944,0.13991465,-0.4589233,-0.36595738,-0.5195454,-0.4102296,-0.5632575,-0.1008841,-0.29230314,-0.040950935,0.16503288,0.4046987,-0.5262199,-0.6485305,-0.0072950493,0.2857878,0.35293594,-0.2046462,-0.18127596,0
IOPS_269,-0.23127453,-0.5335407,-0.6779642,-0.5984533,-0.6574232,-0.14549303,0.40279353,-0.0806088,-0.19859356,0.092073195,0.28542402,-0.068831615,-0.043257546,0.074330464,0.026083417,0.09450053,-0.41395706,-0.31633696,-0.06764771,0.08979142,-0.40504918,-0.1522315,-0.4652969,-0.83445686,-0.10762917,-0.03423047,-0.3838796,-0.27142468,-0.13547249,0.2399834,0.0031543483,-0.39823136,0
IOPS_275,-0.25966,-0.6179941,-0.5458724,-0.60915303,-0.63366395,-0.050046213,0.3956948,-0.35998026,-0.2954516,-0.23681284,0.64200735,-0.20471084,0.0031943258,-0.08030745,-0.25541663,0.015555563,-0.37609524,-0.38018516,0.37184748,0.13184428,-0.42745972,-0.27686197,-0.22334883,-0.8387541,-0.12993886,0.36432013,-0.32187483,-0.28735086,-0.55164623,0.1652917,-0.23628397,-0.3044856,4
IOPS_285,-0.21102178,-0.35767275,-0.091688246,-0.5705921,-0.3000538,-0.26090896,0.06880252,0.18976294,0.15725283,-0.21786593,-0.5655358,-0.6331848,0.12358007,0.5651857,0.1241993,-0.39337835,-0.38891345,-0.46369907,-0.4241454,-0.47239017,-0.16738956,-0.24747115,-0.101760134,0.10087063,0.28680184,-0.5805356,-0.6611562,-0.04528541,0.3324745,0.33958867,-0.19303945,-0.23453917,0
IOPS_3,-0.09093295,-0.32022664,0.038409643,-0.4871595,-0.1334628,-0.24519011,0.002418941,0.012185208,0.13262738,-0.4367503,-0.70652574,-0.73732466,0.19125727,0.6548514,0.13757281,-0.5510663,-0.33621374,-0.5698296,-0.44005138,-0.73101395,-0.031268727,-0.34073827,0.008279348,0.3117561,0.4672219,-0.53400105,-0.59458137,0.022133492,0.19160928,0.29800683,-0.18950081,-0.095254295,4
IOPS_319,-0.060541406,-0.45350134,-0.3949705,-0.65739125,-0.4797941,-0.2936965,0.36408594,0.16351523,-0.0016320714,0.008358643,-0.17657606,-0.4161388,0.08858395,0.35913983,0.18772697,-0.15454024,-0.38411295,-0.5359648,-0.43045735,-0.25979364,-0.19506843,-0.18973428,-0.34197205,-0.5552057,0.25101706,-0.2171854,-0.60010856,-0.09339416,0.264249,0.4339238,-0.035722055,-0.3016604,0
IOPS_327,-0.4720956,-0.060891904,-0.44236612,-0.47105357,-0.22802655,-0.2815848,-0.25267082,0.17653969,-0.114031255,0.1658854,-0.5459833,0.089115895,-0.2046179,0.20429598,-0.07902038,0.06262889,-0.42805517,0.06951959,-0.3884704,-0.17248833,-0.41394344,0.042288892,-0.3988422,-0.0487347,-0.4303618,-0.8135711,-0.31712672,-0.21448869,0.10034703,0.025977442,0.13785529,-0.4894041,2
IOPS_328,-0.449102,1.0669261,1.2655225,-0.53644097,1.022186,-0.2980573,-0.7394638,0.4925334,-0.077258475,0.102102146,-0.47120693,-1.0048634,-0.1824902,-0.24254668,-0.7386796,-0.707239,-0.22520702,-0.54327154,-0.27489746,-0.39573714,-0.42424145,0.41945723,0.4828512,0.5158089,-0.4311354,-0.23215614,-0.6601152,-0.27380103,-0.0330982,-0.47998756,-0.4800007,-0.1588539,2
IOPS_329,-0.50952995,0.17907602,-0.5116624,-0.20658222,0.036500435,-0.354589,-0.4624754,-0.1071453,-0.34717122,0.011298593,-0.63372964,0.4474473,-0.36926252,0.03848748,-0.19296817,0.26852667,-0.4036448,0.3649861,-0.35779566,-0.28538555,-0.29432976,-0.019467007,-0.45599103,-0.014825161,-0.6910403,-0.8692944,0.104049675,-0.26299644,-0.19065847,-0.091730416,0.3588811,-0.50345135,3
IOPS_330,-0.60004056,-0.6328648,-0.52682394,-0.12597537,-0.5859182,0.20105936,0.2482039,-0.5241888,-0.46190584,-0.54510736,0.23299004,-0.1466498,-0.029004073,0.05773929,-0.12486983,0.041059528,-0.5011322,0.369351,0.41228065,-0.19957201,-0.3044271,-0.34924418,-0.32626072,-0.64239705,-0.49288157,-0.0025681215,0.09104598,-0.17995682,-0.492999,-0.072931774,-0.23969656,-0.32042447,3
IOPS_331,-0.4204178,-0.4846267,-0.7499951,-0.38188595,-0.5657638,-0.08189466,0.21016763,-0.15438618,-0.26174274,-0.0046926704,-0.103709295,0.09410322,-0.098062485,0.1681004,0.085517704,0.1313859,-0.44661602,0.07372062,-0.1563402,-0.13195777,-0.41444463,-0.15132569,-0.55141956,-0.64555365,-0.38123307,-0.38365644,-0.1685982,-0.23602422,-0.11128338,0.089101166,0.12506233,-0.44957954,0
IOPS_333,-0.34336463,0.096452035,0.358114,-0.52395743,0.17532824,-0.26563007,-0.36305878,0.31180474,0.16128765,-0.19965437,-0.7186499,-0.74187374,0.019650847,0.41619566,-0.2152009,-0.54123765,-0.36595696,-0.4359504,-0.37830865,-0.5499532,-0.25004008,-0.087659426,0.15954334,0.58356994,0.0698378,-0.70352805,-0.67015505,-0.070455745,0.25456432,0.072423264,-0.3104883,-0.19384363,4
IOPS_334,-0.3934743,-0.36384293,-0.6584046,-0.48372185,-0.47974744,-0.20005889,0.13423872,0.045679566,-0.17567131,0.11870475,-0.28571212,0.03961151,-0.08469102,0.24643087,0.11303844,0.068795934,-0.4358195,-0.03506407,-0.36282697,-0.17328691,-0.4068362,-0.07279587,-0.5299468,-0.48244357,-0.3104414,-0.5474524,-0.30883744,-0.19457363,0.091470495,0.15124328,0.1423541,-0.464654,0
IOPS_337,-0.498026,0.099482216,-0.47373697,-0.360922,-0.053422496,-0.32613423,-0.3754425,0.04996652,-0.24397334,0.14167587,-0.60064656,0.29572383,-0.3005062,0.11583946,-0.13549677,0.1745349,-0.41916546,0.20964468,-0.40887555,-0.2257781,-0.38656375,0.04652639,-0.4422851,-0.018674765,-0.58838177,-0.8685255,-0.101459816,-0.24309704,-0.0336971,-0.046867296,0.27661172,-0.50659364,3
IOPS_338,-0.6167443,-0.6062206,-0.5868831,-0.10691585,-0.6019484,0.17371778,0.22084095,-0.5025875,-0.45349738,-0.5061946,0.16061762,-0.07246169,-0.04821918,0.098501734,-0.09168875,0.078281604,-0.5074261,0.4291697,0.34732828,-0.2012285,-0.3222904,-0.33549255,-0.3773646,-0.6062339,-0.5147895,-0.11273743,0.12109542,-0.175784,-0.44407573,-0.06427455,-0.19105808,-0.3495173,4
IOPS_342,-0.45041427,0.8336038,0.43732557,-0.5163187,0.6949368,-0.40632835,-0.6244121,0.356613,-0.16006127,0.33166242,-0.4908468,-0.22414783,-0.38127443,-0.16031331,-0.48833135,-0.14230978,-0.3548012,-0.17839988,-0.3911266,-0.20788273,-0.41470304,0.4184882,0.0015956688,0.22881009,-0.5307982,-0.5404644,-0.35211933,-0.34150916,-0.006645123,-0.28186467,0.0021615005,-0.3747653,3
IOPS_344,-0.13652998,-0.42615777,-0.35829592,-0.62071455,-0.43012628,-0.2746327,0.25584143,0.17259078,0.044183485,-0.035271388,-0.3300785,-0.40061715,0.07488505,0.42562434,0.18928292,-0.18142271,-0.38777784,-0.43167347,-0.43364918,-0.30451643,-0.21293312,-0.18178716,-0.3033066,-0.36207563,0.19801039,-0.38723558,-0.57001364,-0.08442228,0.27189457,0.37191507,-0.036122642,-0.31391242,2
IOPS_353,-0.21888122,-0.5812287,-0.64408505,-0.6389054,-0.6757429,-0.09743021,0.4375628,-0.20505156,-0.24437869,-0.020367827,0.561133,-0.11054946,-0.01495428,-0.020196173,-0.13181154,0.09553506,-0.3899241,-0.39855167,0.19254759,0.19730526,-0.4441974,-0.1957602,-0.35202095,-0.88625026,-0.08936701,0.21133494,-0.36235267,-0.28739133,-0.37128237,0.25177622,-0.09663302,-0.36116907,0
IOPS_365,-0.25896195,-0.4284893,-0.57840073,-0.58658576,-0.54786855,-0.22934656,0.25511166,0.10883621,-0.08340258,0.09678595,-0.15623048,-0.115932,-0.021036318,0.27985233,0.13045678,0.014800198,-0.41564524,-0.23595004,-0.31869918,-0.0983806,-0.3356387,-0.10572878,-0.4493405,-0.5555111,-0.061870035,-0.37447387,-0.42883933,-0.16873671,0.121438496,0.2722514,0.06118418,-0.4220368,2
IOPS_381,-0.13424441,-0.46821642,-0.5348132,-0.64699674,-0.5495154,-0.25046557,0.35510862,0.14026779,-0.058083493,0.11611159,-0.06536566,-0.22739135,0.011714756,0.24672441,0.15161519,-0.024804996,-0.38900545,-0.41822326,-0.34037387,-0.10283505,-0.29008037,-0.12748536,-0.4356117,-0.67043805,0.06861518,-0.22106607,-0.52641124,-0.17290443,0.14614688,0.3515752,0.034325574,-0.37256938,0
IOPS_393,-0.2787283,-0.56329304,-0.67053854,-0.5927816,-0.67842686,-0.07963586,0.41253155,-0.17989244,-0.24611801,0.004979769,0.4542139,-0.05898071,-0.025171235,0.018689219,-0.0712847,0.11573493,-0.40298417,-0.288551,0.13831574,0.15805939,-0.44680986,-0.18302523,-0.4014561,-0.8627232,-0.15621644,0.09253927,-0.3151002,-0.27761883,-0.31139907,0.21655723,-0.05268299,-0.391321,4
IOPS_394,-0.28214082,-0.6334112,-0.50655556,-0.5896456,-0.61428976,-0.031342376,0.38569844,-0.40541804,-0.3126528,-0.3127353,0.6508363,-0.23371708,0.012634493,-0.08691774,-0.27820483,-0.017187841,-0.3770412,-0.3546112,0.42759413,0.104270175,-0.41167414,-0.3005827,-0.17822133,-0.8135083,-0.14504956,0.39841366,-0.30071217,-0.2824219,-0.60875595,0.13777797,-0.2761605,-0.29180738,4
IOPS_396,-0.24926588,-0.6089202,-0.58504206,-0.6186515,-0.64522547,-0.0645574,0.41288644,-0.31171587,-0.28277418,-0.16873047,0.6071745,-0.16969086,-0.005031908,-0.05049018,-0.20815277,0.048261568,-0.38701442,-0.37300953,0.3106247,0.15089366,-0.43565753,-0.24968933,-0.27119094,-0.8514572,-0.1127614,0.30027542,-0.32772574,-0.2879001,-0.48659915,0.19164112,-0.18901402,-0.32211116,4
IOPS_401,-0.14631952,-0.41428983,-0.27200633,-0.59920365,-0.3852671,-0.27712858,0.21421538,0.15692349,0.086784914,-0.1203116,-0.4222747,-0.48586324,0.10118897,0.49081305,0.19500054,-0.2669503,-0.3852365,-0.4511965,-0.442127,-0.37970984,-0.17661598,-0.21633385,-0.22916164,-0.19904633,0.26750925,-0.4499847,-0.59463507,-0.07153843,0.29056033,0.37995377,-0.08093643,-0.27377558,2
IOPS_418,-0.20083508,-0.45852783,-0.60601044,-0.5746711,-0.5437447,-0.20669675,0.26138157,0.079515226,-0.085369274,0.086728774,-0.17123778,-0.0867378,-0.029678442,0.25710785,0.16847013,0.019318206,-0.39464626,-0.23952357,-0.3172309,-0.11616484,-0.3162288,-0.11913336,-0.46659848,-0.58669513,-0.045612484,-0.34022692,-0.4092671,-0.1828994,0.07906411,0.25707358,0.110904746,-0.41020826,4
IOPS_427,-0.30184025,-0.58559394,-0.64940786,-0.47251636,-0.6400069,-0.016116926,0.36917084,-0.27826273,-0.26775956,-0.1525059,0.29253787,-0.07822746,-0.02536074,0.07757026,-0.010867685,0.071306534,-0.41802984,-0.14186707,0.13913934,0.016702829,-0.3787201,-0.22822778,-0.37572858,-0.7620042,-0.16045232,0.024369644,-0.21193665,-0.25683367,-0.3290392,0.1509965,-0.055981766,-0.34952626,2
IOPS_450,-0.25993073,-0.5770828,-0.6580759,-0.5620536,-0.6466537,-0.0688453,0.404594,-0.1664944,-0.21886586,-0.02507009,0.33389634,-0.0781181,-0.032242727,0.067878656,-0.015479325,0.10197096,-0.4108473,-0.25902435,0.088238545,0.09567042,-0.41115597,-0.19080292,-0.4011129,-0.81949544,-0.123780124,0.028997831,-0.31369498,-0.26687473,-0.2653258,0.21239094,-0.019729096,-0.3759144,4
IOPS_459,-0.2491772,-0.14667936,0.24771325,-0.5360275,-0.042837895,-0.22431497,-0.24196477,0.27224627,0.2375639,-0.29617745,-0.71395785,-0.8017669,0.067229025,0.4911652,-0.09526285,-0.5454167,-0.34451443,-0.48104817,-0.32344085,-0.55292547,-0.16517933,-0.19645587,0.12877028,0.4859177,0.24016814,-0.641752,-0.7184466,-0.064471744,0.24472931,0.1658093,-0.32571664,-0.16448145,0
IOPS_46,-0.22966494,-0.5711171,-0.6505742,-0.63670874,-0.67229867,-0.101153165,0.43485683,-0.17667213,-0.23483841,0.012447427,0.53712225,-0.09497588,-0.023517126,-0.015313462,-0.11608064,0.10377178,-0.3945255,-0.38367966,0.163362,0.20223722,-0.44496757,-0.1834252,-0.376694,-0.895403,-0.10813258,0.17989823,-0.36963102,-0.2884246,-0.34677136,0.24784966,-0.077123754,-0.3786639,0
IOPS_461,-0.29658845,-0.6222099,-0.5630751,-0.55737984,-0.62295175,-0.014202008,0.39179567,-0.34944463,-0.3045737,-0.24749385,0.5491801,-0.1841959,-0.0053502014,-0.039070778,-0.19499397,0.032910783,-0.39424697,-0.28405902,0.34051132,0.08270686,-0.41586423,-0.27340376,-0.24507712,-0.8149214,-0.16170743,0.27797675,-0.26830706,-0.2747197,-0.50494206,0.14206427,-0.20118758,-0.3098495,4
IOPS_475,-0.22376564,-0.58590037,-0.6155351,-0.63599885,-0.66067594,-0.087718286,0.4251444,-0.24114835,-0.25523928,-0.0707712,0.58730125,-0.141228,-0.014762165,-0.0459356,-0.17168836,0.07196031,-0.3849273,-0.40452468,0.23387888,0.17895673,-0.43936747,-0.21728118,-0.32329383,-0.8841364,-0.102329105,0.2615039,-0.36096615,-0.2932555,-0.41774905,0.22501895,-0.13616751,-0.34581703,4
IOPS_478,-0.22419603,-0.57835937,-0.6302727,-0.6286325,-0.6622713,-0.09645602,0.42911276,-0.21996164,-0.2484505,-0.04406822,0.55494803,-0.12114901,-0.017070217,-0.025697814,-0.14284234,0.0806684,-0.39012033,-0.3892073,0.19302364,0.17074992,-0.43431777,-0.20281895,-0.34900895,-0.88595945,-0.09866648,0.2221489,-0.35705316,-0.2906019,-0.38450706,0.23284653,-0.11195375,-0.36319464,4
IOPS_52,-0.25919205,-0.61440444,-0.5712784,-0.60061663,-0.63906604,-0.042601768,0.41022232,-0.3236168,-0.2864502,-0.19272868,0.6107329,-0.17512408,0.0007380856,-0.05045713,-0.21115835,0.039848797,-0.3874332,-0.35631397,0.3437358,0.14743175,-0.42855123,-0.25449985,-0.24902295,-0.8403646,-0.1223993,0.31489334,-0.31004968,-0.2820238,-0.5137285,0.18455021,-0.19280313,-0.31765997,0
IOPS_59,-0.17556414,-0.50918025,-0.6496729,-0.6422606,-0.6365654,-0.19732364,0.4153179,0.017331664,-0.15928839,0.15192933,0.21857068,-0.1059846,-0.021202428,0.10004513,0.06472202,0.07605615,-0.39769465,-0.4004719,-0.15962361,0.07501345,-0.37080204,-0.13088706,-0.4730275,-0.8415379,-0.04262499,-0.058472544,-0.4591524,-0.24002065,-0.044809323,0.31553993,0.038365714,-0.39797804,0
IOPS_68,-0.17904206,-0.39630017,-0.27863476,-0.6102972,-0.40452754,-0.27419892,0.19579917,0.20500356,0.080384135,-0.07749422,-0.39990377,-0.4621201,0.09080519,0.47726616,0.16257589,-0.23414002,-0.3942861,-0.42649233,-0.429851,-0.33778554,-0.21244673,-0.1846436,-0.24862446,-0.217474,0.21329546,-0.45360106,-0.59587675,-0.062103104,0.30515814,0.36514604,-0.08605758,-0.30985478,2
IOPS_71,-0.2056951,-0.37315112,-0.31538212,-0.6052741,-0.39863864,-0.26203826,0.16360526,0.20451882,0.055830237,-0.031710036,-0.40010875,-0.39450368,0.059616614,0.4424672,0.15556589,-0.1904909,-0.39793995,-0.37448943,-0.4246933,-0.3079432,-0.23844875,-0.15672466,-0.27782798,-0.2227358,0.14459582,-0.4791284,-0.56972957,-0.08147145,0.27761915,0.33576193,-0.04750131,-0.334734,2
IOPS_81,-0.2611182,-0.39869648,-0.49463055,-0.6149988,-0.50869524,-0.25252375,0.2265216,0.18535,-0.027099071,0.08816138,-0.24343643,-0.20508023,0.0035814478,0.33233684,0.14249758,-0.049435556,-0.41324234,-0.28538305,-0.3764241,-0.1541444,-0.3213746,-0.11760597,-0.40522397,-0.44997162,-0.016225513,-0.434111,-0.49769738,-0.13555913,0.21217981,0.30615675,0.026500516,-0.41216135,2
IOPS_87,-0.39844528,-0.37228018,-0.5708982,-0.57774955,-0.5271112,-0.22701974,0.12709655,0.18258123,-0.08056818,0.16388991,-0.27695826,-0.06277583,-0.06962262,0.2852626,0.095095314,0.03867484,-0.43839124,-0.11115791,-0.34731323,-0.07935874,-0.41911337,-0.054580063,-0.46280035,-0.4047271,-0.23973952,-0.5784735,-0.43305376,-0.17791551,0.17397597,0.20461127,0.06550389,-0.47671703,2
IOPS_89,-0.26063368,-0.47738847,-0.6464771,-0.6147885,-0.61512995,-0.19975433,0.34094098,0.091788985,-0.12341742,0.16995014,0.037553087,-0.057956707,-0.039232206,0.18553258,0.11024942,0.085050955,-0.41738862,-0.26447895,-0.23177505,0.02852371,-0.386908,-0.09699673,-0.49198866,-0.7218022,-0.11451285,-0.25926578,-0.43099916,-0.21642077,0.045174684,0.28098866,0.07564109,-0.4412216,0
IOPS_94,-0.025804644,-0.4694789,-0.37946016,-0.6389232,-0.45571706,-0.28106707,0.35524255,0.12019217,0.021829505,-0.050272252,-0.22998434,-0.42928272,0.0911108,0.38947392,0.21597615,-0.17982298,-0.3717246,-0.5325249,-0.42590553,-0.30744332,-0.16254082,-0.21343923,-0.3241377,-0.5085277,0.299987,-0.22554183,-0.5818892,-0.096985094,0.23500204,0.4219335,-0.021393241,-0.27950537,0
IOPS_96,-0.20116667,-0.5494994,-0.6563311,-0.64983284,-0.665746,-0.13089576,0.43791935,-0.1327651,-0.219072,0.048778757,0.48414758,-0.09581319,-0.026730593,0.005203193,-0.0845637,0.10620703,-0.3971631,-0.4006039,0.08312544,0.16981393,-0.42491958,-0.16930905,-0.4050429,-0.9017269,-0.077556014,0.1452776,-0.38702384,-0.2809559,-0.27287567,0.26921254,-0.052152038,-0.3840301,4
TravelTime_387,-0.4052494,-0.58358616,-0.6214625,-0.33214164,-0.64396226,0.012297904,0.32990244,-0.40153673,-0.37342128,-0.2509313,0.3246644,-0.10272478,-0.040544834,0.017326681,-0.016025834,0.010190329,-0.44342455,-0.013618579,0.123926565,-0.05874165,-0.3749591,-0.2847822,-0.36657602,-0.7076241,-0.29659855,0.03833917,-0.11957079,-0.25592116,-0.3542155,0.024425013,-0.16074112,-0.32849127,0
TravelTime_451,-0.37831405,-0.13522491,-0.4354888,-0.44306636,-0.28989798,-0.310235,-0.074796215,0.013988085,-0.14127263,-0.005463643,-0.4371392,-0.05977222,-0.075345926,0.2929816,0.022075014,-0.11357317,-0.4250122,-0.067980066,-0.4658117,-0.3296341,-0.29306722,-0.0881866,-0.40524322,-0.09782015,-0.16786008,-0.6014959,-0.31838447,-0.17106226,0.10720557,0.112682626,0.015590895,-0.42983684,1
Twitter_volume_AAPL,-0.37528387,0.69399756,0.31376484,-0.5001278,0.63062936,-0.40875375,-0.5754187,0.25695297,-0.11490281,0.20617417,-0.5663225,-0.19971454,-0.3879746,-0.12068904,-0.4159794,-0.13585043,-0.3434961,-0.18795945,-0.42009246,-0.29277596,-0.34094507,0.31604385,-0.038408484,0.14366253,-0.4485596,-0.5435068,-0.32782543,-0.36215952,-0.035411324,-0.22503643,0.09506179,-0.35387596,1
Twitter_volume_AMZN,-0.4578563,-0.53626555,-0.7864612,-0.46051994,-0.6700243,-0.051336553,0.28437516,-0.11746536,-0.25873205,0.042929,0.09492388,0.13840184,-0.08102263,0.15377861,0.04078469,0.20991798,-0.4505458,0.053755462,0.002393184,0.06483086,-0.48495716,-0.12180287,-0.5231146,-0.72090834,-0.3690169,-0.31481847,-0.17120516,-0.23975018,-0.18647029,0.13095635,0.106072724,-0.48066416,0
Twitter_volume_CRM,-0.40593642,-0.37359446,-0.6352108,-0.49192864,-0.49085662,-0.19028632,0.101558656,0.08242868,-0.13733344,0.11365402,-0.31313628,0.042974845,-0.10530206,0.26773077,0.0965384,0.09910899,-0.43808904,-0.0049738884,-0.32024926,-0.12788859,-0.40020007,-0.070201054,-0.50995594,-0.4400691,-0.30258507,-0.58976334,-0.31201693,-0.18713328,0.084478505,0.15690716,0.1452421,-0.4763629,1
Twitter_volume_CVS,-0.3354854,0.13733451,0.45094958,-0.53420395,0.21355107,-0.25359246,-0.44957843,0.33600044,0.18627766,-0.20597595,-0.7542524,-0.7940594,-0.014749748,0.35379085,-0.27625695,-0.56392664,-0.33793458,-0.4480228,-0.33017895,-0.5409051,-0.25424153,-0.06257182,0.20408939,0.61453587,0.046724085,-0.68128085,-0.7034185,-0.107124805,0.19846605,0.011012055,-0.33684945,-0.18079576,1
Twitter_volume_FB,-0.64260393,-0.2522914,-0.6911776,0.0005277789,-0.3817359,-0.07588555,-0.16741484,-0.3428468,-0.3747426,-0.33307582,-0.38869253,0.34795967,-0.27399555,0.16929209,-0.0765684,0.27602783,-0.4854052,0.6618175,-0.031996388,-0.26503742,-0.27689028,-0.24684043,-0.503009,-0.19836232,-0.686489,-0.7512074,0.25188336,-0.18356255,-0.263824,-0.07895364,0.15555988,-0.46113005,1
Twitter_volume_GOOG,-0.4139911,-0.59364575,-0.6946842,-0.4272107,-0.6420677,0.026399799,0.3308792,-0.2658157,-0.3095735,-0.14241824,0.25543553,-0.00823837,-0.040086675,0.08643377,-0.05107109,0.1386641,-0.44151896,0.00011396256,0.18113108,0.0089461915,-0.43717885,-0.2053585,-0.42425072,-0.7758936,-0.31624153,-0.06404514,-0.14270772,-0.24359891,-0.34399307,0.101985425,-0.02709655,-0.40051594,0
Twitter_volume_IBM,-0.37677303,-0.56488585,-0.72907555,-0.45458728,-0.6298056,-0.023107093,0.3227957,-0.18217216,-0.25820157,-0.038561206,0.14645052,0.027176088,-0.05757081,0.12693635,0.014631393,0.14940202,-0.43635777,-0.030801995,0.037310973,-0.009136464,-0.43149126,-0.16798407,-0.4830542,-0.7711601,-0.28909615,-0.16643865,-0.19122209,-0.24883813,-0.23356204,0.13675623,0.049722265,-0.4274708,1
Twitter_volume_KO,-0.4801908,0.04549026,-0.48042142,-0.30387157,-0.068597496,-0.29413176,-0.37172818,-0.027893828,-0.22036529,0.025954477,-0.6393596,0.26726982,-0.32934648,0.095064074,-0.123747975,0.15333714,-0.4135537,0.24282816,-0.36665785,-0.27277672,-0.3295252,-0.032433517,-0.44380334,-0.030300869,-0.5747273,-0.8608714,-0.07856859,-0.27406907,-0.081490844,-0.05322399,0.2811256,-0.4679121,1
Twitter_volume_PFE,-0.21961527,-0.485174,-0.6318039,-0.5346482,-0.52540064,-0.17359844,0.2828245,0.009703182,-0.13312933,0.0536008,-0.15800624,-0.090517245,-0.027260344,0.2456813,0.14406532,0.032478493,-0.4010538,-0.22559737,-0.30346176,-0.1802467,-0.32739332,-0.13061456,-0.4924801,-0.65568686,-0.09044118,-0.30475464,-0.37648338,-0.19200647,0.033009887,0.2434124,0.11954254,-0.40538305,0
Twitter_volume_UPS,-0.25567558,0.46619958,0.2992037,-0.5138457,0.51992273,-0.3624393,-0.4101417,0.20107786,-0.045732807,0.053490236,-0.5502022,-0.3570805,-0.25939193,0.013491325,-0.2857346,-0.26054734,-0.32848448,-0.3364275,-0.4327377,-0.4100054,-0.27499223,0.20599456,0.004732681,0.07285931,-0.21299173,-0.42108053,-0.41389963,-0.30838826,-0.009576648,-0.11845535,0.052239846,-0.28529945,1
ambient_temperature_system_failure,-0.3417016,-0.38187972,-0.5544987,-0.50954306,-0.47602952,-0.22053102,0.09606386,0.047448497,-0.084633924,0.06446914,-0.33974645,-0.06878172,-0.1031151,0.2654903,0.12635547,-0.012031522,-0.4102605,-0.12769985,-0.35409212,-0.14914893,-0.3563242,-0.10821205,-0.44027662,-0.3454338,-0.17555273,-0.5938507,-0.40558043,-0.2368311,0.106780514,0.16166535,0.08795566,-0.40586117,0
art_daily_flatmiddle,-0.19933563,-0.22656968,-0.1854741,-0.49607486,-0.113875225,-0.27950016,-0.075507805,0.0006666182,0.051321127,-0.16948174,-0.6487371,-0.41751257,-0.05569538,0.3760117,0.110557534,-0.3186546,-0.37112105,-0.35397807,-0.5113211,-0.5318373,-0.16700006,-0.19050959,-0.22030452,0.046149462,0.115458935,-0.62913406,-0.51981837,-0.20426816,0.16350581,0.17785871,-0.0038559563,-0.23190613,1
art_daily_jumpsdown,-0.2013323,-0.3860019,-0.56798685,-0.47076112,-0.39479032,-0.2244071,0.15360057,-0.10960086,-0.14620116,-0.023652354,-0.39169878,-0.13476808,-0.057363886,0.2732093,0.19830476,-0.081585,-0.39115977,-0.21488677,-0.47621784,-0.39379507,-0.2411183,-0.17664951,-0.49192816,-0.43965384,-0.051652048,-0.4415939,-0.36895624,-0.23102988,0.10027657,0.15598777,0.10977546,-0.33667195,0
art_daily_jumpsup,-0.1621329,-0.03951062,0.2173051,-0.49141717,0.11040836,-0.29250953,-0.23734656,0.056809757,0.06869288,-0.3256598,-0.7414044,-0.72946924,0.056202933,0.46018803,-0.06542158,-0.57561535,-0.29895255,-0.5512081,-0.4527867,-0.71560585,-0.09735059,-0.22536188,0.101769604,0.40353805,0.26184905,-0.5966619,-0.575019,-0.07198269,0.14075229,0.12838754,-0.22692212,-0.09765645,1
art_daily_nojump,-0.21973239,-0.46285364,-0.65263784,-0.42581254,-0.49637878,-0.15184371,0.23609956,-0.19188662,-0.20374154,-0.053584393,-0.22978705,-0.09330632,-0.06251191,0.19696616,0.18486333,-0.029844185,-0.39703575,-0.15303615,-0.35967645,-0.32386482,-0.26622057,-0.21553198,-0.53794,-0.5990436,-0.12445301,-0.31042376,-0.29574382,-0.2528928,0.0062862374,0.1244171,0.08973474,-0.34109598,0
art_increase_spike_density,-0.3110648,-0.6476113,-0.29410848,-0.5026729,-0.5405767,-0.038718965,0.31146216,-0.58666736,-0.38664135,-0.60532564,0.6749362,-0.4029219,0.020442888,-0.186961,-0.39695176,-0.22474903,-0.3719934,-0.357271,0.5176959,-0.068508916,-0.280274,-0.41508612,0.013929533,-0.7095177,-0.17912275,0.61036694,-0.30478737,-0.2560763,-0.764047,-0.010440392,-0.48273903,-0.20291063,4
art_load_balancer_spikes,-0.376188,-0.41173792,-0.6786538,-0.32862452,-0.48557404,-0.10956584,0.13963966,-0.20277835,-0.2536568,-0.08617466,-0.21237148,0.035721585,-0.106231876,0.17063047,0.10422549,0.058403295,-0.43373138,0.09514401,-0.23029582,-0.23365612,-0.33307165,-0.19438522,-0.5230177,-0.49076793,-0.33433402,-0.42036158,-0.13595569,-0.23372428,-0.08436001,0.064012825,0.09297532,-0.39883852,1
cpu_utilization_asg_misconfiguration,-0.3054208,-0.6704692,-0.27597567,-0.5660738,-0.47116274,-0.012869477,0.2943107,-0.59130293,-0.36178315,-0.6701118,0.6201632,-0.44045207,0.027771331,-0.1922847,-0.46985337,-0.20048107,-0.35325375,-0.3642222,0.57085735,-0.15013182,-0.271279,-0.4105124,0.036220886,-0.76165396,-0.19666304,0.63700795,-0.31597668,-0.24052659,-0.81412005,0.009637843,-0.46650863,-0.20098788,4
ec2_cpu_utilization_24ae8d,-0.40713048,-0.6297147,-0.48995855,-0.34833157,-0.5815295,0.071666695,0.30988225,-0.49122488,-0.39886212,-0.4237227,0.4125921,-0.23309797,-0.037269544,-0.08319484,-0.18447742,-0.07669878,-0.42685086,-0.07156513,0.33131614,-0.10393055,-0.34732598,-0.3425557,-0.25609437,-0.7417933,-0.32392403,0.25391692,-0.16448821,-0.2830284,-0.54310775,-0.04191665,-0.28039843,-0.26960936,0
ec2_cpu_utilization_53ea38,-0.3177378,-0.651234,-0.2226532,-0.47350964,-0.5014365,-0.036003347,0.28606948,-0.63495106,-0.39936712,-0.6996948,0.64415467,-0.45767272,0.017483145,-0.21810167,-0.43231103,-0.28481403,-0.36938393,-0.3453798,0.52691936,-0.15568832,-0.22023098,-0.44455943,0.063254446,-0.69039,-0.19590567,0.6648017,-0.30504486,-0.24286804,-0.8002618,-0.0579594,-0.529675,-0.1807594,2
ec2_cpu_utilization_5f5533,-0.31475225,-0.64715225,-0.28590578,-0.49569896,-0.5378722,-0.03732095,0.30962104,-0.5944618,-0.38831812,-0.6176111,0.66853887,-0.40716833,0.02236857,-0.18906648,-0.3946257,-0.23361376,-0.37034833,-0.35013214,0.51551867,-0.0827365,-0.27099636,-0.42045233,0.019706521,-0.7054023,-0.18371403,0.61162835,-0.3008515,-0.2536548,-0.76281554,-0.017163115,-0.4881189,-0.20121661,4
ec2_cpu_utilization_77c1ca,-0.14219953,0.044642776,0.31221732,-0.4811036,0.2410781,-0.28498262,-0.16740273,0.09341945,0.05876974,-0.34740636,-0.61034423,-0.74983925,0.05293812,0.389564,-0.111176044,-0.57415646,-0.29093978,-0.58451664,-0.43362263,-0.6623875,-0.123839594,-0.12659527,0.13541341,0.2686215,0.2629747,-0.37219265,-0.5367518,-0.08136702,0.07551993,0.0978223,-0.19518982,-0.11066676,1
ec2_cpu_utilization_825cc2,-0.31233996,-0.64226496,-0.31402624,-0.48839313,-0.54579765,-0.026056714,0.32183746,-0.5637022,-0.3804445,-0.5744624,0.6554556,-0.38199037,0.015810683,-0.17328121,-0.36131757,-0.20162234,-0.3746588,-0.33123404,0.496463,-0.06047957,-0.2819502,-0.40712684,-0.013764009,-0.71653306,-0.18140954,0.57226145,-0.28864264,-0.25741217,-0.73489815,-0.00393836,-0.45361608,-0.21337946,4
ec2_cpu_utilization_ac20cd,-0.3336304,-0.041920964,0.45926157,-0.49613404,0.05382486,-0.2233359,-0.34828317,0.27085215,0.30371523,-0.44588593,-0.7592611,-0.9447855,0.113722466,0.6069892,-0.18663566,-0.6910389,-0.34475285,-0.500566,-0.27050656,-0.639463,-0.11741626,-0.26449177,0.28658852,0.77334875,0.31257486,-0.6828649,-0.7220867,-0.0030670937,0.24502926,0.16042893,-0.46958503,-0.14224137,1
ec2_cpu_utilization_fe7f93,-0.32768247,-0.45780665,-0.6345731,-0.2714985,-0.43152192,-0.082038894,0.15537225,-0.28739032,-0.27578795,-0.19107579,-0.2610978,-0.057838228,-0.09340589,0.1572665,0.120028235,-0.011482249,-0.42185968,0.054032978,-0.26282525,-0.36388895,-0.2560626,-0.27019534,-0.50767606,-0.49718475,-0.28746957,-0.36540756,-0.14949422,-0.24599066,-0.108177364,0.052562315,0.061063062,-0.35446584,2
ec2_disk_write_bytes_1ef3de,-0.36813012,-0.5003744,-0.65806353,-0.21489465,-0.48068082,-0.006621118,0.16841528,-0.3486613,-0.3103989,-0.23884138,-0.190093,-0.046197467,-0.09849573,0.124522634,0.08491174,0.013955069,-0.4283046,0.13965166,-0.12262497,-0.33970177,-0.2611909,-0.2762671,-0.509113,-0.56074685,-0.34971517,-0.2839822,-0.08461958,-0.24698979,-0.20745692,-0.009443443,0.03330065,-0.32959005,1
ec2_disk_write_bytes_c0d644,-0.22891986,0.3119547,0.5320687,-0.5102005,0.4575202,-0.29602176,-0.3473659,0.22100921,0.075464524,-0.2222249,-0.6002535,-0.76923054,-0.06907391,0.2311608,-0.26925185,-0.58710885,-0.2880691,-0.54472494,-0.4130487,-0.5915634,-0.20544434,0.011458919,0.22284941,0.33175308,0.0667138,-0.40433222,-0.57221913,-0.16668849,0.0939762,-0.025851011,-0.2215804,-0.13375375,0
ec2_network_in_257a54,-0.44730532,0.46246877,-0.2357968,-0.22962323,0.3679573,-0.42963648,-0.606196,-0.05519724,-0.316106,0.022632368,-0.6540353,0.3576028,-0.46303874,-0.12548535,-0.2962568,0.18240069,-0.35256028,0.25045288,-0.37476638,-0.30532655,-0.21168618,0.06788936,-0.31904656,0.09015548,-0.6553923,-0.7584269,0.060898274,-0.36676902,-0.26671407,-0.14581053,0.36005127,-0.45440748,1
ec2_network_in_5abac7,-0.33656096,-0.58387905,-0.57698613,-0.32133275,-0.54319185,0.048523195,0.29635325,-0.38925925,-0.34548137,-0.29701078,0.1693889,-0.2047985,-0.05450255,-0.012854656,-0.054766428,-0.041811477,-0.41918984,-0.06514363,0.091580264,-0.22992007,-0.29633555,-0.30393556,-0.3927284,-0.76258427,-0.2889843,0.09011233,-0.17452882,-0.27430862,-0.35362488,-0.008647109,-0.13945486,-0.2776249,0
ec2_request_latency_system_failure,-0.40727228,-0.33946946,-0.4649869,-0.616584,-0.49209675,-0.27766058,0.11573181,0.27033457,-0.010055747,0.18269856,-0.29736808,-0.1789064,-0.043778043,0.3150906,0.103279695,-0.031968746,-0.44071856,-0.17981562,-0.39710975,-0.06822059,-0.40221736,-0.052922964,-0.3938575,-0.28368393,-0.17316277,-0.63432807,-0.5305279,-0.16848835,0.28723615,0.23798844,-0.04073185,-0.4529447,0
elb_request_count_8c0756,-0.22879735,-0.58417904,-0.59903044,-0.5931163,-0.6804006,-0.0902625,0.41231555,-0.29812026,-0.29270414,-0.10984353,0.6202646,-0.14256124,-0.0123243565,-0.06088441,-0.16504727,0.027548509,-0.39109737,-0.38134354,0.23582086,0.16262777,-0.42676508,-0.24831963,-0.30340973,-0.83781993,-0.11021044,0.2807915,-0.33151165,-0.29044524,-0.43290868,0.17696199,-0.1927907,-0.32510215,0
exchange-2_cpc_results,-0.26379544,-0.59514946,-0.46603048,-0.4371754,-0.6791941,-0.09866742,0.39087304,-0.44531125,-0.36042,-0.27675703,0.6782662,-0.22814971,-0.025672952,-0.10813641,-0.14712325,-0.13109656,-0.4111473,-0.33166143,0.27124494,0.11967232,-0.35714328,-0.35202584,-0.1690288,-0.70348537,-0.14630911,0.38209552,-0.28216234,-0.3038478,-0.5193116,0.04966674,-0.34799236,-0.28016698,4
exchange-2_cpm_results,-0.26960424,-0.5931748,-0.44255802,-0.44027627,-0.68231064,-0.10028836,0.395043,-0.45337147,-0.3645921,-0.29762277,0.7184324,-0.24324569,-0.022801703,-0.12865528,-0.17099231,-0.14888582,-0.40901417,-0.33897486,0.31089857,0.13700557,-0.35154355,-0.36389533,-0.14013587,-0.6970716,-0.14456928,0.41780466,-0.28798768,-0.30094025,-0.5462157,0.03431178,-0.37884507,-0.26610777,0
exchange-3_cpc_results,-0.41193485,0.22063693,0.4925785,-0.48671764,0.23570716,-0.27979213,-0.39116955,0.3001236,0.16841552,-0.25718418,-0.630256,-0.8496491,-0.004467809,0.31844226,-0.28912687,-0.6678041,-0.30174068,-0.49759665,-0.36356074,-0.5421129,-0.23152244,-0.08702043,0.21779354,0.5451061,0.052612048,-0.63210756,-0.6623095,-0.11960745,0.18553211,0.045169547,-0.4025637,-0.14703207,4
exchange-3_cpm_results,-0.32129166,-0.5875642,-0.4171582,-0.34628335,-0.6449487,-0.04883725,0.3616545,-0.48709273,-0.38317516,-0.3511452,0.59702945,-0.25187016,-0.03624166,-0.115536,-0.12880333,-0.16710551,-0.42303696,-0.2073053,0.27759174,0.031344935,-0.3085172,-0.37670568,-0.17682946,-0.6795876,-0.21341312,0.36495605,-0.21900138,-0.2906205,-0.52497745,-0.017983131,-0.3742763,-0.26551056,0
exchange-4_cpc_results,-0.4413669,-0.5889513,-0.5319306,-0.17964154,-0.6009999,0.08282787,0.27751264,-0.47907102,-0.4127159,-0.34596574,0.24488048,-0.16476478,-0.072703786,-0.03536035,0.008712785,-0.059964202,-0.467282,0.10106698,0.12993024,-0.12855475,-0.30421257,-0.36259872,-0.3594065,-0.63494414,-0.37734282,0.056598026,-0.094164826,-0.2638498,-0.39075992,-0.09522424,-0.21408524,-0.28411955,4
exchange-4_cpm_results,-0.40346682,-0.5973317,-0.45648634,-0.21435682,-0.59865683,0.06989588,0.2958944,-0.5178056,-0.4240288,-0.40789723,0.3780089,-0.23438624,-0.06204143,-0.097287595,-0.07152333,-0.12643355,-0.44905284,0.00036327142,0.21644667,-0.11168688,-0.28637022,-0.3839031,-0.2660187,-0.66308784,-0.33766732,0.227866,-0.13106707,-0.27343878,-0.48007092,-0.11294695,-0.30205727,-0.24778628,4
grok_asg_anomaly,-0.38377765,-0.5338163,-0.68322486,-0.46129957,-0.6361812,-0.07366745,0.3296141,-0.1384134,-0.24839924,0.0029442701,0.17056063,-0.026703216,-0.06285973,0.10180475,0.040388633,0.103905916,-0.4528834,-0.06098776,-0.026023924,0.0303242,-0.4074617,-0.17520042,-0.47884947,-0.7391074,-0.2724746,-0.17222886,-0.25419912,-0.24939488,-0.16570091,0.14767921,-0.0091554625,-0.4258798,0
iio_us-east-1_i-a2eb1cd9_NetworkIn,-0.4522345,-0.48859167,-0.5960333,-0.19225568,-0.6713371,-0.015737392,0.27025247,-0.49022692,-0.38167506,-0.28636864,0.27109045,-0.007052092,-0.055335667,0.01807359,0.060372192,-0.040361155,-0.4540174,0.17777023,0.07360636,-0.066471055,-0.30719057,-0.3335287,-0.4058539,-0.5766491,-0.35529947,-0.020011162,-0.0024956036,-0.27158263,-0.37084898,-0.05625185,-0.2120315,-0.38185546,4
machine_temperature_system_failure,-0.27233768,-0.21482229,0.28084686,-0.52996355,-0.11803897,-0.2065948,-0.20184192,0.30873108,0.316677,-0.36632562,-0.7332578,-0.869835,0.13600592,0.6428369,-0.056847345,-0.5705369,-0.37471884,-0.47116604,-0.2928249,-0.5602257,-0.14730263,-0.2743214,0.16677229,0.60232794,0.33111215,-0.697136,-0.75276124,0.006503168,0.35132155,0.2542683,-0.38652298,-0.16359964,1
nyc_taxi,-0.29920715,-0.6546504,-0.4380829,-0.6074029,-0.5794028,-0.031827822,0.36428165,-0.47974575,-0.3348006,-0.43910494,0.6919848,-0.2986321,0.030605976,-0.11475267,-0.36251673,-0.06909169,-0.36914772,-0.3703271,0.52197665,0.06365359,-0.39412934,-0.3420462,-0.0872035,-0.7843207,-0.15197,0.49109247,-0.30545065,-0.2677713,-0.70755726,0.11538217,-0.35442558,-0.2632505,4
occupancy_6005,-0.1184859,-0.39722335,-0.19289401,-0.56429446,-0.34662187,-0.30949387,0.23261786,0.05121466,0.08823471,-0.28922498,-0.42709273,-0.6124865,0.169392,0.60709876,0.20707716,-0.41543686,-0.3833596,-0.5545126,-0.5060879,-0.5165114,-0.09049928,-0.32486933,-0.1666869,-0.07071332,0.44948635,-0.42375845,-0.5752318,0.0021499463,0.31492352,0.39256132,-0.1900423,-0.20918383,0
occupancy_t4013,-0.12456709,-0.405953,-0.2307062,-0.57472795,-0.37224764,-0.3074218,0.24405687,0.060730632,0.054166045,-0.25068197,-0.4094677,-0.58755827,0.16900326,0.56602436,0.20817234,-0.3839394,-0.38502145,-0.53898865,-0.5011968,-0.48160112,-0.109919176,-0.31749323,-0.19803262,-0.10532251,0.40056503,-0.4113525,-0.56685495,0.0038584934,0.30630076,0.38440406,-0.19065398,-0.21314351,1
rds_cpu_utilization_cc0c53,-0.32972303,-0.6371985,-0.45156896,-0.47565204,-0.6007003,0.009913511,0.36884442,-0.4569978,-0.3617633,-0.39636877,0.5992167,-0.2541798,-0.005056066,-0.0871676,-0.24096681,-0.0679819,-0.42242208,-0.23344754,0.42583704,0.036947012,-0.35295442,-0.33125317,-0.15457416,-0.74522835,-0.18682335,0.37985674,-0.24562429,-0.26591244,-0.595667,0.05940227,-0.3199602,-0.2735403,0
rds_cpu_utilization_e47b3b,-0.3232361,-0.64856386,-0.23397256,-0.46463966,-0.5052337,-0.026989672,0.28460863,-0.6294044,-0.402316,-0.68825686,0.6353922,-0.44953033,0.014733437,-0.21578449,-0.4236824,-0.27451316,-0.37064555,-0.32975638,0.52050096,-0.155274,-0.22586231,-0.43919227,0.04989249,-0.69469446,-0.2047407,0.64886653,-0.29505852,-0.24336857,-0.7883806,-0.060757507,-0.5203169,-0.18276632,2
rogue_agent_key_hold,-0.32045594,-0.27442062,-0.452979,-0.42747658,-0.316497,-0.26233453,0.026317747,-0.08296157,-0.12015943,-0.06736334,-0.42498112,-0.17656942,-0.07929411,0.27457464,0.15056252,-0.14251502,-0.41220987,-0.13026789,-0.488346,-0.3663786,-0.2535269,-0.20663217,-0.41480717,-0.14364849,-0.11913455,-0.58461845,-0.35171524,-0.18942244,0.13252203,0.13705896,-0.008487866,-0.33407822,4
rogue_agent_key_updown,-0.57179886,-0.27635872,-0.66522336,-0.03169762,-0.34095848,-0.08343667,-0.15590398,-0.36471042,-0.37075657,-0.29549333,-0.4430784,0.22130592,-0.25788915,0.11167637,-0.029532963,0.15924606,-0.4566655,0.5267049,-0.1387424,-0.36730233,-0.2522306,-0.26437292,-0.52055335,-0.24689025,-0.6498637,-0.6770749,0.13728398,-0.24173684,-0.2407445,-0.09221912,0.14261901,-0.43199617,0
speed_6005,-0.10349429,-0.46696943,-0.5931008,-0.66995335,-0.6451671,-0.29667225,0.43843603,0.01896351,-0.1479949,0.1514457,0.2654633,-0.18589583,-0.028355772,0.095260836,0.10657369,0.0065718573,-0.41592306,-0.49955714,-0.29548678,0.05433623,-0.31913146,-0.17735733,-0.46324867,-0.7882827,0.07735843,-0.021627557,-0.50987405,-0.23361558,0.08874348,0.32950202,-0.058617298,-0.36746073,0
speed_7578,-0.4891928,0.9497029,1.1338217,-0.46021792,0.92972803,-0.2556277,-0.6418993,0.62739575,0.05009391,0.10929445,-0.33286145,-0.8541686,-0.27145696,-0.23980667,-0.6347705,-0.6315219,-0.18515678,-0.4775304,-0.26545376,-0.33089867,-0.3921053,0.46425605,0.44547647,0.3196289,-0.40576366,-0.2789481,-0.63059384,-0.32691702,0.03323258,-0.34690052,-0.38198304,-0.17851298,0
speed_t4013,-0.4774415,0.55348915,0.34624544,-0.5410716,0.40883315,-0.32855278,-0.58486414,0.4773275,0.06716051,0.24969067,-0.5421501,-0.3227915,-0.33181912,-0.027242156,-0.38120568,-0.22493128,-0.3597856,-0.14850092,-0.33317253,-0.16171275,-0.3835886,0.28727424,0.0035582532,0.35088906,-0.398061,-0.70629734,-0.5081652,-0.34111384,0.12929714,-0.14952648,-0.08897478,-0.36430904,1
