Dataset,AE_1,AE_2,AE_3,AE_4,AE_5,AE_6,AE_7,AE_8,AE_9,AE_10,AE_11,AE_12,AE_13,AE_14,AE_15,AE_16,AE_17,AE_18,AE_19,AE_20,AE_21,AE_22,AE_23,AE_24,AE_25,AE_26,AE_27,AE_28,AE_29,AE_30,AE_31,AE_32,target
TravelTime_387,-0.4052494,-0.58358616,-0.6214625,-0.33214164,-0.64396226,0.012297904,0.32990244,-0.40153673,-0.37342128,-0.2509313,0.3246644,-0.10272478,-0.040544834,0.017326681,-0.016025834,0.010190329,-0.44342455,-0.013618579,0.123926565,-0.05874165,-0.3749591,-0.2847822,-0.36657602,-0.7076241,-0.29659855,0.03833917,-0.11957079,-0.25592116,-0.3542155,0.024425013,-0.16074112,-0.32849127,0
TravelTime_451,-0.37831405,-0.13522491,-0.4354888,-0.44306636,-0.28989798,-0.310235,-0.074796215,0.013988085,-0.14127263,-0.005463643,-0.4371392,-0.05977222,-0.075345926,0.2929816,0.022075014,-0.11357317,-0.4250122,-0.067980066,-0.4658117,-0.3296341,-0.29306722,-0.0881866,-0.40524322,-0.09782015,-0.16786008,-0.6014959,-0.31838447,-0.17106226,0.10720557,0.112682626,0.015590895,-0.42983684,1
Twitter_volume_AAPL,-0.37528387,0.69399756,0.31376484,-0.5001278,0.63062936,-0.40875375,-0.5754187,0.25695297,-0.11490281,0.20617417,-0.5663225,-0.19971454,-0.3879746,-0.12068904,-0.4159794,-0.13585043,-0.3434961,-0.18795945,-0.42009246,-0.29277596,-0.34094507,0.31604385,-0.038408484,0.14366253,-0.4485596,-0.5435068,-0.32782543,-0.36215952,-0.035411324,-0.22503643,0.09506179,-0.35387596,1
Twitter_volume_AMZN,-0.4578563,-0.53626555,-0.7864612,-0.46051994,-0.6700243,-0.051336553,0.28437516,-0.11746536,-0.25873205,0.042929,0.09492388,0.13840184,-0.08102263,0.15377861,0.04078469,0.20991798,-0.4505458,0.053755462,0.002393184,0.06483086,-0.48495716,-0.12180287,-0.5231146,-0.72090834,-0.3690169,-0.31481847,-0.17120516,-0.23975018,-0.18647029,0.13095635,0.106072724,-0.48066416,0
Twitter_volume_CRM,-0.40593642,-0.37359446,-0.6352108,-0.49192864,-0.49085662,-0.19028632,0.101558656,0.08242868,-0.13733344,0.11365402,-0.31313628,0.042974845,-0.10530206,0.26773077,0.0965384,0.09910899,-0.43808904,-0.0049738884,-0.32024926,-0.12788859,-0.40020007,-0.070201054,-0.50995594,-0.4400691,-0.30258507,-0.58976334,-0.31201693,-0.18713328,0.084478505,0.15690716,0.1452421,-0.4763629,1
Twitter_volume_CVS,-0.3354854,0.13733451,0.45094958,-0.53420395,0.21355107,-0.25359246,-0.44957843,0.33600044,0.18627766,-0.20597595,-0.7542524,-0.7940594,-0.014749748,0.35379085,-0.27625695,-0.56392664,-0.33793458,-0.4480228,-0.33017895,-0.5409051,-0.25424153,-0.06257182,0.20408939,0.61453587,0.046724085,-0.68128085,-0.7034185,-0.107124805,0.19846605,0.011012055,-0.33684945,-0.18079576,1
Twitter_volume_FB,-0.64260393,-0.2522914,-0.6911776,0.0005277789,-0.3817359,-0.07588555,-0.16741484,-0.3428468,-0.3747426,-0.33307582,-0.38869253,0.34795967,-0.27399555,0.16929209,-0.0765684,0.27602783,-0.4854052,0.6618175,-0.031996388,-0.26503742,-0.27689028,-0.24684043,-0.503009,-0.19836232,-0.686489,-0.7512074,0.25188336,-0.18356255,-0.263824,-0.07895364,0.15555988,-0.46113005,1
Twitter_volume_GOOG,-0.4139911,-0.59364575,-0.6946842,-0.4272107,-0.6420677,0.026399799,0.3308792,-0.2658157,-0.3095735,-0.14241824,0.25543553,-0.00823837,-0.040086675,0.08643377,-0.05107109,0.1386641,-0.44151896,0.00011396256,0.18113108,0.0089461915,-0.43717885,-0.2053585,-0.42425072,-0.7758936,-0.31624153,-0.06404514,-0.14270772,-0.24359891,-0.34399307,0.101985425,-0.02709655,-0.40051594,0
Twitter_volume_IBM,-0.37677303,-0.56488585,-0.72907555,-0.45458728,-0.6298056,-0.023107093,0.3227957,-0.18217216,-0.25820157,-0.038561206,0.14645052,0.027176088,-0.05757081,0.12693635,0.014631393,0.14940202,-0.43635777,-0.030801995,0.037310973,-0.009136464,-0.43149126,-0.16798407,-0.4830542,-0.7711601,-0.28909615,-0.16643865,-0.19122209,-0.24883813,-0.23356204,0.13675623,0.049722265,-0.4274708,1
Twitter_volume_KO,-0.4801908,0.04549026,-0.48042142,-0.30387157,-0.068597496,-0.29413176,-0.37172818,-0.027893828,-0.22036529,0.025954477,-0.6393596,0.26726982,-0.32934648,0.095064074,-0.123747975,0.15333714,-0.4135537,0.24282816,-0.36665785,-0.27277672,-0.3295252,-0.032433517,-0.44380334,-0.030300869,-0.5747273,-0.8608714,-0.07856859,-0.27406907,-0.081490844,-0.05322399,0.2811256,-0.4679121,1
Twitter_volume_PFE,-0.21961527,-0.485174,-0.6318039,-0.5346482,-0.52540064,-0.17359844,0.2828245,0.009703182,-0.13312933,0.0536008,-0.15800624,-0.090517245,-0.027260344,0.2456813,0.14406532,0.032478493,-0.4010538,-0.22559737,-0.30346176,-0.1802467,-0.32739332,-0.13061456,-0.4924801,-0.65568686,-0.09044118,-0.30475464,-0.37648338,-0.19200647,0.033009887,0.2434124,0.11954254,-0.40538305,0
Twitter_volume_UPS,-0.25567558,0.46619958,0.2992037,-0.5138457,0.51992273,-0.3624393,-0.4101417,0.20107786,-0.045732807,0.053490236,-0.5502022,-0.3570805,-0.25939193,0.013491325,-0.2857346,-0.26054734,-0.32848448,-0.3364275,-0.4327377,-0.4100054,-0.27499223,0.20599456,0.004732681,0.07285931,-0.21299173,-0.42108053,-0.41389963,-0.30838826,-0.009576648,-0.11845535,0.052239846,-0.28529945,1
Yahoo_A1real_10_data,-0.17154795,-0.49133942,-0.6442299,-0.5681508,-0.7288498,-0.24684964,0.45630747,-0.17343587,-0.24635832,0.10077916,0.50898063,-0.08764171,-0.057821866,-0.046347532,0.049952593,-0.01600101,-0.42366198,-0.4006429,-0.12311809,0.16944087,-0.38301572,-0.23249525,-0.4228742,-0.7879837,-0.07119234,0.11011611,-0.40371957,-0.3103253,-0.13275112,0.17895687,-0.17193434,-0.3485306,4
Yahoo_A1real_11_data,-0.42576802,0.4250886,0.006039513,-0.33103067,0.35092616,-0.3002083,-0.4559735,0.12267951,-0.1867709,0.15979774,-0.43383732,0.035864554,-0.3325366,-0.16364585,-0.22374956,-0.046704248,-0.33784488,0.050274853,-0.3708509,-0.24395405,-0.25150725,0.1708363,-0.18939005,0.10249738,-0.5215243,-0.55559415,-0.21982603,-0.38801202,-0.12510113,-0.19181947,0.08628049,-0.37947825,2
Yahoo_A1real_12_data,-0.5548601,-0.0841827,-0.42926744,-0.5083269,-0.3122242,-0.28697482,-0.14245819,0.24170475,-0.059541173,0.25138608,-0.37440756,0.03122949,-0.13931122,0.16777542,0.020218432,0.009474095,-0.44198474,0.02447655,-0.40726167,-0.055827733,-0.4336015,0.040629722,-0.4067453,0.014810494,-0.40017602,-0.7828084,-0.39413458,-0.23896262,0.16788995,0.05982395,-0.029713554,-0.5050476,4
Yahoo_A1real_13_data,-0.40552238,0.9583153,0.5997845,-0.40510646,0.9125943,-0.38985196,-0.5898966,0.39988673,-0.1020818,0.26656076,-0.3287115,-0.1626426,-0.4738454,-0.32726693,-0.46005657,-0.15276244,-0.27364615,-0.15885611,-0.37693778,-0.18425718,-0.3021421,0.50596726,0.09424733,0.03471982,-0.5250401,-0.31294787,-0.28443116,-0.49244797,-0.07753318,-0.30895287,0.09687314,-0.33981445,4
Yahoo_A1real_14_data,-0.5101788,-0.1869327,-0.51618594,-0.24809392,-0.28644824,-0.19983824,-0.1765338,-0.09799595,-0.19745319,-0.013412898,-0.47137564,0.115475826,-0.21585383,0.14190237,0.08652503,0.08511664,-0.44135663,0.21533269,-0.3313724,-0.19661558,-0.28940472,-0.17110562,-0.4666883,-0.022558296,-0.4394581,-0.7457348,-0.16620803,-0.2708218,-0.010216311,0.029070372,0.113917366,-0.4586,0
Yahoo_A1real_15_data,-0.40578628,0.982107,0.6495126,-0.41704628,0.9375924,-0.3849526,-0.58813673,0.42266503,-0.093375795,0.2736827,-0.3088883,-0.20595841,-0.47253376,-0.33525017,-0.47579747,-0.17769648,-0.26802513,-0.18488415,-0.37278277,-0.18371665,-0.31462282,0.5289065,0.12118785,0.022045068,-0.5204769,-0.28433928,-0.30562204,-0.49282053,-0.0679651,-0.32258335,0.07395532,-0.33142692,4
Yahoo_A1real_16_data,-0.47583967,0.07316186,-0.47351965,0.055481065,0.03865749,-0.23800212,-0.44986925,-0.3052435,-0.3524065,-0.18324853,-0.5989139,0.38426456,-0.41773093,-0.1044874,-0.05404857,0.18261294,-0.37575272,0.5371304,-0.27877873,-0.345045,-0.07089129,-0.21692234,-0.44267207,0.06100067,-0.66636705,-0.7302568,0.124670185,-0.36247092,-0.31184137,-0.15531854,0.3024942,-0.4507933,4
Yahoo_A1real_17_data,-0.27125713,-0.026906729,-0.14326479,-0.48331216,0.007377938,-0.30859873,-0.1668703,0.09455771,-0.03618872,-0.01859412,-0.50615287,-0.33211675,-0.12703696,0.18054521,-0.006909191,-0.28043702,-0.33938327,-0.285584,-0.49904856,-0.42060938,-0.23199686,-0.050098784,-0.16268496,0.116944365,-0.058283206,-0.6071134,-0.45053342,-0.21602939,0.08795588,0.023607278,-0.09627917,-0.28254032,4
Yahoo_A1real_18_data,-0.4677124,0.9790217,0.93819505,-0.4707531,0.9278132,-0.31160703,-0.61415684,0.5494907,-0.046539735,0.23368615,-0.32148024,-0.6110057,-0.33147785,-0.27027664,-0.57716954,-0.43840668,-0.24609478,-0.374234,-0.32576826,-0.2499694,-0.40658003,0.5212439,0.2904575,0.22822814,-0.47064427,-0.28574997,-0.5220827,-0.37367627,0.019854855,-0.35236427,-0.2355437,-0.2484131,4
Yahoo_A1real_19_data,-0.38374513,-0.40444908,-0.61600393,-0.28670114,-0.43494064,-0.15595953,0.075040154,-0.2049138,-0.21218145,-0.06821251,-0.26280522,0.022423433,-0.14568071,0.1155997,0.15940602,0.013943123,-0.42048958,0.06845802,-0.303772,-0.19326435,-0.286722,-0.23475812,-0.4683027,-0.33066267,-0.29822147,-0.49223584,-0.22942963,-0.2845384,-0.061288025,0.0118514905,0.06251261,-0.4007986,4
Yahoo_A1real_1_data,-0.15667222,-0.48212972,-0.59438336,-0.57734984,-0.58920854,-0.2975277,0.40099385,-0.0006812523,-0.14202544,0.11988264,0.08694601,-0.16477107,-0.026007209,0.1448687,0.20070519,-0.017438648,-0.41561645,-0.38150084,-0.38404903,-0.033894632,-0.31633073,-0.19382006,-0.44785938,-0.6278418,0.015625075,-0.18603005,-0.44878858,-0.20945837,0.13508777,0.2603014,-0.06074875,-0.3534994,4
Yahoo_A1real_20_data,-0.48259673,-0.3291174,-0.60904926,-0.22102822,-0.46774018,-0.111961655,0.064957425,-0.29445586,-0.27122787,-0.12234985,-0.22106889,0.022709116,-0.1363464,0.112860754,0.15271167,-0.010867825,-0.4477968,0.2071163,-0.2658559,-0.23092331,-0.2821813,-0.27759007,-0.49323502,-0.29325694,-0.412971,-0.49534076,-0.12499236,-0.27279168,-0.083001286,0.01238465,-0.025258876,-0.40889335,4
Yahoo_A1real_21_data,-0.4514545,0.5726148,0.9701538,-0.5139701,0.59498197,-0.20622505,-0.64869654,0.56547046,0.19863561,-0.10297143,-0.5458056,-1.0420815,-0.14587681,-0.0094850045,-0.53948355,-0.78257275,-0.19150707,-0.50659233,-0.20883232,-0.4367815,-0.3065287,0.14170623,0.4760137,0.6136436,-0.18418534,-0.5058857,-0.76440585,-0.21686618,0.07202644,-0.21277769,-0.53159595,-0.12681115,0
Yahoo_A1real_22_data,-0.54849267,-0.34855354,-0.6625292,-0.043738842,-0.49898925,-0.0013464001,-0.019469956,-0.40894005,-0.35509974,-0.24444467,-0.20338488,0.15428856,-0.17305006,0.022587188,0.12927069,0.07138715,-0.43496296,0.50440294,-0.093270876,-0.23626937,-0.19323958,-0.32327363,-0.50509685,-0.24073033,-0.55471134,-0.48456985,0.08269882,-0.2381639,-0.26504067,-0.12736864,-0.03528417,-0.4166879,2
Yahoo_A1real_23_data,-0.30198935,-0.3234361,-0.3887526,-0.58934724,-0.47608492,-0.33504942,0.1770506,0.11705129,0.031597007,0.019468969,-0.260178,-0.32797778,-0.008120851,0.32846984,0.1578291,-0.21670853,-0.42333063,-0.35105562,-0.4671833,-0.20541434,-0.27267575,-0.18095815,-0.34749046,-0.21352053,0.08308229,-0.52570987,-0.553932,-0.18938486,0.28383142,0.26337337,-0.1601644,-0.34170583,4
Yahoo_A1real_24_data,-0.44649076,0.96206385,0.9895177,-0.4928151,0.91616994,-0.29660028,-0.6231738,0.5680235,-0.02001876,0.20637098,-0.3278863,-0.701696,-0.32173464,-0.28856274,-0.58373874,-0.51880443,-0.21807118,-0.41718706,-0.30682725,-0.27534536,-0.38379043,0.49054036,0.33882943,0.24929596,-0.43451643,-0.27772424,-0.5757654,-0.37060097,0.016271956,-0.37652227,-0.29678544,-0.20430562,0
Yahoo_A1real_25_data,-0.41805845,1.2344581,1.4574826,-0.46574482,1.2706906,-0.29111403,-0.61511785,0.6122351,-0.057021197,0.12146656,-0.15334345,-0.9865281,-0.3228551,-0.39712307,-0.7398262,-0.714326,-0.12729685,-0.59871405,-0.27587086,-0.34756914,-0.40733948,0.6234091,0.5914153,0.06157902,-0.4307879,0.08570317,-0.5968448,-0.37525123,-0.031855185,-0.51032907,-0.38533843,-0.109164506,2
Yahoo_A1real_26_data,-0.5694353,-0.06329666,-0.4907786,-0.38426638,-0.29054987,-0.25752708,-0.21776496,0.119695574,-0.10918866,0.1817515,-0.42876232,0.16998589,-0.22064407,0.12323737,0.03155058,0.081475854,-0.4407732,0.2043121,-0.33986956,-0.06530592,-0.3847275,-0.020951424,-0.4564246,0.041454777,-0.4837029,-0.821673,-0.2631814,-0.27628955,0.06299412,0.014414045,0.07389571,-0.51329356,2
Yahoo_A1real_27_data,-0.45107067,0.96234185,1.017505,-0.5095954,0.9096982,-0.29532337,-0.6382396,0.61772114,0.047290646,0.19504319,-0.31718463,-0.70967156,-0.3660344,-0.28325367,-0.6066699,-0.49804297,-0.2191795,-0.40370873,-0.28049684,-0.23623534,-0.40521184,0.52547157,0.35277584,0.16202924,-0.4322226,-0.25009143,-0.59021527,-0.4091509,0.040297516,-0.36170405,-0.25039563,-0.22533746,4
Yahoo_A1real_28_data,-0.49948078,-0.34231013,-0.6271991,-0.32755443,-0.4614319,-0.16375467,-0.0059222765,-0.099182054,-0.18111056,0.03405895,-0.29030263,0.12618689,-0.1818299,0.13007233,0.15327598,0.09513749,-0.44402003,0.15040113,-0.27711344,-0.061064467,-0.3772179,-0.1770524,-0.49774233,-0.2286709,-0.4111277,-0.6609901,-0.21990997,-0.31175488,-0.026461724,0.055685245,0.08108726,-0.47733897,2
Yahoo_A1real_29_data,-0.5098108,0.010932385,-0.3588458,-0.36127114,-0.10786543,-0.2712202,-0.33088124,0.08333647,-0.104024746,0.12426458,-0.5632109,0.08960698,-0.28630477,0.0652167,-0.016106304,0.018750515,-0.4140838,0.12801668,-0.3952098,-0.18232264,-0.34121656,-0.03035684,-0.4112717,0.113733456,-0.47024122,-0.8477146,-0.28827208,-0.34788463,0.03635451,-0.013370035,0.10789758,-0.4489957,0
Yahoo_A1real_2_data,-0.4240893,1.1143874,1.1157131,-0.4564688,1.1209556,-0.31786615,-0.56661576,0.5301044,-0.09489399,0.22933389,-0.21072839,-0.6982576,-0.34410983,-0.33671921,-0.6069349,-0.50129694,-0.21169469,-0.4651009,-0.337539,-0.29313865,-0.39252573,0.58547,0.37419364,0.095428675,-0.4556985,-0.09240921,-0.5039028,-0.38694263,-0.009710857,-0.42294195,-0.25012782,-0.1904871,4
Yahoo_A1real_30_data,-0.38729876,0.7882553,0.27192563,-0.27512187,0.7619968,-0.4229883,-0.59423095,0.19376203,-0.18960989,0.15675847,-0.46431223,0.12514323,-0.48304948,-0.29025096,-0.35003772,0.005351436,-0.2941239,0.026918296,-0.39359266,-0.22099301,-0.17948215,0.3024574,-0.083730035,0.09201427,-0.5559479,-0.4702585,-0.111290075,-0.4864454,-0.17978077,-0.22851007,0.25999624,-0.37352234,2
Yahoo_A1real_31_data,-0.41694617,1.0996985,1.343735,-0.46421126,1.1516205,-0.27754885,-0.60676193,0.5725245,-0.027791392,0.08195033,-0.23291749,-0.97881377,-0.29123545,-0.30261204,-0.6869853,-0.7114132,-0.14989148,-0.59156656,-0.28075,-0.37782314,-0.39560017,0.51956767,0.55443615,0.1506044,-0.3819295,-0.041479222,-0.6124955,-0.34285837,-0.005485489,-0.43255633,-0.37747246,-0.104411155,2
Yahoo_A1real_32_data,-0.60479903,-0.41210577,-0.6165961,0.07360237,-0.47570518,0.076452814,0.011292321,-0.4464119,-0.41560772,-0.3187335,-0.22552226,0.13732648,-0.15605101,0.06850381,0.12716796,0.13667545,-0.49650863,0.56233835,0.0003927641,-0.20238556,-0.21225856,-0.36465243,-0.5145121,-0.28138134,-0.6030262,-0.474183,0.13164668,-0.22400679,-0.2927713,-0.084426604,0.023839442,-0.41741797,4
Yahoo_A1real_33_data,-0.5548601,-0.0841827,-0.42926744,-0.5083269,-0.3122242,-0.28697482,-0.14245819,0.24170475,-0.059541173,0.25138608,-0.37440756,0.03122949,-0.13931122,0.16777542,0.020218432,0.009474095,-0.44198474,0.02447655,-0.40726167,-0.055827733,-0.4336015,0.040629722,-0.4067453,0.014810494,-0.40017602,-0.7828084,-0.39413458,-0.23896262,0.16788995,0.05982395,-0.029713554,-0.5050476,4
Yahoo_A1real_34_data,-0.6408565,-0.34489086,-0.6680185,0.045039352,-0.46203896,0.014974543,-0.056001406,-0.40804958,-0.39938703,-0.24841678,-0.2605589,0.26446658,-0.18512863,0.07120884,0.11901781,0.18932545,-0.4859236,0.6116632,-0.038376573,-0.16592403,-0.2465241,-0.31708717,-0.53492,-0.21648462,-0.6495401,-0.57043976,0.1502402,-0.23158997,-0.2807711,-0.08358301,0.08331381,-0.4818702,4
Yahoo_A1real_35_data,-0.4947257,0.8910771,0.947841,-0.5222879,0.7806076,-0.27682984,-0.6822476,0.6609117,0.08884224,0.20482466,-0.38619417,-0.69957674,-0.33780238,-0.24137989,-0.6080705,-0.49652898,-0.23816772,-0.35742125,-0.24592018,-0.2036093,-0.41495964,0.47897148,0.3251166,0.29342502,-0.44034508,-0.38329166,-0.63051564,-0.39229417,0.06625841,-0.32759473,-0.29487628,-0.25103366,0
Yahoo_A1real_36_data,-0.64098024,-0.43862346,-0.64256746,0.029049972,-0.5678308,0.0941795,0.08247386,-0.47257298,-0.4131818,-0.33635968,-0.0833911,0.13735388,-0.13441114,0.05600183,0.13429882,0.09739848,-0.49094296,0.58057207,0.07180925,-0.15100001,-0.26112607,-0.3639963,-0.50265485,-0.34400424,-0.6030694,-0.40346867,0.1433811,-0.22538951,-0.32128584,-0.12065333,-0.06043401,-0.4042877,4
Yahoo_A1real_37_data,-0.22052309,-0.29371363,-0.2698357,-0.5533054,-0.2800477,-0.32730258,0.1595821,0.07022459,0.037012495,-0.10125603,-0.38542336,-0.44057393,0.045606077,0.40855402,0.19734102,-0.302493,-0.39663178,-0.41858608,-0.5289172,-0.37521052,-0.17681012,-0.24847294,-0.2438839,-0.05660612,0.18530641,-0.5369574,-0.5239629,-0.10668724,0.29683927,0.3077241,-0.14396772,-0.25616333,4
Yahoo_A1real_38_data,-0.34632817,-0.41040176,-0.5048993,-0.47888482,-0.46458516,-0.25613406,0.15576148,-0.08655778,-0.088506155,-0.020622285,-0.30256397,-0.21569972,-0.07021414,0.2557344,0.2013306,-0.15109304,-0.4210158,-0.21148524,-0.4609791,-0.24094541,-0.33835843,-0.23003909,-0.44619274,-0.27288485,-0.10924295,-0.5567384,-0.45106423,-0.2562249,0.13452278,0.17134097,-0.06790436,-0.36076593,4
Yahoo_A1real_39_data,-0.37237054,-0.5603981,-0.60557586,-0.34399846,-0.6834417,-0.067186385,0.34892184,-0.39788762,-0.33276492,-0.16845402,0.3362799,-0.10965679,-0.06507446,-0.029268522,0.056831017,-0.068997055,-0.43400007,-0.09154587,0.04091742,0.014747392,-0.37877324,-0.32778764,-0.3662995,-0.6648416,-0.27941665,0.030076291,-0.22323191,-0.3138507,-0.3179405,-0.0011613675,-0.20752735,-0.31809565,4
Yahoo_A1real_3_data,-0.39229953,1.2303711,1.2815899,-0.49899098,1.236766,-0.32449386,-0.58028895,0.63060707,-0.01595175,0.2287709,-0.08734497,-0.76752794,-0.4528781,-0.4469958,-0.6820849,-0.51778644,-0.16316783,-0.49447367,-0.2908486,-0.2273009,-0.41844597,0.71959245,0.47294185,-0.17609353,-0.46669748,0.11672592,-0.5343102,-0.48958558,-0.010674782,-0.5027743,-0.19382821,-0.19070548,4
Yahoo_A1real_40_data,-0.65993536,-0.31669056,-0.64909536,0.047481827,-0.47142717,0.033509094,-0.12104896,-0.38995343,-0.36232957,-0.25556234,-0.27439597,0.29871988,-0.2244278,0.045939118,0.10536061,0.19356203,-0.4774451,0.6737114,0.0353968,-0.09878019,-0.24265346,-0.3145995,-0.51182914,-0.13402084,-0.6563642,-0.6221609,0.15322287,-0.26627734,-0.32571256,-0.1184567,0.07937877,-0.47926298,2
Yahoo_A1real_41_data,-0.4893116,0.083095096,-0.28234503,-0.4018259,-0.078072645,-0.3092209,-0.32884237,0.13264193,-0.07606736,0.1197381,-0.5489798,0.008388464,-0.24378386,0.10709748,-0.057676554,-0.051351015,-0.39907676,0.035573255,-0.4180898,-0.21014664,-0.33123466,0.0033117242,-0.33780098,0.1570467,-0.39688134,-0.8069832,-0.32363012,-0.31414324,0.055831626,0.012786729,0.034513216,-0.42922398,0
Yahoo_A1real_42_data,-0.3579458,0.5489307,0.48787752,-0.46587977,0.5854502,-0.29106084,-0.5131879,0.39132944,-0.020652268,0.15733047,-0.43902725,-0.4644511,-0.2876885,-0.12315525,-0.35599598,-0.32209915,-0.27222812,-0.3184884,-0.3726391,-0.32571092,-0.28658307,0.2601887,0.1255899,0.25101626,-0.32864097,-0.46933448,-0.4962524,-0.31076658,0.025653746,-0.19851002,-0.14599468,-0.25953853,2
Yahoo_A1real_43_data,-0.33236575,-0.5663126,-0.52705157,-0.30991068,-0.6575553,-0.032131378,0.3374834,-0.47355655,-0.3764817,-0.28598458,0.40500528,-0.17645502,-0.058690682,-0.08560052,-0.0319307,-0.131513,-0.41856343,-0.12314359,0.110694066,-0.042031974,-0.33369127,-0.36031684,-0.30899504,-0.69066715,-0.26886988,0.19041644,-0.19691773,-0.32571888,-0.41804412,-0.04324977,-0.27860704,-0.28120455,4
Yahoo_A1real_44_data,-0.63380945,-0.36374852,-0.6908683,-0.075756714,-0.52541703,-0.0065494333,-0.00027321122,-0.36804792,-0.37034196,-0.18446708,-0.18495125,0.22265065,-0.17479932,0.059923995,0.12754317,0.13870852,-0.475151,0.49608067,-0.056972474,-0.11257214,-0.3270432,-0.28011194,-0.53685665,-0.27491564,-0.61507815,-0.5419603,0.058165073,-0.26728952,-0.25210133,-0.10250609,0.027647177,-0.44458726,2
Yahoo_A1real_45_data,-0.30373046,-0.35144943,-0.3040983,-0.6008059,-0.43156576,-0.3254387,0.20969799,0.17900226,0.066108115,-0.034495883,-0.29013938,-0.45873785,0.053244177,0.41943687,0.15976503,-0.2525878,-0.41658252,-0.42075104,-0.4782302,-0.24798615,-0.27932897,-0.21245438,-0.26745266,-0.16793814,0.12640412,-0.518733,-0.5800048,-0.09707349,0.3502727,0.3339579,-0.19911408,-0.33337978,1
Yahoo_A1real_46_data,-0.50130576,0.7862485,1.1644186,-0.49224544,0.76113904,-0.22338697,-0.694491,0.6225869,0.1491744,-0.076717794,-0.50236714,-1.0597594,-0.15658912,-0.07488514,-0.65456796,-0.79572487,-0.18859656,-0.52933025,-0.20532422,-0.40716133,-0.36016747,0.26390168,0.52740175,0.59378046,-0.27128097,-0.41630533,-0.72858876,-0.22946021,0.0696626,-0.27082494,-0.5307981,-0.123545945,2
Yahoo_A1real_47_data,-0.4539734,0.69098145,0.34914252,-0.40097865,0.65485764,-0.3602546,-0.5343188,0.32122687,-0.13044727,0.26019526,-0.4453112,-0.14616325,-0.36064753,-0.14720982,-0.34446174,-0.13840996,-0.33630148,-0.1355129,-0.43574354,-0.24923578,-0.33906347,0.35118523,-0.032803155,0.21762799,-0.49251664,-0.5506228,-0.32056886,-0.37534735,-0.00033015528,-0.1940579,0.037586406,-0.3610617,4
Yahoo_A1real_48_data,-0.29057798,0.027367854,-0.5281605,-0.14891511,-0.20167549,-0.30822754,-0.24894202,-0.35026464,-0.3162764,-0.22394948,-0.43097866,0.24795105,-0.25190413,0.057350747,-0.035600543,0.040892806,-0.38265526,0.23551187,-0.38039494,-0.4005554,-0.06941549,-0.19180533,-0.510045,-0.13322124,-0.28756857,-0.4299458,0.07258569,-0.2939919,-0.24366185,-0.051144212,0.17123915,-0.4204133,2
Yahoo_A1real_49_data,-0.4677124,0.9790217,0.93819505,-0.4707531,0.9278132,-0.31160703,-0.61415684,0.5494907,-0.046539735,0.23368615,-0.32148024,-0.6110057,-0.33147785,-0.27027664,-0.57716954,-0.43840668,-0.24609478,-0.374234,-0.32576826,-0.2499694,-0.40658003,0.5212439,0.2904575,0.22822814,-0.47064427,-0.28574997,-0.5220827,-0.37367627,0.019854855,-0.35236427,-0.2355437,-0.2484131,4
Yahoo_A1real_4_data,-0.3852006,0.67476773,0.32619986,-0.40009943,0.6737913,-0.3624606,-0.5530015,0.2796561,-0.1139627,0.20535156,-0.4638083,-0.14605217,-0.39145273,-0.20822974,-0.34633663,-0.16411152,-0.29249635,-0.14577895,-0.44829315,-0.31451178,-0.2654042,0.32194903,-0.006539865,0.164456,-0.4640658,-0.50406665,-0.30914474,-0.4139585,-0.05643467,-0.22235136,0.054951012,-0.3213345,4
Yahoo_A1real_50_data,-0.4433159,0.79133993,0.29685315,-0.33175918,0.73549306,-0.40220988,-0.56809837,0.24722952,-0.22255684,0.2629238,-0.4341895,0.043965448,-0.40306884,-0.23113632,-0.3545001,-0.040482838,-0.3278967,-0.046643052,-0.42936036,-0.21932417,-0.28678793,0.36267594,-0.08210856,0.17560041,-0.5711416,-0.5123564,-0.18833554,-0.41742823,-0.10986781,-0.23105066,0.14119765,-0.3862452,0
Yahoo_A1real_51_data,-0.523524,0.49965188,0.3809749,-0.4934829,0.37359068,-0.2907507,-0.5887253,0.492211,0.0782111,0.21739666,-0.5432202,-0.36634028,-0.300775,-0.037019428,-0.36323673,-0.26187897,-0.34033108,-0.16572013,-0.32207477,-0.17919463,-0.3985361,0.2700992,0.02060915,0.38425848,-0.42167342,-0.7151691,-0.54085314,-0.34553975,0.1238106,-0.13349043,-0.13976288,-0.35761786,0
Yahoo_A1real_52_data,-0.36581343,-0.3601706,-0.4727597,-0.543997,-0.4675193,-0.2851451,0.1187467,0.0729048,-0.030926283,0.07578303,-0.2870508,-0.19425319,-0.07325755,0.2692155,0.16307317,-0.09821569,-0.42919716,-0.21077286,-0.44664603,-0.14650561,-0.36352992,-0.14662324,-0.41954446,-0.24753541,-0.10808024,-0.5911817,-0.48682797,-0.23921213,0.20917532,0.19418465,-0.060410112,-0.412713,4
Yahoo_A1real_53_data,-0.44649076,0.96206385,0.9895177,-0.4928151,0.91616994,-0.29660028,-0.6231738,0.5680235,-0.02001876,0.20637098,-0.3278863,-0.701696,-0.32173464,-0.28856274,-0.58373874,-0.51880443,-0.21807118,-0.41718706,-0.30682725,-0.27534536,-0.38379043,0.49054036,0.33882943,0.24929596,-0.43451643,-0.27772424,-0.5757654,-0.37060097,0.016271956,-0.37652227,-0.29678544,-0.20430562,0
Yahoo_A1real_54_data,-0.49963123,0.62519825,0.2981637,-0.3085839,0.646422,-0.34549186,-0.50581545,0.30203304,-0.14725508,0.2488813,-0.41017845,-0.014291063,-0.31507564,-0.1642429,-0.29356578,-0.115439564,-0.32617205,-0.075038634,-0.46397266,-0.2796328,-0.3010932,0.3744909,-0.024554163,0.25815368,-0.5186009,-0.53817683,-0.2875979,-0.37306276,-0.03270946,-0.17909165,0.027285844,-0.41130263,2
Yahoo_A1real_55_data,-0.3328285,-0.5970679,-0.5244348,-0.33588052,-0.66966206,-0.03940902,0.3691928,-0.43927386,-0.35441515,-0.2513689,0.48177055,-0.15602909,-0.053413734,-0.051411346,-0.019721294,-0.084428534,-0.4328204,-0.15786462,0.16757682,0.047285672,-0.35933045,-0.34312558,-0.27036035,-0.69214773,-0.22807495,0.1968905,-0.20422515,-0.31104618,-0.42696175,0.01680046,-0.26157144,-0.31402436,4
Yahoo_A1real_56_data,-0.55502594,-0.52727205,-0.71043694,-0.2617574,-0.68031067,-0.0047651576,0.21792091,-0.29586363,-0.29509783,-0.07821154,0.068175316,0.11896906,-0.11370653,0.1053409,0.17833754,0.11726696,-0.48186243,0.24694265,-0.011959955,0.058039494,-0.4295557,-0.2619287,-0.519936,-0.4829698,-0.4420695,-0.37207988,-0.078730665,-0.27592024,-0.2155402,0.013821811,-0.03229095,-0.4665301,4
Yahoo_A1real_57_data,-0.55115044,-0.42030692,-0.62008834,-0.032573443,-0.46533284,0.016285948,0.06946109,-0.37578428,-0.36826423,-0.25406006,-0.205256,0.0708733,-0.14376101,0.07250275,0.14111944,0.08388016,-0.48433828,0.40773597,-0.09836831,-0.20862314,-0.24087147,-0.33370918,-0.5059259,-0.3206353,-0.51402247,-0.4616097,0.028991442,-0.2370348,-0.20672421,-0.053176515,0.004469146,-0.3924112,4
Yahoo_A1real_58_data,-0.41160914,1.1547625,1.330534,-0.46898386,1.1896981,-0.30021846,-0.5907857,0.58330154,-0.05516723,0.14112411,-0.1910633,-0.91211355,-0.31797448,-0.36208683,-0.6746994,-0.6629024,-0.15222557,-0.561333,-0.29838684,-0.34167817,-0.38893762,0.582768,0.5172262,0.0931981,-0.41324347,0.0026713707,-0.5842501,-0.36748388,-0.015870025,-0.46625334,-0.35627195,-0.12489571,4
Yahoo_A1real_59_data,-0.46935362,-0.0012926931,0.43406877,-0.49057284,-0.010046933,-0.21903637,-0.36511835,0.36327833,0.35963032,-0.41263965,-0.72940665,-0.944989,0.09225639,0.53367907,-0.21970108,-0.72317654,-0.31949928,-0.49337772,-0.24099287,-0.5104825,-0.16777751,-0.29280496,0.24457568,0.78420955,0.20955831,-0.8035207,-0.71941704,-0.029326757,0.2684868,0.17812544,-0.5356328,-0.16563101,0
Yahoo_A1real_5_data,-0.4339728,-0.5958597,-0.309085,-0.17366117,-0.5879394,0.06237396,0.3026485,-0.61523944,-0.4434489,-0.56841516,0.5183675,-0.3261302,-0.04432844,-0.16365862,-0.15122452,-0.24088676,-0.43084896,0.0016024117,0.37502444,-0.1050924,-0.21777314,-0.4461088,-0.097831294,-0.6173951,-0.3365774,0.3942484,-0.106037505,-0.27356556,-0.62268203,-0.17217295,-0.45466635,-0.21490407,4
Yahoo_A1real_60_data,-0.4626708,0.35701966,-0.1898572,-0.228498,0.2730112,-0.3447585,-0.52251095,0.03715574,-0.20794924,0.09050034,-0.6028339,0.2503719,-0.40418082,-0.10690846,-0.16341673,0.0914445,-0.36822024,0.21304622,-0.38926536,-0.23401971,-0.21276145,0.044986054,-0.32769898,0.17633113,-0.57906085,-0.76395804,-0.0963212,-0.40991703,-0.13934043,-0.11289239,0.26214516,-0.4308377,4
Yahoo_A1real_61_data,-0.500394,0.26228935,-0.41098076,0.014042739,0.1727248,-0.32814932,-0.4967943,-0.21635485,-0.3920077,-0.08449378,-0.593115,0.4812485,-0.397745,-0.11843043,-0.11297123,0.22017914,-0.37924263,0.49273148,-0.33615,-0.3122776,-0.08756567,-0.110874906,-0.4323603,0.12605576,-0.69258916,-0.7426663,0.16239998,-0.3456556,-0.29446205,-0.13041662,0.33429492,-0.47388458,2
Yahoo_A1real_62_data,-0.3975293,1.1205006,1.354046,-0.41529483,1.279661,-0.29998156,-0.5858854,0.6720396,0.017491717,0.17557414,-0.04473176,-0.7773548,-0.45728853,-0.42954072,-0.6688887,-0.54416275,-0.10121967,-0.5403357,-0.29390898,-0.2962711,-0.40846542,0.74945354,0.5772382,-0.21077575,-0.44152236,0.13670121,-0.5892941,-0.47071728,-0.01937711,-0.47930002,-0.18745501,-0.18183456,4
Yahoo_A1real_63_data,-0.5291681,-0.110454015,-0.0022315378,-0.5754335,-0.22686924,-0.2580486,-0.12090722,0.42526343,0.1596972,0.022288293,-0.4598857,-0.55924165,0.023438232,0.39026427,-0.0517136,-0.34174475,-0.41117007,-0.31485167,-0.3651653,-0.21863155,-0.379634,-0.071607985,-0.09371313,0.28988412,-0.09076348,-0.76683205,-0.6577479,-0.081096694,0.38038203,0.19738464,-0.33397797,-0.3476244,2
Yahoo_A1real_64_data,-0.6164546,-0.14428036,-0.6610229,-0.02851893,-0.33716738,-0.110686004,-0.27537635,-0.25222093,-0.31556454,-0.11945425,-0.40706226,0.45914516,-0.30572066,0.010893308,0.05181718,0.26292717,-0.44445527,0.64344585,-0.110261776,-0.08839026,-0.24476375,-0.2067507,-0.5242643,-0.026407842,-0.67510515,-0.75370854,0.12903544,-0.30165038,-0.27996725,-0.11423999,0.2198024,-0.53686917,0
Yahoo_A1real_65_data,-0.48008424,-0.5118091,-0.6565458,-0.13988312,-0.5740408,0.029851839,0.1572936,-0.3571718,-0.34016922,-0.18911518,0.0065040193,0.088707946,-0.12083961,0.03400339,0.13323945,0.112243846,-0.46471295,0.29229683,0.029308343,-0.046666056,-0.2957253,-0.3118576,-0.45321497,-0.4516959,-0.44010028,-0.30085668,-0.02972939,-0.2536718,-0.2992683,-0.045561362,-0.012558457,-0.40221807,4
Yahoo_A1real_66_data,-0.32692423,0.7526634,0.5162081,-0.42029873,0.807589,-0.330752,-0.5221246,0.3044585,-0.16512229,0.24010836,-0.33564365,-0.3295368,-0.3628579,-0.25850987,-0.38842952,-0.26786166,-0.24694331,-0.28798115,-0.42734548,-0.3355193,-0.3130515,0.40351126,0.11392724,0.10508398,-0.43053016,-0.32190996,-0.36475477,-0.37626353,-0.08956645,-0.31826556,-0.05733266,-0.27784032,2
Yahoo_A1real_67_data,-0.391392,1.2394581,1.3832525,-0.50672966,1.2541372,-0.31294134,-0.58917326,0.6644865,0.0076557496,0.19104525,-0.07358279,-0.8771395,-0.43848908,-0.4538827,-0.7159095,-0.59850883,-0.1367869,-0.5473602,-0.267549,-0.25058103,-0.42436463,0.71726465,0.5381841,-0.18132125,-0.44792452,0.16014095,-0.58553547,-0.47689992,-0.0056616515,-0.5225052,-0.25502056,-0.15768914,2
Yahoo_A1real_6_data,-0.4277532,0.834008,0.45276266,-0.39624664,0.76339,-0.3809439,-0.60665435,0.38479933,-0.093439184,0.27042297,-0.4044559,-0.07974885,-0.45497337,-0.27364093,-0.4150512,-0.09742751,-0.30009168,-0.09517788,-0.36540303,-0.1551574,-0.30210772,0.43182474,0.009664605,0.11717188,-0.53732216,-0.45072076,-0.2894546,-0.4723275,-0.07450861,-0.26124057,0.118951224,-0.3744667,4
Yahoo_A1real_7_data,-0.40006033,0.91064763,1.0525806,-0.4721328,0.9315418,-0.31666356,-0.5370443,0.46670017,-0.017493673,0.033296954,-0.30817446,-0.83315253,-0.26210058,-0.2105829,-0.5638172,-0.62304497,-0.1857101,-0.52625895,-0.34352922,-0.40081534,-0.34871393,0.42616835,0.38926604,0.17614889,-0.29940838,-0.16008794,-0.56800026,-0.3260581,0.012013427,-0.34575024,-0.33569667,-0.1287611,4
Yahoo_A1real_8_data,-0.309596,0.36778826,0.02512622,-0.36074084,0.42647865,-0.36835313,-0.42876616,0.054774523,-0.15176818,0.073073134,-0.5526375,-0.065031715,-0.33300662,-0.07585507,-0.18173529,-0.12578522,-0.3255013,-0.1380652,-0.5004001,-0.393952,-0.23233145,0.101854086,-0.15515663,0.08053146,-0.37479278,-0.5722803,-0.27471107,-0.4022754,-0.0790568,-0.10639475,0.15224867,-0.33561587,0
Yahoo_A1real_9_data,-0.4140211,-0.5922697,-0.28481632,-0.18070479,-0.5714831,0.051256586,0.29650715,-0.62149745,-0.44854182,-0.5841686,0.53584,-0.34681982,-0.040335044,-0.19159535,-0.18549421,-0.26185316,-0.4242673,-0.03783345,0.37077838,-0.12756519,-0.20456551,-0.45204833,-0.074426025,-0.62732565,-0.3304113,0.4489226,-0.12765296,-0.26969162,-0.63524956,-0.17714275,-0.47679594,-0.20166095,4
ambient_temperature_system_failure,-0.3417016,-0.38187972,-0.5544987,-0.50954306,-0.47602952,-0.22053102,0.09606386,0.047448497,-0.084633924,0.06446914,-0.33974645,-0.06878172,-0.1031151,0.2654903,0.12635547,-0.012031522,-0.4102605,-0.12769985,-0.35409212,-0.14914893,-0.3563242,-0.10821205,-0.44027662,-0.3454338,-0.17555273,-0.5938507,-0.40558043,-0.2368311,0.106780514,0.16166535,0.08795566,-0.40586117,0
art_daily_flatmiddle,-0.19933563,-0.22656968,-0.1854741,-0.49607486,-0.113875225,-0.27950016,-0.075507805,0.0006666182,0.051321127,-0.16948174,-0.6487371,-0.41751257,-0.05569538,0.3760117,0.110557534,-0.3186546,-0.37112105,-0.35397807,-0.5113211,-0.5318373,-0.16700006,-0.19050959,-0.22030452,0.046149462,0.115458935,-0.62913406,-0.51981837,-0.20426816,0.16350581,0.17785871,-0.0038559563,-0.23190613,1
art_daily_jumpsdown,-0.2013323,-0.3860019,-0.56798685,-0.47076112,-0.39479032,-0.2244071,0.15360057,-0.10960086,-0.14620116,-0.023652354,-0.39169878,-0.13476808,-0.057363886,0.2732093,0.19830476,-0.081585,-0.39115977,-0.21488677,-0.47621784,-0.39379507,-0.2411183,-0.17664951,-0.49192816,-0.43965384,-0.051652048,-0.4415939,-0.36895624,-0.23102988,0.10027657,0.15598777,0.10977546,-0.33667195,0
art_daily_jumpsup,-0.1621329,-0.03951062,0.2173051,-0.49141717,0.11040836,-0.29250953,-0.23734656,0.056809757,0.06869288,-0.3256598,-0.7414044,-0.72946924,0.056202933,0.46018803,-0.06542158,-0.57561535,-0.29895255,-0.5512081,-0.4527867,-0.71560585,-0.09735059,-0.22536188,0.101769604,0.40353805,0.26184905,-0.5966619,-0.575019,-0.07198269,0.14075229,0.12838754,-0.22692212,-0.09765645,1
art_daily_nojump,-0.21973239,-0.46285364,-0.65263784,-0.42581254,-0.49637878,-0.15184371,0.23609956,-0.19188662,-0.20374154,-0.053584393,-0.22978705,-0.09330632,-0.06251191,0.19696616,0.18486333,-0.029844185,-0.39703575,-0.15303615,-0.35967645,-0.32386482,-0.26622057,-0.21553198,-0.53794,-0.5990436,-0.12445301,-0.31042376,-0.29574382,-0.2528928,0.0062862374,0.1244171,0.08973474,-0.34109598,0
art_increase_spike_density,-0.3110648,-0.6476113,-0.29410848,-0.5026729,-0.5405767,-0.038718965,0.31146216,-0.58666736,-0.38664135,-0.60532564,0.6749362,-0.4029219,0.020442888,-0.186961,-0.39695176,-0.22474903,-0.3719934,-0.357271,0.5176959,-0.068508916,-0.280274,-0.41508612,0.013929533,-0.7095177,-0.17912275,0.61036694,-0.30478737,-0.2560763,-0.764047,-0.010440392,-0.48273903,-0.20291063,4
art_load_balancer_spikes,-0.376188,-0.41173792,-0.6786538,-0.32862452,-0.48557404,-0.10956584,0.13963966,-0.20277835,-0.2536568,-0.08617466,-0.21237148,0.035721585,-0.106231876,0.17063047,0.10422549,0.058403295,-0.43373138,0.09514401,-0.23029582,-0.23365612,-0.33307165,-0.19438522,-0.5230177,-0.49076793,-0.33433402,-0.42036158,-0.13595569,-0.23372428,-0.08436001,0.064012825,0.09297532,-0.39883852,1
cpu_utilization_asg_misconfiguration,-0.3054208,-0.6704692,-0.27597567,-0.5660738,-0.47116274,-0.012869477,0.2943107,-0.59130293,-0.36178315,-0.6701118,0.6201632,-0.44045207,0.027771331,-0.1922847,-0.46985337,-0.20048107,-0.35325375,-0.3642222,0.57085735,-0.15013182,-0.271279,-0.4105124,0.036220886,-0.76165396,-0.19666304,0.63700795,-0.31597668,-0.24052659,-0.81412005,0.009637843,-0.46650863,-0.20098788,4
ec2_cpu_utilization_24ae8d,-0.40713048,-0.6297147,-0.48995855,-0.34833157,-0.5815295,0.071666695,0.30988225,-0.49122488,-0.39886212,-0.4237227,0.4125921,-0.23309797,-0.037269544,-0.08319484,-0.18447742,-0.07669878,-0.42685086,-0.07156513,0.33131614,-0.10393055,-0.34732598,-0.3425557,-0.25609437,-0.7417933,-0.32392403,0.25391692,-0.16448821,-0.2830284,-0.54310775,-0.04191665,-0.28039843,-0.26960936,0
ec2_cpu_utilization_53ea38,-0.3177378,-0.651234,-0.2226532,-0.47350964,-0.5014365,-0.036003347,0.28606948,-0.63495106,-0.39936712,-0.6996948,0.64415467,-0.45767272,0.017483145,-0.21810167,-0.43231103,-0.28481403,-0.36938393,-0.3453798,0.52691936,-0.15568832,-0.22023098,-0.44455943,0.063254446,-0.69039,-0.19590567,0.6648017,-0.30504486,-0.24286804,-0.8002618,-0.0579594,-0.529675,-0.1807594,2
ec2_cpu_utilization_5f5533,-0.31475225,-0.64715225,-0.28590578,-0.49569896,-0.5378722,-0.03732095,0.30962104,-0.5944618,-0.38831812,-0.6176111,0.66853887,-0.40716833,0.02236857,-0.18906648,-0.3946257,-0.23361376,-0.37034833,-0.35013214,0.51551867,-0.0827365,-0.27099636,-0.42045233,0.019706521,-0.7054023,-0.18371403,0.61162835,-0.3008515,-0.2536548,-0.76281554,-0.017163115,-0.4881189,-0.20121661,4
ec2_cpu_utilization_77c1ca,-0.14219953,0.044642776,0.31221732,-0.4811036,0.2410781,-0.28498262,-0.16740273,0.09341945,0.05876974,-0.34740636,-0.61034423,-0.74983925,0.05293812,0.389564,-0.111176044,-0.57415646,-0.29093978,-0.58451664,-0.43362263,-0.6623875,-0.123839594,-0.12659527,0.13541341,0.2686215,0.2629747,-0.37219265,-0.5367518,-0.08136702,0.07551993,0.0978223,-0.19518982,-0.11066676,1
ec2_cpu_utilization_825cc2,-0.31233996,-0.64226496,-0.31402624,-0.48839313,-0.54579765,-0.026056714,0.32183746,-0.5637022,-0.3804445,-0.5744624,0.6554556,-0.38199037,0.015810683,-0.17328121,-0.36131757,-0.20162234,-0.3746588,-0.33123404,0.496463,-0.06047957,-0.2819502,-0.40712684,-0.013764009,-0.71653306,-0.18140954,0.57226145,-0.28864264,-0.25741217,-0.73489815,-0.00393836,-0.45361608,-0.21337946,4
ec2_cpu_utilization_ac20cd,-0.3336304,-0.041920964,0.45926157,-0.49613404,0.05382486,-0.2233359,-0.34828317,0.27085215,0.30371523,-0.44588593,-0.7592611,-0.9447855,0.113722466,0.6069892,-0.18663566,-0.6910389,-0.34475285,-0.500566,-0.27050656,-0.639463,-0.11741626,-0.26449177,0.28658852,0.77334875,0.31257486,-0.6828649,-0.7220867,-0.0030670937,0.24502926,0.16042893,-0.46958503,-0.14224137,1
ec2_cpu_utilization_fe7f93,-0.32768247,-0.45780665,-0.6345731,-0.2714985,-0.43152192,-0.082038894,0.15537225,-0.28739032,-0.27578795,-0.19107579,-0.2610978,-0.057838228,-0.09340589,0.1572665,0.120028235,-0.011482249,-0.42185968,0.054032978,-0.26282525,-0.36388895,-0.2560626,-0.27019534,-0.50767606,-0.49718475,-0.28746957,-0.36540756,-0.14949422,-0.24599066,-0.108177364,0.052562315,0.061063062,-0.35446584,2
ec2_disk_write_bytes_1ef3de,-0.36813012,-0.5003744,-0.65806353,-0.21489465,-0.48068082,-0.006621118,0.16841528,-0.3486613,-0.3103989,-0.23884138,-0.190093,-0.046197467,-0.09849573,0.124522634,0.08491174,0.013955069,-0.4283046,0.13965166,-0.12262497,-0.33970177,-0.2611909,-0.2762671,-0.509113,-0.56074685,-0.34971517,-0.2839822,-0.08461958,-0.24698979,-0.20745692,-0.009443443,0.03330065,-0.32959005,1
ec2_disk_write_bytes_c0d644,-0.22891986,0.3119547,0.5320687,-0.5102005,0.4575202,-0.29602176,-0.3473659,0.22100921,0.075464524,-0.2222249,-0.6002535,-0.76923054,-0.06907391,0.2311608,-0.26925185,-0.58710885,-0.2880691,-0.54472494,-0.4130487,-0.5915634,-0.20544434,0.011458919,0.22284941,0.33175308,0.0667138,-0.40433222,-0.57221913,-0.16668849,0.0939762,-0.025851011,-0.2215804,-0.13375375,0
ec2_network_in_257a54,-0.44730532,0.46246877,-0.2357968,-0.22962323,0.3679573,-0.42963648,-0.606196,-0.05519724,-0.316106,0.022632368,-0.6540353,0.3576028,-0.46303874,-0.12548535,-0.2962568,0.18240069,-0.35256028,0.25045288,-0.37476638,-0.30532655,-0.21168618,0.06788936,-0.31904656,0.09015548,-0.6553923,-0.7584269,0.060898274,-0.36676902,-0.26671407,-0.14581053,0.36005127,-0.45440748,1
ec2_network_in_5abac7,-0.33656096,-0.58387905,-0.57698613,-0.32133275,-0.54319185,0.048523195,0.29635325,-0.38925925,-0.34548137,-0.29701078,0.1693889,-0.2047985,-0.05450255,-0.012854656,-0.054766428,-0.041811477,-0.41918984,-0.06514363,0.091580264,-0.22992007,-0.29633555,-0.30393556,-0.3927284,-0.76258427,-0.2889843,0.09011233,-0.17452882,-0.27430862,-0.35362488,-0.008647109,-0.13945486,-0.2776249,0
ec2_request_latency_system_failure,-0.40727228,-0.33946946,-0.4649869,-0.616584,-0.49209675,-0.27766058,0.11573181,0.27033457,-0.010055747,0.18269856,-0.29736808,-0.1789064,-0.043778043,0.3150906,0.103279695,-0.031968746,-0.44071856,-0.17981562,-0.39710975,-0.06822059,-0.40221736,-0.052922964,-0.3938575,-0.28368393,-0.17316277,-0.63432807,-0.5305279,-0.16848835,0.28723615,0.23798844,-0.04073185,-0.4529447,0
elb_request_count_8c0756,-0.22879735,-0.58417904,-0.59903044,-0.5931163,-0.6804006,-0.0902625,0.41231555,-0.29812026,-0.29270414,-0.10984353,0.6202646,-0.14256124,-0.0123243565,-0.06088441,-0.16504727,0.027548509,-0.39109737,-0.38134354,0.23582086,0.16262777,-0.42676508,-0.24831963,-0.30340973,-0.83781993,-0.11021044,0.2807915,-0.33151165,-0.29044524,-0.43290868,0.17696199,-0.1927907,-0.32510215,0
exchange-2_cpc_results,-0.26379544,-0.59514946,-0.46603048,-0.4371754,-0.6791941,-0.09866742,0.39087304,-0.44531125,-0.36042,-0.27675703,0.6782662,-0.22814971,-0.025672952,-0.10813641,-0.14712325,-0.13109656,-0.4111473,-0.33166143,0.27124494,0.11967232,-0.35714328,-0.35202584,-0.1690288,-0.70348537,-0.14630911,0.38209552,-0.28216234,-0.3038478,-0.5193116,0.04966674,-0.34799236,-0.28016698,4
exchange-2_cpm_results,-0.26960424,-0.5931748,-0.44255802,-0.44027627,-0.68231064,-0.10028836,0.395043,-0.45337147,-0.3645921,-0.29762277,0.7184324,-0.24324569,-0.022801703,-0.12865528,-0.17099231,-0.14888582,-0.40901417,-0.33897486,0.31089857,0.13700557,-0.35154355,-0.36389533,-0.14013587,-0.6970716,-0.14456928,0.41780466,-0.28798768,-0.30094025,-0.5462157,0.03431178,-0.37884507,-0.26610777,0
exchange-3_cpc_results,-0.41193485,0.22063693,0.4925785,-0.48671764,0.23570716,-0.27979213,-0.39116955,0.3001236,0.16841552,-0.25718418,-0.630256,-0.8496491,-0.004467809,0.31844226,-0.28912687,-0.6678041,-0.30174068,-0.49759665,-0.36356074,-0.5421129,-0.23152244,-0.08702043,0.21779354,0.5451061,0.052612048,-0.63210756,-0.6623095,-0.11960745,0.18553211,0.045169547,-0.4025637,-0.14703207,4
exchange-3_cpm_results,-0.32129166,-0.5875642,-0.4171582,-0.34628335,-0.6449487,-0.04883725,0.3616545,-0.48709273,-0.38317516,-0.3511452,0.59702945,-0.25187016,-0.03624166,-0.115536,-0.12880333,-0.16710551,-0.42303696,-0.2073053,0.27759174,0.031344935,-0.3085172,-0.37670568,-0.17682946,-0.6795876,-0.21341312,0.36495605,-0.21900138,-0.2906205,-0.52497745,-0.017983131,-0.3742763,-0.26551056,0
exchange-4_cpc_results,-0.4413669,-0.5889513,-0.5319306,-0.17964154,-0.6009999,0.08282787,0.27751264,-0.47907102,-0.4127159,-0.34596574,0.24488048,-0.16476478,-0.072703786,-0.03536035,0.008712785,-0.059964202,-0.467282,0.10106698,0.12993024,-0.12855475,-0.30421257,-0.36259872,-0.3594065,-0.63494414,-0.37734282,0.056598026,-0.094164826,-0.2638498,-0.39075992,-0.09522424,-0.21408524,-0.28411955,4
exchange-4_cpm_results,-0.40346682,-0.5973317,-0.45648634,-0.21435682,-0.59865683,0.06989588,0.2958944,-0.5178056,-0.4240288,-0.40789723,0.3780089,-0.23438624,-0.06204143,-0.097287595,-0.07152333,-0.12643355,-0.44905284,0.00036327142,0.21644667,-0.11168688,-0.28637022,-0.3839031,-0.2660187,-0.66308784,-0.33766732,0.227866,-0.13106707,-0.27343878,-0.48007092,-0.11294695,-0.30205727,-0.24778628,4
grok_asg_anomaly,-0.38377765,-0.5338163,-0.68322486,-0.46129957,-0.6361812,-0.07366745,0.3296141,-0.1384134,-0.24839924,0.0029442701,0.17056063,-0.026703216,-0.06285973,0.10180475,0.040388633,0.103905916,-0.4528834,-0.06098776,-0.026023924,0.0303242,-0.4074617,-0.17520042,-0.47884947,-0.7391074,-0.2724746,-0.17222886,-0.25419912,-0.24939488,-0.16570091,0.14767921,-0.0091554625,-0.4258798,0
iio_us-east-1_i-a2eb1cd9_NetworkIn,-0.4522345,-0.48859167,-0.5960333,-0.19225568,-0.6713371,-0.015737392,0.27025247,-0.49022692,-0.38167506,-0.28636864,0.27109045,-0.007052092,-0.055335667,0.01807359,0.060372192,-0.040361155,-0.4540174,0.17777023,0.07360636,-0.066471055,-0.30719057,-0.3335287,-0.4058539,-0.5766491,-0.35529947,-0.020011162,-0.0024956036,-0.27158263,-0.37084898,-0.05625185,-0.2120315,-0.38185546,4
machine_temperature_system_failure,-0.27233768,-0.21482229,0.28084686,-0.52996355,-0.11803897,-0.2065948,-0.20184192,0.30873108,0.316677,-0.36632562,-0.7332578,-0.869835,0.13600592,0.6428369,-0.056847345,-0.5705369,-0.37471884,-0.47116604,-0.2928249,-0.5602257,-0.14730263,-0.2743214,0.16677229,0.60232794,0.33111215,-0.697136,-0.75276124,0.006503168,0.35132155,0.2542683,-0.38652298,-0.16359964,1
nyc_taxi,-0.29920715,-0.6546504,-0.4380829,-0.6074029,-0.5794028,-0.031827822,0.36428165,-0.47974575,-0.3348006,-0.43910494,0.6919848,-0.2986321,0.030605976,-0.11475267,-0.36251673,-0.06909169,-0.36914772,-0.3703271,0.52197665,0.06365359,-0.39412934,-0.3420462,-0.0872035,-0.7843207,-0.15197,0.49109247,-0.30545065,-0.2677713,-0.70755726,0.11538217,-0.35442558,-0.2632505,4
occupancy_6005,-0.1184859,-0.39722335,-0.19289401,-0.56429446,-0.34662187,-0.30949387,0.23261786,0.05121466,0.08823471,-0.28922498,-0.42709273,-0.6124865,0.169392,0.60709876,0.20707716,-0.41543686,-0.3833596,-0.5545126,-0.5060879,-0.5165114,-0.09049928,-0.32486933,-0.1666869,-0.07071332,0.44948635,-0.42375845,-0.5752318,0.0021499463,0.31492352,0.39256132,-0.1900423,-0.20918383,0
occupancy_t4013,-0.12456709,-0.405953,-0.2307062,-0.57472795,-0.37224764,-0.3074218,0.24405687,0.060730632,0.054166045,-0.25068197,-0.4094677,-0.58755827,0.16900326,0.56602436,0.20817234,-0.3839394,-0.38502145,-0.53898865,-0.5011968,-0.48160112,-0.109919176,-0.31749323,-0.19803262,-0.10532251,0.40056503,-0.4113525,-0.56685495,0.0038584934,0.30630076,0.38440406,-0.19065398,-0.21314351,1
rds_cpu_utilization_cc0c53,-0.32972303,-0.6371985,-0.45156896,-0.47565204,-0.6007003,0.009913511,0.36884442,-0.4569978,-0.3617633,-0.39636877,0.5992167,-0.2541798,-0.005056066,-0.0871676,-0.24096681,-0.0679819,-0.42242208,-0.23344754,0.42583704,0.036947012,-0.35295442,-0.33125317,-0.15457416,-0.74522835,-0.18682335,0.37985674,-0.24562429,-0.26591244,-0.595667,0.05940227,-0.3199602,-0.2735403,0
rds_cpu_utilization_e47b3b,-0.3232361,-0.64856386,-0.23397256,-0.46463966,-0.5052337,-0.026989672,0.28460863,-0.6294044,-0.402316,-0.68825686,0.6353922,-0.44953033,0.014733437,-0.21578449,-0.4236824,-0.27451316,-0.37064555,-0.32975638,0.52050096,-0.155274,-0.22586231,-0.43919227,0.04989249,-0.69469446,-0.2047407,0.64886653,-0.29505852,-0.24336857,-0.7883806,-0.060757507,-0.5203169,-0.18276632,2
rogue_agent_key_hold,-0.32045594,-0.27442062,-0.452979,-0.42747658,-0.316497,-0.26233453,0.026317747,-0.08296157,-0.12015943,-0.06736334,-0.42498112,-0.17656942,-0.07929411,0.27457464,0.15056252,-0.14251502,-0.41220987,-0.13026789,-0.488346,-0.3663786,-0.2535269,-0.20663217,-0.41480717,-0.14364849,-0.11913455,-0.58461845,-0.35171524,-0.18942244,0.13252203,0.13705896,-0.008487866,-0.33407822,4
rogue_agent_key_updown,-0.57179886,-0.27635872,-0.66522336,-0.03169762,-0.34095848,-0.08343667,-0.15590398,-0.36471042,-0.37075657,-0.29549333,-0.4430784,0.22130592,-0.25788915,0.11167637,-0.029532963,0.15924606,-0.4566655,0.5267049,-0.1387424,-0.36730233,-0.2522306,-0.26437292,-0.52055335,-0.24689025,-0.6498637,-0.6770749,0.13728398,-0.24173684,-0.2407445,-0.09221912,0.14261901,-0.43199617,0
speed_6005,-0.10349429,-0.46696943,-0.5931008,-0.66995335,-0.6451671,-0.29667225,0.43843603,0.01896351,-0.1479949,0.1514457,0.2654633,-0.18589583,-0.028355772,0.095260836,0.10657369,0.0065718573,-0.41592306,-0.49955714,-0.29548678,0.05433623,-0.31913146,-0.17735733,-0.46324867,-0.7882827,0.07735843,-0.021627557,-0.50987405,-0.23361558,0.08874348,0.32950202,-0.058617298,-0.36746073,0
speed_7578,-0.4891928,0.9497029,1.1338217,-0.46021792,0.92972803,-0.2556277,-0.6418993,0.62739575,0.05009391,0.10929445,-0.33286145,-0.8541686,-0.27145696,-0.23980667,-0.6347705,-0.6315219,-0.18515678,-0.4775304,-0.26545376,-0.33089867,-0.3921053,0.46425605,0.44547647,0.3196289,-0.40576366,-0.2789481,-0.63059384,-0.32691702,0.03323258,-0.34690052,-0.38198304,-0.17851298,0
speed_t4013,-0.4774415,0.55348915,0.34624544,-0.5410716,0.40883315,-0.32855278,-0.58486414,0.4773275,0.06716051,0.24969067,-0.5421501,-0.3227915,-0.33181912,-0.027242156,-0.38120568,-0.22493128,-0.3597856,-0.14850092,-0.33317253,-0.16171275,-0.3835886,0.28727424,0.0035582532,0.35088906,-0.398061,-0.70629734,-0.5081652,-0.34111384,0.12929714,-0.14952648,-0.08897478,-0.36430904,1
