Dataset,AE_1,AE_2,AE_3,AE_4,AE_5,AE_6,AE_7,AE_8,AE_9,AE_10,AE_11,AE_12,AE_13,AE_14,AE_15,AE_16,target
TravelTime_387,-0.52946097,0.28079244,-0.47791728,0.083953455,-0.4764431,0.56284344,-0.2709659,-0.2509242,0.4267599,-0.3330928,-0.45547476,-0.32474458,-0.6871951,-0.12180342,-1.0135659,-0.2919958,0
TravelTime_451,-0.121571526,-0.06504572,-0.26927286,-0.74396,-0.13712756,-0.19397458,-0.46721718,-0.041162938,-0.14765215,0.011417326,0.2042546,-0.14339533,-0.4630557,0.15571935,-0.17731835,-0.55141807,1
Twitter_volume_AAPL,-0.4848828,-0.32079536,-0.037888315,-0.45923775,-0.07540257,-0.47415033,0.10743586,0.15156762,-0.63572836,-0.19473208,-0.14530562,-0.45158502,0.9378352,-0.2086655,0.64369583,-0.46786457,1
Twitter_volume_AMZN,-0.4550968,0.23736592,-0.46409968,-0.24145119,-0.3799157,0.618605,-0.42750502,0.07537365,0.38138318,-0.22451028,-0.27092987,-0.29911277,-0.76011,-0.046712242,-0.89935803,-0.54864305,0
Twitter_volume_CRM,-0.24648234,0.03845613,-0.35270017,-0.7034802,-0.21338853,0.22256276,-0.5610327,0.14714652,0.11961249,-0.06623815,0.13111405,-0.18541232,-0.7660718,0.122564375,-0.5071181,-0.6285171,1
Twitter_volume_CVS,0.12827177,-0.51652783,-0.5987338,-0.72310346,-0.00217755,-0.54788965,-0.32182735,-0.5800854,-0.632645,0.347274,0.42288634,-0.10841063,0.062464602,0.074172646,0.8643803,-0.42604703,1
Twitter_volume_FB,-0.4208901,0.6668091,0.449931,-0.7586445,-0.50506914,0.2862413,-0.48618793,-0.3691537,-0.028643545,-0.34964293,0.2940442,-0.5368255,-0.5354051,-0.3467871,-0.54429394,-0.35552657,1
Twitter_volume_GOOG,-0.5148641,0.2361321,-0.4994371,0.05405693,-0.5105926,0.6745158,-0.26607522,-0.17421521,0.44803074,-0.30844462,-0.41226852,-0.30255613,-0.6957269,-0.1100771,-0.98487014,-0.3593927,0
Twitter_volume_IBM,-0.49204203,0.15987563,-0.4903237,-0.10881971,-0.43917426,0.57568866,-0.3194228,-0.05509695,0.41211045,-0.25403395,-0.34504062,-0.22345066,-0.74942636,0.005078427,-0.9456497,-0.4324018,1
Twitter_volume_KO,-0.37997842,0.1803227,0.22069438,-0.7967876,-0.26602927,-0.034156322,-0.51175374,0.09276766,-0.42625704,-0.22325122,0.23601106,-0.49156293,-0.13173261,-0.2094766,0.039251212,-0.595152,1
Twitter_volume_PFE,-0.34607154,-0.13388939,-0.4980631,-0.4426013,-0.27902168,0.17920607,-0.35033247,0.062450066,0.29454008,-0.090536736,-0.13069245,0.08395191,-0.8107889,0.30417633,-0.7410178,-0.46447426,0
Twitter_volume_UPS,-0.37514696,-0.43203494,-0.21483228,-0.5278551,-0.10957007,-0.506154,0.16251346,-0.13522123,-0.49659905,-0.062329456,-0.06260126,-0.20760162,0.67785037,-0.022570021,0.54715526,-0.3444324,1
Yahoo_A1real_10_data,-0.57005805,-0.12721162,-0.77510643,0.58671653,-0.23480068,0.31120458,-0.30831438,0.1318892,0.26807967,-0.16860013,-0.56759304,-0.0116650285,-0.70727926,0.18617338,-0.95212644,-0.4454964,4
Yahoo_A1real_11_data,-0.49211565,-0.05824522,0.041579653,-0.41530177,-0.1599147,-0.15445986,-0.05312484,0.100511245,-0.48186,-0.24400592,-0.09818056,-0.5202872,0.559978,-0.35308293,0.33795303,-0.33090943,2
Yahoo_A1real_12_data,-0.107994266,0.018223014,-0.3981975,-0.73865914,0.014110539,0.041148998,-0.7273147,0.31036654,-0.23699014,0.13139325,0.21458529,-0.47874644,-0.47663313,-0.118341096,0.046532694,-0.72030646,4
Yahoo_A1real_13_data,-0.59139204,-0.31978187,-0.039346583,-0.29003537,-0.05710593,-0.41051802,0.45713094,0.14687428,-0.5969276,-0.23564821,-0.3667843,-0.46690682,1.4843528,-0.3602333,0.7054041,-0.3234884,4
Yahoo_A1real_14_data,-0.3016024,0.1633826,0.024054265,-0.73509115,-0.19817933,0.0688713,-0.6379379,0.004607662,-0.21098983,-0.03861477,0.19465679,-0.41741735,-0.44632673,-0.12398234,-0.12587678,-0.54232967,0
Yahoo_A1real_15_data,-0.5890096,-0.3503289,-0.07829345,-0.2828004,-0.048205674,-0.42193764,0.49574518,0.12705174,-0.59213763,-0.23240468,-0.38058406,-0.46105954,1.5273504,-0.35576928,0.72898185,-0.31620547,4
Yahoo_A1real_16_data,-0.57831323,0.35938343,0.6348136,-0.58340305,-0.38831833,-0.053168368,-0.39544946,-0.22669077,-0.46646008,-0.3168081,0.12653251,-0.567333,0.007654159,-0.40477172,0.01940507,-0.2818216,4
Yahoo_A1real_17_data,-0.15218939,-0.32569468,-0.40416646,-0.6962364,-0.07485297,-0.33489725,-0.34407207,-0.16544797,-0.36629534,0.124341235,0.10640363,-0.06295399,-0.15293851,0.059383217,0.31581447,-0.33130485,4
Yahoo_A1real_18_data,-0.38669538,-0.5419013,-0.47547835,-0.19238304,-0.025375037,-0.43932158,0.47506556,-0.1622289,-0.63302505,-0.16097689,-0.23712528,-0.4655769,1.5059905,-0.3408112,0.96385735,-0.31592503,4
Yahoo_A1real_19_data,-0.37617993,0.1357137,-0.1325203,-0.650394,-0.24983479,0.14257762,-0.51578325,-0.079302505,0.06617784,-0.09231606,0.0019064369,-0.18819144,-0.68796366,0.004694591,-0.53328997,-0.40786391,4
Yahoo_A1real_1_data,-0.39331013,-0.2189488,-0.65942234,-0.099969484,-0.1329312,0.14027427,-0.3980041,0.22727324,0.2521477,-0.0003435269,-0.31078303,0.2126975,-0.82896316,0.33658394,-0.8385718,-0.43395656,4
Yahoo_A1real_20_data,-0.38397753,0.2643187,-0.11072781,-0.66481936,-0.22276823,0.13638158,-0.55930686,-0.152899,0.12920864,-0.16432643,0.007761787,-0.3675999,-0.6673331,-0.031745646,-0.57428086,-0.4098064,4
Yahoo_A1real_21_data,-0.11228532,-0.62564796,-0.72979075,-0.3305888,-0.016495874,-0.45373252,-0.0042782133,-0.699482,-0.7753541,0.3329297,0.15163797,-0.3458215,0.76387155,-0.25140303,1.2798524,-0.26630223,0
Yahoo_A1real_22_data,-0.42346045,0.54540515,0.14754473,-0.6133803,-0.36585203,0.26444927,-0.5110707,-0.34495518,0.11571627,-0.23223999,0.07892203,-0.52370584,-0.75983113,-0.27317536,-0.6046582,-0.2523216,2
Yahoo_A1real_23_data,-0.13540201,-0.24514546,-0.6147787,-0.62635255,0.006680947,-0.16786392,-0.5677852,-0.002332719,0.0129657695,0.28082258,0.120146975,0.13198951,-0.7551132,0.39353058,-0.3277083,-0.4849373,4
Yahoo_A1real_24_data,-0.40519917,-0.5738904,-0.5324467,-0.18252723,-0.030458566,-0.44855464,0.49578118,-0.25720805,-0.63543123,-0.11452943,-0.2290862,-0.44323593,1.4530089,-0.3421041,1.0056626,-0.25389037,0
Yahoo_A1real_25_data,-0.5074684,-0.67614186,-0.6244731,-0.052701812,-0.094557166,-0.50198364,1.0072433,-0.46129233,-0.48067752,-0.27267033,-0.3683157,-0.3783682,1.889139,-0.29717693,0.9521524,-0.13836995,2
Yahoo_A1real_26_data,-0.21822722,0.16259147,-0.13461609,-0.7166356,-0.06343421,0.08492096,-0.72116566,0.23447905,-0.2969375,0.070684664,0.20845576,-0.528996,-0.4111069,-0.18758279,0.04117135,-0.6646572,2
Yahoo_A1real_27_data,-0.41027862,-0.5760779,-0.49838212,-0.25624016,0.005684864,-0.4257777,0.45820636,-0.25379673,-0.64068806,-0.0035378516,-0.24133128,-0.42079857,1.4992229,-0.30554613,1.0118889,-0.30559647,4
Yahoo_A1real_28_data,-0.3542246,0.213375,-0.15123694,-0.6708102,-0.19540009,0.2467137,-0.6422758,0.06547663,-0.009979572,-0.0009042947,0.080623515,-0.37289202,-0.6434159,-0.0877493,-0.4048166,-0.5668029,2
Yahoo_A1real_29_data,-0.31515136,0.0332559,-0.04115855,-0.7622624,-0.09036592,-0.025072353,-0.6276284,0.17350319,-0.42965248,0.05122367,0.1600537,-0.49124834,-0.1279618,-0.18962727,0.17965187,-0.6242844,0
Yahoo_A1real_2_data,-0.4802085,-0.6035363,-0.48132858,-0.14565888,-0.054255947,-0.4996715,0.79682314,-0.24227053,-0.52263796,-0.30137613,-0.32680872,-0.39767468,1.7069607,-0.3103204,0.88769037,-0.1980949,4
Yahoo_A1real_30_data,-0.6379211,-0.096141495,0.2718189,-0.33211935,-0.15911831,-0.3408025,0.25356692,0.17006536,-0.59513503,-0.29542375,-0.24862665,-0.4795598,1.1760921,-0.38648054,0.490993,-0.31564203,2
Yahoo_A1real_31_data,-0.4460919,-0.6896354,-0.6219567,-0.1442287,-0.061882768,-0.48442367,0.8073978,-0.49351534,-0.5191929,-0.1793003,-0.24427696,-0.34738222,1.6708752,-0.27342844,0.9677991,-0.1685124,2
Yahoo_A1real_32_data,-0.40547374,0.5998316,0.26865226,-0.6356366,-0.4095411,0.3740711,-0.5400739,-0.38186383,0.22129236,-0.28063098,0.10065509,-0.53407234,-0.73948365,-0.32618037,-0.68509316,-0.23874816,4
Yahoo_A1real_33_data,-0.107994266,0.018223014,-0.3981975,-0.73865914,0.014110539,0.041148998,-0.7273147,0.31036654,-0.23699014,0.13139325,0.21458529,-0.47874644,-0.47663313,-0.118341096,0.046532694,-0.72030646,4
Yahoo_A1real_34_data,-0.39070067,0.64508367,0.31006658,-0.66177404,-0.3929999,0.36231822,-0.5949063,-0.2967799,0.11686886,-0.24830428,0.16411667,-0.59527606,-0.68052804,-0.35629928,-0.57918483,-0.3382612,4
Yahoo_A1real_35_data,-0.33377182,-0.53991604,-0.5206301,-0.26975498,0.03712766,-0.39846432,0.2548718,-0.21256875,-0.7194734,0.085459456,-0.16027331,-0.48301706,1.3558893,-0.34021887,1.1060929,-0.37644124,0
Yahoo_A1real_36_data,-0.41891038,0.6935693,0.1777829,-0.5405375,-0.43441582,0.4787302,-0.5129796,-0.39407986,0.31335172,-0.27575806,0.030347535,-0.5732441,-0.7855988,-0.3408538,-0.80956805,-0.23409627,4
Yahoo_A1real_37_data,0.008040882,-0.3809598,-0.601366,-0.747429,0.029344482,-0.35294038,-0.5011642,-0.19450276,-0.10763452,0.31503415,0.21791145,0.26037005,-0.6518241,0.41946295,-0.032206565,-0.33488765,4
Yahoo_A1real_38_data,-0.2809285,-0.13348307,-0.47124407,-0.6788685,-0.10077013,-0.016010428,-0.58642554,0.0038754304,0.060078286,0.08281797,-0.026252883,-0.013332287,-0.673402,0.25018412,-0.46853718,-0.55395925,4
Yahoo_A1real_39_data,-0.5381137,0.19125602,-0.5684861,0.20914787,-0.3779183,0.5202523,-0.35920805,-0.14739166,0.33671796,-0.26340818,-0.5068784,-0.2889575,-0.7073493,-0.08797817,-0.9335064,-0.36298338,4
Yahoo_A1real_3_data,-0.60090643,-0.6264126,-0.4480513,-0.18788606,-0.035150852,-0.5033752,0.95872045,-0.26133743,-0.49902257,-0.19211066,-0.46714061,-0.37209052,1.9352041,-0.2973187,0.9132182,-0.1925626,4
Yahoo_A1real_40_data,-0.43407345,0.6979391,0.3580775,-0.62942743,-0.40225735,0.39042315,-0.6136039,-0.32849777,0.044122428,-0.1933239,0.1690357,-0.63534987,-0.6588891,-0.40845668,-0.5075223,-0.3113247,2
Yahoo_A1real_41_data,-0.23951708,-0.03869091,-0.15805799,-0.7415762,-0.048315015,-0.13834526,-0.56827015,0.09583281,-0.41034237,0.058350023,0.16494226,-0.4393135,-0.0942968,-0.14675339,0.23664808,-0.60204774,0
Yahoo_A1real_42_data,-0.34983242,-0.4937439,-0.34645563,-0.37501517,-0.06089541,-0.4036303,0.12357785,-0.1762145,-0.6594929,-0.024813686,-0.07002993,-0.35471958,0.78665054,-0.2998818,0.8283567,-0.24666172,2
Yahoo_A1real_43_data,-0.54302055,0.17187609,-0.5860225,0.37639812,-0.44576234,0.4753144,-0.28710055,-0.29414928,0.3448001,-0.3424843,-0.550569,-0.34282878,-0.66652274,-0.107957736,-0.93786263,-0.28061327,4
Yahoo_A1real_44_data,-0.40805665,0.5926445,0.12731071,-0.6267824,-0.3562128,0.42220214,-0.5893686,-0.20607924,0.18297808,-0.22322756,0.043136787,-0.57062495,-0.70274967,-0.31546444,-0.67188203,-0.3842007,2
Yahoo_A1real_45_data,-0.017810415,-0.3447299,-0.6855523,-0.638175,0.053009283,-0.22306675,-0.6025864,-0.0089633865,0.051672935,0.2959267,0.15018769,0.22675419,-0.80184275,0.46413553,-0.29709142,-0.49080074,1
Yahoo_A1real_46_data,-0.13575332,-0.6224799,-0.74194944,-0.24521416,-0.006971387,-0.44894004,0.16425793,-0.6580953,-0.74723864,0.23251031,0.0842389,-0.3899166,1.1258434,-0.25710994,1.260022,-0.3200461,2
Yahoo_A1real_47_data,-0.38847876,-0.31153786,-0.12414138,-0.3945172,-0.046673838,-0.3516571,0.07181362,0.15403333,-0.64454436,-0.18803221,-0.11966815,-0.4930989,1.0387471,-0.32564297,0.7099695,-0.4355157,4
Yahoo_A1real_48_data,-0.5016698,0.19560671,0.32007855,-0.53878576,-0.43269533,-0.20123301,-0.19114558,-0.30658042,-0.24787866,-0.19259988,0.06020617,-0.23850445,-0.14688054,-0.065949894,-0.28926638,-0.27583814,2
Yahoo_A1real_49_data,-0.38669538,-0.5419013,-0.47547835,-0.19238304,-0.025375037,-0.43932158,0.47506556,-0.1622289,-0.63302505,-0.16097689,-0.23712528,-0.4655769,1.5059905,-0.3408112,0.96385735,-0.31592503,4
Yahoo_A1real_4_data,-0.48187283,-0.3187236,-0.0911998,-0.4225539,-0.09261256,-0.38680908,0.16016898,0.06399803,-0.63751185,-0.1854756,-0.18745402,-0.46711025,1.0045843,-0.32305378,0.6661404,-0.33304542,4
Yahoo_A1real_50_data,-0.4994117,-0.16406323,0.10609929,-0.30303535,-0.112625346,-0.3459101,0.17770128,0.23889296,-0.614867,-0.35743502,-0.19143458,-0.5263974,1.1418872,-0.40722564,0.5812785,-0.36634466,0
Yahoo_A1real_51_data,-0.23014806,-0.37132984,-0.35750908,-0.5190875,0.06233927,-0.27963609,-0.2787048,0.028256286,-0.72737134,0.18838246,0.06288699,-0.5003925,0.69989514,-0.28959966,0.9015702,-0.5493935,0
Yahoo_A1real_52_data,-0.21435903,-0.15339638,-0.52766967,-0.6850518,-0.041556716,0.00049099966,-0.60934573,0.10536793,-0.012171847,0.166533,0.08586956,-0.06748573,-0.73363936,0.2463696,-0.3560434,-0.5897296,4
Yahoo_A1real_53_data,-0.40519917,-0.5738904,-0.5324467,-0.18252723,-0.030458566,-0.44855464,0.49578118,-0.25720805,-0.63543123,-0.11452943,-0.2290862,-0.44323593,1.4530089,-0.3421041,1.0056626,-0.25389037,0
Yahoo_A1real_54_data,-0.34614828,-0.15799052,-0.074739486,-0.32235405,-0.09610594,-0.29739755,0.036416035,0.16081303,-0.603223,-0.23172572,-0.14722458,-0.5424667,0.9503672,-0.3699078,0.6710181,-0.42306176,2
Yahoo_A1real_55_data,-0.52905697,0.15227936,-0.63801146,0.49927673,-0.44428298,0.54358214,-0.28164342,-0.24960066,0.33419034,-0.29357997,-0.5426192,-0.31854635,-0.68145454,-0.101504534,-0.90547055,-0.30968916,4
Yahoo_A1real_56_data,-0.43295547,0.47170556,-0.26562345,-0.34431753,-0.33845633,0.5851894,-0.54040635,-0.06409433,0.3300272,-0.117982276,-0.15927637,-0.44164845,-0.85450107,-0.14124124,-0.86232793,-0.49352583,4
Yahoo_A1real_57_data,-0.40784034,0.46964037,0.11520642,-0.6216435,-0.34393606,0.32076094,-0.5299843,-0.29608217,0.20698445,-0.24850419,0.05894989,-0.4266964,-0.73019564,-0.21876791,-0.676608,-0.28980792,4
Yahoo_A1real_58_data,-0.49077052,-0.65743273,-0.59905857,-0.095591985,-0.08265563,-0.49708572,0.90704995,-0.42303506,-0.49486157,-0.24992746,-0.3289011,-0.3635464,1.7668117,-0.29230583,0.9354147,-0.14566855,4
Yahoo_A1real_59_data,0.3260052,-0.479114,-0.7521573,-0.77823687,0.093782954,-0.6310524,-0.6185112,-0.80410814,-0.63632584,0.6810624,0.5573783,-0.0055822455,-0.18412323,0.16022801,0.9737996,-0.43953216,0
Yahoo_A1real_5_data,-0.43852907,0.31278342,-0.5391044,0.579842,-0.5855292,0.62351286,-0.20932609,-0.6443509,0.41734496,-0.4278704,-0.49993142,-0.5541256,-0.6235283,-0.39475727,-0.8115645,-0.01352499,4
Yahoo_A1real_60_data,-0.47879687,0.07397811,0.29742453,-0.5448005,-0.17124651,-0.1530582,-0.31392685,0.1405915,-0.5788659,-0.16234317,0.03419766,-0.5464164,0.4356418,-0.36014736,0.3374226,-0.46867174,4
Yahoo_A1real_61_data,-0.51021624,0.37348998,0.65280956,-0.49463764,-0.34168315,-0.12471592,-0.3635018,-0.07254038,-0.5204848,-0.37377277,0.13788953,-0.5928663,0.22809857,-0.4629947,0.12665485,-0.34108242,2
Yahoo_A1real_62_data,-0.5220691,-0.62254256,-0.49837342,-0.19326517,-0.04657004,-0.42347732,0.9539538,-0.3423335,-0.5104016,-0.14921401,-0.43154544,-0.33484483,1.8587464,-0.2969663,0.99410033,-0.14463991,4
Yahoo_A1real_63_data,0.19011898,-0.3303076,-0.70258427,-0.80290335,0.1644703,-0.27943054,-0.7915017,-0.087265186,-0.3462026,0.44175133,0.42549902,-0.16260426,-0.5171663,0.121355854,0.44727495,-0.64324504,2
Yahoo_A1real_64_data,-0.44415465,0.61028606,0.4325442,-0.6394345,-0.3540644,0.26675582,-0.63181376,-0.11915017,-0.21197073,-0.14515556,0.1915605,-0.66204417,-0.42555875,-0.43519884,-0.22704862,-0.4367696,0
Yahoo_A1real_65_data,-0.46000135,0.43740982,-0.11445865,-0.34269196,-0.38557455,0.516035,-0.4533668,-0.18919833,0.279697,-0.19787623,-0.15780562,-0.40192062,-0.8171395,-0.24031033,-0.7962813,-0.2924865,4
Yahoo_A1real_66_data,-0.5174909,-0.46737683,-0.22571135,-0.26539415,-0.11982833,-0.42494825,0.47098923,-0.004956818,-0.5741436,-0.35191256,-0.28984553,-0.40372312,1.1716484,-0.34211606,0.68164974,-0.1680618,2
Yahoo_A1real_67_data,-0.59266764,-0.6559983,-0.50965345,-0.1800313,-0.038904034,-0.4968981,0.98669624,-0.34869662,-0.49069074,-0.16079515,-0.447744,-0.35311,1.9363075,-0.28855556,0.9410611,-0.16740738,2
Yahoo_A1real_6_data,-0.5445257,-0.26365098,0.0039795907,-0.3248873,-0.06415733,-0.34428617,0.24887738,0.20175202,-0.64014775,-0.18269636,-0.27598527,-0.49763018,1.2816489,-0.38251013,0.6904007,-0.38027218,4
Yahoo_A1real_7_data,-0.34794357,-0.5749642,-0.60380965,-0.28966546,-0.09994861,-0.5083764,0.5828093,-0.4860803,-0.5008733,-0.10285159,-0.16874662,-0.31647366,1.3813726,-0.18620424,0.851668,-0.22399336,4
Yahoo_A1real_8_data,-0.43360054,-0.24904792,-0.026253032,-0.5826201,-0.14642613,-0.33369187,-0.03948342,-0.015353634,-0.51292455,-0.16216284,-0.04933073,-0.33054376,0.5535515,-0.19553643,0.3967126,-0.34522808,0
Yahoo_A1real_9_data,-0.42193007,0.26997572,-0.5629892,0.6495745,-0.5928053,0.5867704,-0.1895096,-0.6632197,0.4007758,-0.4526883,-0.50883704,-0.5502811,-0.58580106,-0.4073506,-0.7846633,-0.013333131,4
ambient_temperature_system_failure,-0.28964525,-0.067299105,-0.39160386,-0.7238614,-0.17730546,0.09116818,-0.5607948,0.07045472,0.056677353,0.016591597,0.080046,-0.08401678,-0.70012885,0.1732927,-0.434483,-0.5688509,0
art_daily_flatmiddle,-0.1024912,-0.3875635,-0.40664303,-0.9020133,-0.107964315,-0.43250704,-0.34841722,-0.370845,-0.26699778,0.2187537,0.28226656,0.12683037,-0.3997205,0.35790265,0.12647237,-0.36896497,1
art_daily_jumpsdown,-0.30130467,-0.16531397,-0.33100897,-0.7797329,-0.2190358,-0.13473456,-0.35142082,-0.053532857,0.13443582,-0.07076074,0.059972357,0.06715829,-0.6914988,0.3576907,-0.52934444,-0.43222174,0
art_daily_jumpsup,0.06289264,-0.52337205,-0.5594797,-0.7660729,-0.109214395,-0.6186971,-0.17998536,-0.6725661,-0.4183174,0.24321981,0.38649336,0.12616442,-0.15017672,0.30252895,0.5045871,-0.26704815,1
art_daily_nojump,-0.42329916,-0.061563466,-0.32494274,-0.619285,-0.2990188,0.035663135,-0.3108404,-0.076452576,0.2785353,-0.15688968,-0.11205458,0.021138454,-0.73447007,0.31372598,-0.76261854,-0.3992215,0
art_increase_spike_density,-0.37982288,-0.018916741,-0.7720307,1.0256681,-0.62393284,0.4391106,-0.048705254,-0.70522755,0.3283568,-0.4853147,-0.5556472,-0.45949647,-0.40751335,-0.3603433,-0.6539743,-0.015518409,4
art_load_balancer_spikes,-0.39873996,0.18735895,-0.16543685,-0.6417014,-0.324367,0.22784638,-0.39509186,-0.09079653,0.20217004,-0.20224068,-0.0068491567,-0.19429429,-0.7329416,0.060362015,-0.7059505,-0.43846235,1
cpu_utilization_asg_misconfiguration,-0.33994034,-0.028967217,-0.77968484,0.99036616,-0.67574424,0.43613404,0.03487872,-0.79988784,0.33717436,-0.5261928,-0.5524023,-0.46414408,-0.34264928,-0.38962162,-0.66083163,0.063943274,4
ec2_cpu_utilization_24ae8d,-0.51451844,0.23960593,-0.5676792,0.41901347,-0.59407955,0.6550614,-0.15606102,-0.5122018,0.42659807,-0.42829943,-0.5315286,-0.43149397,-0.57969725,-0.25044876,-0.9365225,-0.15789917,0
ec2_cpu_utilization_53ea38,-0.3402938,-0.018564092,-0.7540225,0.98421824,-0.6582923,0.4002941,-0.02524685,-0.8146583,0.33641404,-0.52252626,-0.53005046,-0.50123364,-0.37681687,-0.41227502,-0.6132254,0.055865236,2
ec2_cpu_utilization_5f5533,-0.3710539,-0.009997942,-0.7599333,1.0078429,-0.63457876,0.43571913,-0.043370873,-0.7263223,0.3399283,-0.4888587,-0.5468993,-0.46622777,-0.40669242,-0.36897916,-0.6540891,-0.00065094564,4
ec2_cpu_utilization_77c1ca,0.02587766,-0.56012547,-0.5553458,-0.6253536,-0.14766102,-0.62124705,0.022562834,-0.7115431,-0.33284578,0.23651728,0.25729367,0.22591789,0.039344303,0.2963337,0.45593867,-0.18250932,1
ec2_cpu_utilization_825cc2,-0.38944075,-0.0018350086,-0.7465942,0.96665615,-0.62437814,0.4596534,-0.050972894,-0.68715405,0.35081723,-0.46405664,-0.5502838,-0.43727297,-0.43434832,-0.34126422,-0.6830309,-0.017998535,4
ec2_cpu_utilization_ac20cd,0.37338188,-0.5286219,-0.70395464,-0.7616781,-0.008087695,-0.6946113,-0.37715247,-0.8791107,-0.58886844,0.55132675,0.5868111,0.11475286,-0.23999608,0.24722198,0.85919243,-0.35720104,1
ec2_cpu_utilization_fe7f93,-0.42295307,0.11483201,-0.116404854,-0.6763009,-0.3742306,0.10216552,-0.32972035,-0.2556076,0.21649902,-0.2583945,-0.01144536,-0.12413659,-0.7047262,0.13578106,-0.7267334,-0.33854118,2
ec2_disk_write_bytes_1ef3de,-0.47325864,0.22150074,-0.088802144,-0.59814894,-0.4399878,0.24534525,-0.28524217,-0.30845553,0.31223774,-0.3216337,-0.107263856,-0.20482083,-0.7315507,0.029420933,-0.85425097,-0.29021803,1
ec2_disk_write_bytes_c0d644,-0.0982506,-0.56000894,-0.5460567,-0.5613182,-0.08857044,-0.58316255,0.10057489,-0.6151591,-0.5073911,0.23045605,0.17611314,-0.019886136,0.42248002,0.15379475,0.710242,-0.2650663,0
ec2_network_in_257a54,-0.55923,0.1719211,0.52645195,-0.50410587,-0.31205526,-0.26402438,-0.1869381,0.12141117,-0.62645453,-0.40607932,0.019696029,-0.56984097,0.53562975,-0.3871067,0.26838064,-0.44205913,1
ec2_network_in_5abac7,-0.5504344,0.15867776,-0.42035615,0.0016017042,-0.54317665,0.47926313,-0.17028804,-0.38438076,0.4279533,-0.37969348,-0.4509359,-0.26467487,-0.664338,-0.04241958,-0.98160946,-0.20408592,0
ec2_request_latency_system_failure,-0.12378822,-0.13246651,-0.5815404,-0.67461574,-0.01468086,0.10177223,-0.6743788,0.24991462,0.037573345,0.113991395,0.16334215,-0.093455784,-0.81982404,0.20700641,-0.3500111,-0.67494375,0
elb_request_count_8c0756,-0.53811425,-0.0777016,-0.7677811,0.81665415,-0.4520944,0.4915867,-0.1873236,-0.1433836,0.32438675,-0.31380314,-0.62155163,-0.18415411,-0.5923019,-0.013013509,-0.88697886,-0.32074,0
exchange-2_cpc_results,-0.5107583,-0.034215033,-0.75339377,0.89178866,-0.45655116,0.45502484,-0.2211293,-0.29535314,0.28984776,-0.3478776,-0.59493405,-0.3068708,-0.5817135,-0.13283516,-0.79572564,-0.2839773,4
exchange-2_cpm_results,-0.4979363,-0.031392064,-0.7572729,0.96958435,-0.466175,0.46395442,-0.20711905,-0.32927555,0.28477237,-0.35588795,-0.5845515,-0.32640776,-0.57550097,-0.16880804,-0.76442647,-0.24878736,0
exchange-3_cpc_results,0.105787545,-0.5316495,-0.6859774,-0.656408,0.005374496,-0.5399391,-0.26539567,-0.71239066,-0.5657907,0.39899352,0.35928357,-0.08268902,0.21411957,0.09232516,0.8392911,-0.3809295,4
exchange-3_cpm_results,-0.486395,0.10358722,-0.68598413,0.72583896,-0.48088032,0.5113468,-0.21709977,-0.40065998,0.34068796,-0.3511195,-0.5572184,-0.36369643,-0.61570024,-0.17974977,-0.828569,-0.21294165,0
exchange-4_cpc_results,-0.53407276,0.32748976,-0.3592499,-0.034389134,-0.47344372,0.57456535,-0.29617375,-0.39969018,0.4364482,-0.3421073,-0.40289202,-0.40413204,-0.74047494,-0.20264521,-0.97186166,-0.18576111,4
exchange-4_cpm_results,-0.5286115,0.26109323,-0.488734,0.26557252,-0.511062,0.5907459,-0.24237613,-0.4697517,0.4285563,-0.3799854,-0.49181405,-0.4253449,-0.68004817,-0.24369629,-0.9318058,-0.13090076,4
grok_asg_anomaly,-0.47350115,0.11904447,-0.5290411,-0.0489385,-0.34363106,0.53083575,-0.3942942,0.015046681,0.37272853,-0.21269299,-0.34157395,-0.20659348,-0.7851529,0.028599294,-0.91876674,-0.45384368,0
iio_us-east-1_i-a2eb1cd9_NetworkIn,-0.50075483,0.49129677,-0.31818837,0.01748229,-0.4495443,0.4963485,-0.331859,-0.28664815,0.36230868,-0.26131585,-0.35665426,-0.42957255,-0.7342676,-0.12968646,-0.98168653,-0.33787373,4
machine_temperature_system_failure,0.39601466,-0.5094419,-0.6955739,-0.83440596,0.040693972,-0.58560175,-0.52728814,-0.71685296,-0.47833648,0.56719255,0.638254,0.21271954,-0.54916257,0.31805846,0.6858908,-0.40490153,1
nyc_taxi,-0.42485276,-0.0128110945,-0.7883437,1.0301003,-0.59894544,0.5327835,-0.05571022,-0.53030103,0.3386699,-0.43112925,-0.58131135,-0.38544175,-0.44424003,-0.28417516,-0.7458132,-0.108676955,4
occupancy_6005,0.1690528,-0.500478,-0.6531072,-0.71668226,-0.043599155,-0.520927,-0.36600676,-0.4459901,0.0051925015,0.35649058,0.3104326,0.57305527,-0.8020134,0.64531195,-0.14151098,-0.254344,0
occupancy_t4013,0.11389644,-0.46925834,-0.64781314,-0.6782975,-0.04924112,-0.462508,-0.38209647,-0.33833373,0.065186106,0.29174596,0.25974268,0.54541904,-0.8036079,0.6195407,-0.23758154,-0.2803831,1
rds_cpu_utilization_cc0c53,-0.46807498,0.08560449,-0.69847715,0.79800814,-0.5698467,0.58886486,-0.11411251,-0.47669822,0.37580207,-0.4015704,-0.5467738,-0.3665584,-0.53734183,-0.26777944,-0.8205181,-0.11902698,0
rds_cpu_utilization_e47b3b,-0.3466798,-0.004250506,-0.7446564,0.96448106,-0.6578804,0.41449693,-0.026263215,-0.80401886,0.3413551,-0.52209187,-0.5312248,-0.49948815,-0.38272643,-0.40683985,-0.63011056,0.050858077,2
rogue_agent_key_hold,-0.1937314,-0.12751514,-0.31146047,-0.79976106,-0.13254151,-0.18208624,-0.49700168,-0.13773231,-0.06662571,0.04654464,0.18117984,-0.02549263,-0.60840845,0.21825925,-0.26133147,-0.4460164,4
rogue_agent_key_updown,-0.4367169,0.5021954,0.37864244,-0.81645036,-0.45169514,0.16828002,-0.46286532,-0.34900683,-0.03673507,-0.38955247,0.23817877,-0.51316124,-0.55295134,-0.2487149,-0.53175324,-0.3619178,0
speed_6005,-0.49576637,-0.2846576,-0.7324923,0.24523772,-0.19943044,0.15943468,-0.31845433,0.20370601,0.2853968,-0.04849484,-0.42884013,0.2421498,-0.7628844,0.44195184,-0.9248794,-0.43146977,0
speed_7578,-0.3093527,-0.6354709,-0.6521761,-0.16144776,-0.026247673,-0.42228636,0.4551599,-0.46386167,-0.67292684,-0.0044152257,-0.11999447,-0.41814786,1.4303377,-0.32985234,1.1319526,-0.25026122,0
speed_t4013,-0.26390696,-0.36097303,-0.30490613,-0.51917917,0.057639536,-0.35546464,-0.2283833,0.08201295,-0.74282146,0.15943208,0.035309594,-0.476834,0.7385183,-0.2568263,0.8996196,-0.5544752,1
